
\data\
ngram 1=28674
ngram 2=95849
ngram 3=8454

\1-grams:
-4.983953	100	-0.30103
-4.983953	12	-0.30103
-4.983953	13	-0.30103
-4.807862	15	-0.4771213
-4.807862	24	-0.4771213
-4.983953	26	-0.30103
-4.983953	28	-0.30103
-4.983953	3	-0.30103
-4.983953	34	-0.30103
-4.983953	35	-0.30103
-4.983953	36	-0.30103
-4.983953	37	-0.30103
-4.807862	4	-0.4771213
-4.983953	40	-0.30103
-4.983953	44	-0.30103
-4.807862	5	-0.30103
-4.983953	5f	-0.30103
-4.807862	6	-0.4771213
-4.586013	60	-0.4771212
-4.983953	64	-0.30103
-4.983953	98	-0.30103
-0.7985243	</s>
-99	<s>	-0.6781909
-4.17104	a	-0.39794
-4.983953	aaa	-0.30103
-4.807862	aaah	-0.30103
-4.807862	aah	-0.4771213
-4.586013	ab	-0.30103
-4.506832	aba	-0.3521825
-4.983953	abanın	-0.30103
-4.983953	abartmaya	-0.30103
-4.983953	abartıyorsun	-0.30103
-4.983953	abaza	-0.30103
-4.506832	abdal	-0.3521825
-4.682923	abdala	-0.30103
-4.682923	abdalın	-0.30103
-4.983953	abdest	-0.30103
-4.983953	abdestle	-0.30103
-4.983953	abdestsiz	-0.30103
-4.205802	abdomen	-0.6690068
-4.284983	abdominal	-0.447158
-4.586013	abdominopelvik	-0.69897
-4.983953	abdullah	-0.30103
-4.983953	abdurrahman	-0.30103
-4.682923	abi	-0.60206
-4.983953	abim	-0.30103
-4.682923	abla	-0.60206
-4.807862	ablacığım	-0.30103
-4.983953	ablası	-0.30103
-4.983953	ablasına	-0.30103
-4.807862	aborjin	-0.30103
-4.983953	aca	-0.30103
-3.740915	acaba	-0.4181434
-4.983953	acar	-0.30103
-4.381893	acayip	-0.4393327
-3.651515	acele	-0.4175356
-4.983953	aceleci	-0.30103
-4.586013	acelem	-0.3679768
-4.983953	acelemiz	-0.30103
-4.983953	acelen	-0.30103
-4.983953	aceleye	-0.30103
-4.586013	acemi	-0.30103
-4.807862	acemilik	-0.30103
-4.983953	acemiydim	-0.30103
-4.807862	acentadan	-0.30103
-4.983953	acentaya	-0.30103
-4.284983	acil	-0.447158
-4.983953	acilen	-0.30103
-4.983953	aciz	-0.30103
-3.672199	acı	-0.3521825
-4.983953	acıdan	-0.30103
-4.983953	acıdılar	-0.30103
-4.807862	acıdır	-0.30103
-4.983953	acıdığı	-0.30103
-4.506832	acıkan	-0.30103
-4.983953	acıklı	-0.30103
-4.983953	acıkmamış	-0.30103
-4.983953	acıkmıyor	-0.30103
-4.807862	acıkmış	-0.30103
-4.983953	acıktı	-0.30103
-4.983953	acıktık	-0.30103
-4.983953	acıktın	-0.30103
-4.983953	acıktınız	-0.30103
-4.983953	acıktırırsan	-0.30103
-4.983953	acıktığımı	-0.30103
-4.983953	acıkır	-0.30103
-4.983953	acılarını	-0.30103
-4.983953	acılıkla	-0.30103
-4.807862	acıman	-0.30103
-4.983953	acımasızsın	-0.30103
-4.983953	acımayacak	-0.30103
-4.983953	acımaz	-0.30103
-4.983953	acımıyor	-0.30103
-4.983953	acımış	-0.30103
-4.983953	acın	-0.30103
-4.983953	acınacak	-0.30103
-4.807862	acınası	-0.4771213
-4.983953	acından	-0.30103
-4.983953	acındırırsan	-0.30103
-4.983953	acını	-0.30103
-4.983953	acır	-0.30103
-4.983953	acırsın	-0.30103
-4.983953	acısı	-0.30103
-4.983953	acısından	-0.30103
-4.983953	acısını	-0.30103
-4.983953	acıt	-0.30103
-4.983953	acıtacak	-0.30103
-4.983953	acıtmayacak	-0.30103
-4.983953	acıtmıştı	-0.30103
-4.807862	acıttı	-0.4771213
-4.807862	acıtıyor	-0.30103
-4.983953	acıtıyordu	-0.30103
-4.586013	acıyan	-0.30103
-4.33074	acıyor	-0.69897
-4.807862	acıyı	-0.30103
-4.983953	acıyınız	-0.30103
-4.682923	ada	-0.30103
-4.983953	adaaam	-0.30103
-4.983953	adalar	-0.30103
-4.983953	adaleleri	-0.30103
-4.807862	adalelerini	-0.30103
-4.682923	adalet	-0.30103
-4.983953	adaletin	-0.30103
-3.161131	adam	-0.3756636
-3.962764	adama	-0.312311
-4.983953	adamak	-0.30103
-4.807862	adamakla	-0.4771212
-3.740915	adamakıllı	-0.30103
-4.807862	adamcağız	-0.30103
-4.983953	adamcağızı	-0.30103
-4.983953	adamcağızın	-0.30103
-4.983953	adamdan	-0.30103
-4.586013	adamdı	-0.69897
-4.506832	adamdır	-0.4259687
-4.983953	adamla	-0.30103
-4.284983	adamlar	-0.30103
-4.983953	adamlara	-0.30103
-4.983953	adamlarla	-0.30103
-4.682923	adamları	-0.30103
-4.682923	adamların	-0.30103
-4.983953	adamlarını	-0.30103
-4.983953	adamlarız	-0.30103
-4.983953	adammışsın	-0.30103
-4.506832	adamsın	-0.544068
-3.94256	adamı	-0.3233064
-4.506832	adamım	-0.544068
-4.983953	adamımız	-0.30103
-3.807862	adamın	-0.3168243
-4.682923	adamına	-0.60206
-4.983953	adamıyım	-0.30103
-4.807862	adana	-0.30103
-4.983953	adanmış	-0.30103
-4.682923	adanın	-0.30103
-4.983953	adası	-0.30103
-4.586013	aday	-0.30103
-4.807862	adaylar	-0.30103
-4.983953	adaylık	-0.30103
-4.983953	adaylığını	-0.30103
-4.983953	adayım	-0.30103
-4.205802	adaşım	-0.3467875
-4.983953	addır	-0.30103
-4.983953	adelphoe	-0.30103
-4.983953	adenomatöz	-0.30103
-4.138855	adet	-0.3388186
-3.837825	adeta	-0.3372422
-4.983953	adetleri	-0.30103
-4.983953	adettir	-0.30103
-4.439885	adi	-0.39794
-4.284983	adil	-0.5118834
-4.983953	adin	-0.30103
-4.983953	adla	-0.30103
-4.983953	adlandırılmıyor	-0.30103
-4.983953	adları	-0.30103
-4.983953	adliyeye	-0.30103
-4.586013	adlı	-0.4771213
-4.682923	adneksiyal	-0.39794
-4.983953	adrenal	-0.30103
-4.983953	adres	-0.30103
-4.807862	adresi	-0.30103
-4.983953	adresimi	-0.30103
-4.682923	adresini	-0.30103
-4.983953	adreslerini	-0.30103
-4.983953	adresli	-0.30103
-3.887043	adı	-0.3823349
-3.492591	adım	-0.3958164
-4.807862	adıma	-0.4771213
-4.807862	adımda	-0.4771213
-4.983953	adımdan	-0.30103
-4.983953	adımlanın	-0.30103
-4.439885	adımlar	-0.4771213
-4.983953	adımlardan	-0.30103
-4.080863	adımlarla	-0.30103
-4.983953	adımları	-0.30103
-4.983953	adımlarım	-0.30103
-4.983953	adımlarını	-0.30103
-4.983953	adımlarınıza	-0.30103
-4.682923	adımı	-0.30103
-4.807862	adımına	-0.30103
-4.33074	adın	-0.4771213
-4.506832	adına	-0.3521825
-4.108892	adını	-0.30103
-4.586013	adınız	-0.3679768
-4.983953	adınızı	-0.30103
-4.983953	adıyla	-0.30103
-4.983953	aemilianın	-0.30103
-4.983953	aerasyonları	-0.30103
-4.983953	aerasyonu	-0.30103
-4.586013	af	-0.3679768
-4.983953	afacan	-0.30103
-4.983953	afat	-0.30103
-4.682923	afedersiniz	-0.60206
-4.284983	aferin	-0.39794
-4.983953	afettir	-0.30103
-4.983953	affedebilecek	-0.30103
-4.33074	affedersin	-0.4771213
-4.205802	affedersiniz	-0.4522977
-4.983953	affedilmez	-0.30103
-4.983953	affedin	-0.30103
-4.807862	affediniz	-0.30103
-4.807862	affediyorum	-0.4771213
-4.682923	affet	-0.39794
-4.807862	affetmeyeceğim	-0.4771213
-4.682923	affetsin	-0.60206
-4.983953	affettim	-0.30103
-4.983953	affettin	-0.30103
-4.983953	afili	-0.30103
-4.983953	afiyet	-0.30103
-4.807862	afrika	-0.30103
-4.983953	afrikalı	-0.30103
-3.577413	ah	-0.3462575
-4.807862	ahali	-0.30103
-4.983953	ahalisini	-0.30103
-4.983953	ahbabım	-0.30103
-4.807862	ahbabın	-0.30103
-4.108892	ahbap	-0.4393327
-4.983953	ahbaplara	-0.30103
-4.983953	ahbapları	-0.30103
-4.983953	ahbapların	-0.30103
-4.983953	ahbaplarına	-0.30103
-4.983953	ahbaplık	-0.30103
-4.983953	ahbaplığa	-0.30103
-4.807862	ahbaplığı	-0.30103
-4.983953	ahbaplığımız	-0.30103
-4.983953	ahbapça	-0.30103
-4.807862	ahenge	-0.30103
-4.983953	ahengini	-0.30103
-4.807862	ahenk	-0.30103
-4.983953	ahenkler	-0.30103
-4.983953	ahenkli	-0.30103
-4.983953	ahenktardılar	-0.30103
-4.586013	aheste	-0.4771212
-4.983953	ahh	-0.30103
-4.983953	ahha	-0.30103
-4.682923	ahhh	-0.39794
-4.682923	ahlak	-0.30103
-4.983953	ahlakı	-0.30103
-4.983953	ahlatın	-0.30103
-4.586013	ahmak	-0.30103
-4.983953	ahmaklıktır	-0.30103
-4.983953	ahmağa	-0.30103
-4.682923	ahmağı	-0.30103
-4.983953	ahmed	-0.30103
-4.682923	ahmet	-0.39794
-4.983953	ahreni	-0.30103
-4.983953	ahtisaari	-0.30103
-4.983953	ahçıya	-0.30103
-4.807862	ahı	-0.30103
-4.586013	ahını	-0.3679768
-4.983953	ahır	-0.30103
-4.983953	ahıra	-0.30103
-4.983953	ahırda	-0.30103
-4.983953	ahırını	-0.30103
-4.682923	ahşap	-0.30103
-4.983953	aidim	-0.30103
-4.205802	aile	-0.3222193
-4.983953	ailedensin	-0.30103
-4.682923	aileler	-0.30103
-4.983953	aileleri	-0.30103
-4.24359	ailem	-0.4771212
-4.983953	aileme	-0.30103
-4.983953	ailemize	-0.30103
-4.682923	ailen	-0.30103
-4.983953	ailene	-0.30103
-4.983953	ailenin	-0.30103
-4.807862	ailesi	-0.30103
-4.983953	ailesinden	-0.30103
-4.983953	ailesinin	-0.30103
-4.983953	aileye	-0.30103
-4.983953	aircomb	-0.30103
-4.983953	aishihik	-0.30103
-4.108892	ait	-0.3174204
-4.983953	aitsin	-0.30103
-4.983953	aitti	-0.30103
-4.983953	aittir	-0.30103
-4.983953	ajans	-0.30103
-3.962764	ak	-0.3245111
-4.983953	akacak	-0.30103
-4.983953	akademisi	-0.30103
-4.586013	akan	-0.3679768
-4.983953	akanı	-0.30103
-4.983953	akanından	-0.30103
-4.586013	akar	-0.4771213
-4.983953	akara	-0.30103
-4.983953	akarak	-0.30103
-4.807862	akarken	-0.30103
-4.682923	akarsu	-0.30103
-4.983953	akarsuya	-0.30103
-4.983953	akash	-0.30103
-4.682923	akbulut	-0.30103
-4.983953	akbulutun	-0.30103
-3.603742	akciğer	-0.6163005
-4.807862	akciğerde	-0.30103
-4.983953	akciğerin	-0.30103
-4.586013	akciğerlerde	-0.30103
-4.807862	akdeniz	-0.30103
-4.983953	akisler	-0.30103
-4.983953	akisleri	-0.30103
-4.682923	akla	-0.30103
-4.983953	aklarını	-0.30103
-4.080863	aklı	-0.3735807
-4.682923	aklım	-0.39794
-3.887043	aklıma	-0.4336556
-4.381893	aklımdan	-0.3802112
-4.983953	aklımdasın	-0.30103
-4.506832	aklımı	-0.30103
-4.682923	aklımız	-0.30103
-4.983953	aklımıza	-0.30103
-4.983953	aklımızdan	-0.30103
-4.506832	aklın	-0.30103
-4.138855	aklına	-0.3617279
-4.586013	aklında	-0.3679768
-4.439885	aklından	-0.39794
-4.029711	aklını	-0.4313637
-4.983953	aklınızda	-0.30103
-4.983953	aklınızı	-0.30103
-4.983953	aklığı	-0.30103
-4.983953	akmasa	-0.30103
-4.983953	akmayınca	-0.30103
-4.983953	akmazsa	-0.30103
-4.983953	akmıyor	-0.30103
-4.983953	akmıyordu	-0.30103
-4.983953	akraba	-0.30103
-4.983953	akrabadan	-0.30103
-4.807862	akrabaları	-0.30103
-4.682923	akrabalarından	-0.30103
-4.983953	akrabam	-0.30103
-4.983953	akrabamdır	-0.30103
-4.983953	akrabamın	-0.30103
-4.983953	akrabanın	-0.30103
-4.983953	akrabanız	-0.30103
-4.807862	akrabası	-0.30103
-4.807862	akrabaya	-0.30103
-4.983953	akratılan	-0.30103
-4.807862	akrep	-0.30103
-4.983953	aksak	-0.30103
-4.983953	aksamak	-0.30103
-4.807862	aksaraya	-0.30103
-4.983953	aksediyordu	-0.30103
-4.506832	aksi	-0.3521825
-4.983953	aksilla	-0.30103
-4.682923	aksiller	-0.60206
-4.586013	aksine	-0.4771212
-4.682923	aksiyel	-0.60206
-4.983953	aksı	-0.30103
-4.983953	aktan	-0.30103
-4.983953	aktarma	-0.30103
-4.983953	aktif	-0.30103
-4.983953	aktivite	-0.30103
-4.807862	aktris	-0.30103
-4.983953	aktrislerin	-0.30103
-4.983953	aktör	-0.30103
-4.983953	aktörlerle	-0.30103
-4.983953	aktörüm	-0.30103
-4.983953	aktı	-0.30103
-4.983953	aktığı	-0.30103
-4.983953	akustik	-0.30103
-4.682923	akut	-0.60206
-4.586013	akça	-0.30103
-4.983953	akçadır	-0.30103
-4.983953	akçanın	-0.30103
-4.983953	akçay	-0.30103
-4.807862	akçe	-0.30103
-4.983953	akçesine	-0.30103
-4.983953	akçesiyle	-0.30103
-4.807862	akçeye	-0.30103
-4.983953	akı	-0.30103
-4.807862	akıbet	-0.30103
-4.983953	akıbete	-0.30103
-4.983953	akıbeti	-0.30103
-3.807862	akıl	-0.3344538
-4.983953	akılcağızımı	-0.30103
-4.586013	akıldan	-0.3679768
-4.983953	akılları	-0.30103
-3.837825	akıllı	-0.3180633
-4.586013	akıllıca	-0.4771213
-4.983953	akıllıların	-0.30103
-4.807862	akıllısı	-0.30103
-4.33074	akılsız	-0.30103
-4.983953	akılsızın	-0.30103
-3.962764	akım	-0.4045706
-4.983953	akına	-0.30103
-4.983953	akıtacak	-0.30103
-4.682923	akıyor	-0.30103
-4.807862	akıyordu	-0.4771213
-4.983953	akışa	-0.30103
-4.807862	akışı	-0.30103
-4.983953	akışını	-0.30103
-3.40417	akşam	-0.3296752
-4.006229	akşama	-0.60206
-4.807862	akşamacak	-0.4771213
-4.983953	akşamda	-0.30103
-4.284983	akşamdan	-0.39794
-4.983953	akşamdı	-0.30103
-4.439885	akşamki	-0.3424227
-4.983953	akşamkine	-0.30103
-4.983953	akşamkinin	-0.30103
-4.983953	akşamla	-0.30103
-4.381893	akşamlar	-0.3357921
-4.506832	akşamları	-0.30103
-4.983953	akşamlı	-0.30103
-4.807862	akşamüstü	-0.30103
-4.381893	akşamüzeri	-0.3357921
-4.807862	akşamüzerleri	-0.30103
-4.439885	akşamı	-0.30103
-4.506832	akşamın	-0.30103
-4.983953	akşamına	-0.30103
-3.284983	al	-0.5118834
-4.439885	ala	-0.30103
-4.983953	alabama’daki	-0.30103
-4.983953	alabildiği	-0.30103
-4.807862	alabildiğine	-0.30103
-4.17104	alabilir	-0.8450981
-4.983953	alabilirim	-0.30103
-4.807862	alabilirsin	-0.4771213
-4.983953	alabilirsiniz	-0.30103
-4.284983	alacak	-0.39794
-4.807862	alacakaranlık	-0.30103
-4.682923	alacakaranlıkta	-0.30103
-4.983953	alacakaranlığına	-0.30103
-4.807862	alacakaranlığında	-0.30103
-4.983953	alacaklıdır	-0.30103
-4.983953	alacaklıydım	-0.30103
-4.983953	alacaksın	-0.30103
-4.807862	alacalı	-0.30103
-4.983953	alacalısından	-0.30103
-4.983953	alacağı	-0.30103
-4.205802	alacağım	-1.079181
-4.983953	alacağımı	-0.30103
-4.983953	alacağın	-0.30103
-4.983953	alacağını	-0.30103
-4.807862	alacağız	-0.4771213
-4.33074	alaka	-0.3679768
-4.205802	alakadar	-0.30103
-4.983953	alakadarları	-0.30103
-4.983953	alakadarsın	-0.30103
-4.983953	alakalan	-0.30103
-4.682923	alakalandı	-0.60206
-4.983953	alakalandırdığı	-0.30103
-4.983953	alakaları	-0.30103
-4.983953	alakalarına	-0.30103
-4.586013	alakam	-0.30103
-4.983953	alakamı	-0.30103
-4.983953	alakamın	-0.30103
-4.33074	alakası	-0.4771212
-4.983953	alakasız	-0.30103
-4.983953	alakayı	-0.30103
-4.983953	alalım	-0.30103
-4.983953	alamadı	-0.30103
-4.983953	alamadılar	-0.30103
-4.807862	alamadım	-0.30103
-4.807862	alamamıştı	-0.4771213
-4.983953	alamayacaktı	-0.30103
-4.983953	alamayacağın	-0.30103
-4.983953	alamayan	-0.30103
-4.983953	alamayınca	-0.30103
-4.983953	alamaz	-0.30103
-4.983953	alamazdı	-0.30103
-4.682923	alamazsın	-0.60206
-4.983953	alamet	-0.30103
-4.983953	alameti	-0.30103
-4.807862	alamıyordum	-0.4771213
-4.682923	alamıyorum	-0.60206
-3.94256	alan	-0.3802112
-4.807862	alana	-0.30103
-4.381893	alanda	-0.3802113
-4.983953	alandan	-0.30103
-4.807862	alanlar	-0.30103
-4.506832	alanlarda	-0.30103
-4.807862	alanları	-0.30103
-4.983953	alanlarına	-0.30103
-4.381893	alanlarında	-0.4393327
-4.983953	alanlı	-0.30103
-4.586013	alanı	-0.3679768
-4.807862	alanın	-0.30103
-4.506832	alanına	-0.7781513
-4.807862	alanında	-0.30103
-3.904772	alarak	-0.30103
-4.807862	alarm	-0.4771213
-4.983953	alasın	-0.30103
-4.24359	alay	-0.30103
-4.983953	alaya	-0.30103
-4.586013	alaycı	-0.3679768
-4.983953	alaylan	-0.30103
-4.983953	alayı	-0.30103
-4.284983	alayım	-0.7403627
-4.983953	alayına	-0.30103
-4.682923	albay	-0.60206
-4.983953	albümin	-0.30103
-4.983953	albümün	-0.30103
-4.983953	albümünü	-0.30103
-4.983953	albümünün	-0.30103
-4.983953	aldanma	-0.30103
-4.983953	aldanmadığıma	-0.30103
-4.983953	aldanmamış	-0.30103
-4.983953	aldanmayın	-0.30103
-4.983953	aldanmaz	-0.30103
-4.983953	aldanmış	-0.30103
-4.983953	aldanır	-0.30103
-4.983953	aldatma	-0.30103
-4.983953	aldatmak	-0.30103
-4.983953	aldatıldım	-0.30103
-4.983953	aldatılmış	-0.30103
-4.983953	aldatıyor	-0.30103
-4.983953	aldude	-0.30103
-3.536795	aldı	-0.6268835
-4.586013	aldık	-0.69897
-4.682923	aldıkları	-0.30103
-4.983953	aldıklarının	-0.30103
-4.807862	aldıktan	-0.4771213
-4.586013	aldılar	-0.30103
-3.779833	aldım	-0.5818566
-4.24359	aldın	-0.6368221
-4.506832	aldınız	-0.4259687
-4.983953	aldır	-0.30103
-4.983953	aldırdım	-0.30103
-4.682923	aldırma	-0.39794
-4.983953	aldırmadı	-0.30103
-4.983953	aldırmadılar	-0.30103
-4.983953	aldırmadım	-0.30103
-4.983953	aldırmalısınız	-0.30103
-4.983953	aldırmaya	-0.30103
-4.682923	aldırmayın	-0.60206
-4.983953	aldırırım	-0.30103
-4.983953	aldırırız	-0.30103
-4.682923	aldırış	-0.30103
-4.284983	aldığı	-0.3590219
-4.807862	aldığım	-0.30103
-4.807862	aldığımız	-0.30103
-4.983953	aldığın	-0.30103
-4.983953	aldığını	-0.30103
-4.983953	alegorisidir	-0.30103
-4.983953	alelacayip	-0.30103
-4.682923	alelade	-0.39794
-4.983953	alelumum	-0.30103
-4.807862	alem	-0.30103
-4.983953	aleme	-0.30103
-4.983953	alemi	-0.30103
-4.983953	alemlerinden	-0.30103
-4.983953	alenileşen	-0.30103
-4.807862	aleniyet	-0.4771213
-4.983953	alerjim	-0.30103
-4.807862	alet	-0.4771213
-4.983953	aletlerini	-0.30103
-4.983953	aletlerle	-0.30103
-4.586013	alev	-0.30103
-4.983953	alevden	-0.30103
-4.983953	alevle	-0.30103
-4.983953	alevler	-0.30103
-4.983953	alevlerin	-0.30103
-4.983953	alevlerle	-0.30103
-4.983953	aleyhime	-0.30103
-4.807862	aleyhinde	-0.30103
-4.983953	aleyhindesiniz	-0.30103
-4.983953	aleykümselam	-0.30103
-4.983953	alfabesindeki	-0.30103
-4.983953	alfandaki	-0.30103
-4.983953	algı	-0.30103
-4.983953	algılama	-0.30103
-4.983953	algınlıklarıydı	-0.30103
-4.17104	ali	-0.3203352
-4.983953	alice	-0.30103
-4.983953	alide	-0.30103
-4.506832	alim	-0.30103
-4.983953	alimallah	-0.30103
-4.983953	alimdi	-0.30103
-4.983953	alimin	-0.30103
-4.983953	alimle	-0.30103
-4.682923	alinin	-0.30103
-4.24359	aliye	-0.3245111
-4.807862	aliyenin	-0.30103
-4.807862	aliyeyi	-0.30103
-4.983953	alkol	-0.30103
-4.807862	alkış	-0.30103
-4.983953	alkışlandı	-0.30103
-4.983953	alkışlandılar	-0.30103
-4.983953	alkışlar	-0.30103
-3.465439	allah	-0.3521824
-4.33074	allaha	-0.3679768
-4.506832	allahaısmarladık	-0.3521825
-4.983953	allahdır	-0.30103
-4.586013	allahtan	-0.3679768
-4.983953	allahuekber	-0.30103
-4.983953	allahı	-0.30103
-4.24359	allahım	-0.3853509
-4.205802	allahın	-0.30103
-4.682923	allahını	-0.39794
-4.983953	allah’ın	-0.30103
-4.983953	allak	-0.30103
-4.983953	allen	-0.30103
-4.807862	allı	-0.4771213
-4.983953	allık	-0.30103
-4.983953	allıkları	-0.30103
-4.054534	alma	-0.4149733
-4.506832	almadan	-0.3521825
-4.983953	almadık	-0.30103
-4.983953	almadılar	-0.30103
-4.586013	almadım	-0.4771213
-4.983953	almadığı	-0.30103
-4.983953	almadığın	-0.30103
-4.054534	almak	-0.3899711
-4.983953	almakta	-0.30103
-4.983953	almaktadır	-0.30103
-4.983953	almaktan	-0.30103
-4.983953	almalarına	-0.30103
-4.983953	almalarını	-0.30103
-4.983953	almalısın	-0.30103
-4.983953	almam	-0.30103
-4.983953	almama	-0.30103
-4.983953	almamıştı	-0.30103
-4.983953	almamıştım	-0.30103
-4.33074	alman	-0.30103
-4.33074	almanca	-0.30103
-4.983953	almandır	-0.30103
-4.983953	almanlarından	-0.30103
-4.983953	almanya	-0.30103
-4.983953	almanyadan	-0.30103
-4.682923	almanyaya	-0.30103
-4.807862	almanyayı	-0.30103
-4.983953	almanya’daki	-0.30103
-4.807862	almanı	-0.30103
-4.983953	almasın	-0.30103
-4.586013	almaya	-0.30103
-4.983953	almayarak	-0.30103
-4.506832	almayayım	-0.544068
-4.682923	almayı	-0.30103
-4.33074	almaz	-0.4771213
-4.983953	almazsa	-0.30103
-4.983953	almıyor	-0.30103
-4.983953	almıyordu	-0.30103
-4.807862	almıyorum	-0.4771213
-4.054534	almış	-0.4436975
-4.807862	almışlar	-0.30103
-4.586013	almışlardı	-0.69897
-4.983953	almışsın	-0.30103
-4.284983	almıştı	-0.7403627
-4.807862	almıştım	-0.4771213
-4.983953	almıştın	-0.30103
-4.807862	almıştır	-0.4771213
-4.983953	alna	-0.30103
-4.983953	alnı	-0.30103
-4.983953	alnıma	-0.30103
-4.506832	alnına	-0.30103
-4.983953	alnından	-0.30103
-4.807862	alnını	-0.30103
-4.807862	alnının	-0.30103
-4.807862	alo	-0.4771213
-4.983953	alpha	-0.30103
-4.983953	alsam	-0.30103
-4.807862	alsın	-0.4771213
-3.693918	alt	-0.4486327
-4.983953	altları	-0.30103
-4.029711	altmış	-0.3631779
-4.983953	altmışar	-0.30103
-4.807862	altmışlık	-0.30103
-4.983953	altmıştan	-0.30103
-4.807862	altta	-0.4771212
-4.983953	alttakileri	-0.30103
-4.983953	alttan	-0.30103
-4.983953	altyazı	-0.30103
-4.983953	altüst	-0.30103
-3.40417	altı	-0.4320943
-4.983953	altıda	-0.30103
-4.983953	altımda	-0.30103
-4.983953	altımdaki	-0.30103
-3.837825	altın	-0.3180633
-3.853619	altına	-0.3617278
-3.793622	altında	-0.3332147
-4.682923	altındaki	-0.30103
-4.205802	altından	-0.30103
-4.983953	altındaydım	-0.30103
-4.983953	altındır	-0.30103
-4.983953	altınları	-0.30103
-4.506832	altını	-0.30103
-4.586013	altının	-0.3679768
-4.983953	altısı	-0.30103
-4.807862	altı 	-0.30103
-4.682923	alçacık	-0.30103
-4.080863	alçak	-0.3735807
-4.983953	alçaklara	-0.30103
-4.983953	alçal	-0.30103
-4.983953	alçalan	-0.30103
-4.983953	alçalmış	-0.30103
-4.983953	alçaltın	-0.30103
-4.983953	alçaltıp	-0.30103
-4.807862	alı	-0.30103
-4.807862	alıcı	-0.30103
-4.983953	alıkoyacak	-0.30103
-4.983953	alıkoyamayacaktı	-0.30103
-4.983953	alıkoyan	-0.30103
-4.983953	alıkoydum	-0.30103
-4.983953	alıkoyuyor	-0.30103
-4.983953	alımı	-0.30103
-4.080863	alın	-0.4973246
-4.807862	alınacak	-0.30103
-4.983953	alınamazdı	-0.30103
-4.33074	alınan	-0.4149733
-4.682923	alınca	-0.30103
-4.17104	alındı	-1.113943
-4.983953	alınma	-0.30103
-4.586013	alınmadı	-0.69897
-4.33074	alınmaz	-0.9542425
-4.807862	alınmış	-0.30103
-4.983953	alınmıştır	-0.30103
-4.983953	alınır	-0.30103
-4.983953	alınırdı	-0.30103
-3.728681	alıp	-0.3209248
-3.779833	alır	-0.5070845
-4.807862	alırdı	-0.30103
-4.983953	alırdım	-0.30103
-4.807862	alırken	-0.30103
-4.807862	alırsa	-0.30103
-4.983953	alırsam	-0.30103
-4.506832	alırsan	-0.30103
-4.586013	alırsın	-0.4771213
-4.33074	alırım	-0.69897
-4.807862	alıver	-0.30103
-3.983953	alıyor	-0.6812413
-4.284983	alıyordu	-1
-4.983953	alıyorduk	-0.30103
-4.983953	alıyordum	-0.30103
-4.983953	alıyorlar	-0.30103
-4.983953	alıyorlarsa	-0.30103
-4.983953	alıyorsun	-0.30103
-4.284983	alıyorum	-1
-4.983953	alışkanlıkla	-0.30103
-4.983953	alışkanlığı	-0.30103
-4.586013	alışkın	-0.30103
-4.983953	alışkındı	-0.30103
-4.983953	alışkınız	-0.30103
-4.983953	alışmadık	-0.30103
-4.983953	alışmamıştım	-0.30103
-4.983953	alışmayan	-0.30103
-4.682923	alışmış	-0.39794
-4.983953	alışmışa	-0.30103
-4.983953	alışmıştım	-0.30103
-4.807862	alışsan	-0.4771212
-4.983953	alıştılar	-0.30103
-4.682923	alıştım	-0.39794
-4.983953	alıştıracaksın	-0.30103
-4.983953	alıştırır	-0.30103
-4.983953	alıştığı	-0.30103
-4.807862	alışveriş	-0.30103
-4.807862	alışverişi	-0.30103
-4.682923	alışverişte	-0.30103
-4.983953	alışık	-0.30103
-4.983953	alışınca	-0.30103
-4.983953	alışını	-0.30103
-4.983953	alışının	-0.30103
-4.807862	alışır	-0.30103
-4.983953	alışığım	-0.30103
-2.795025	ama	-0.4213238
-4.983953	amacı	-0.30103
-4.807862	amacım	-0.30103
-4.682923	amacın	-0.39794
-3.594787	aman	-0.4062654
-4.33074	amanın	-0.30103
-4.807862	aması	-0.30103
-4.807862	amaç	-0.30103
-4.983953	amaçlanan	-0.30103
-4.983953	amaçlanıyor	-0.30103
-4.983953	amaçlı	-0.30103
-4.807862	ambar	-0.30103
-4.983953	ambara	-0.30103
-4.983953	ambarcı	-0.30103
-4.983953	ambardan	-0.30103
-4.983953	ambarları	-0.30103
-4.983953	ambarı	-0.30103
-4.983953	ambarın	-0.30103
-4.586013	ambarında	-0.3679768
-4.983953	ambarındaki	-0.30103
-4.983953	amberidir	-0.30103
-4.439885	ambulans	-0.30103
-4.506832	amca	-0.3521825
-4.983953	amcam	-0.30103
-4.983953	amcamı	-0.30103
-4.983953	amcası	-0.30103
-4.682923	amele	-0.30103
-4.807862	amelelik	-0.30103
-4.682923	amelenin	-0.30103
-4.807862	amelesi	-0.30103
-4.983953	ameleye	-0.30103
-4.205802	ameliyat	-0.3222193
-4.983953	ameliyata	-0.30103
-4.983953	ameliyatsız	-0.30103
-4.682923	ameliyatta	-0.39794
-4.807862	ameliyattan	-0.30103
-4.983953	ameliyatı	-0.30103
-4.807862	ameliyatın	-0.30103
-4.682923	ameliyatında	-0.30103
-4.983953	amerika	-0.30103
-4.807862	amerikada	-0.30103
-4.807862	amerikalı	-0.30103
-4.807862	amerikalıdır	-0.4771213
-4.807862	amerikalılar	-0.30103
-4.807862	amerikan	-0.30103
-4.983953	amfibi	-0.30103
-4.983953	amfizematöz	-0.30103
-4.807862	amin	-0.30103
-4.983953	amir	-0.30103
-4.506832	amma	-0.30103
-4.983953	ampisilin	-0.30103
-4.983953	ampulü	-0.30103
-4.983953	amuca	-0.30103
-4.983953	amına	-0.30103
-3.641531	an	-0.3550118
-3.56898	ana	-0.4313638
-4.586013	anacığım	-0.30103
-4.807862	anadan	-0.30103
-4.807862	anadolu	-0.30103
-4.983953	anadoluyu	-0.30103
-4.807862	anafor	-0.30103
-4.983953	anaforlamadığımız	-0.30103
-4.24359	anahtar	-0.3853509
-4.983953	anahtarla	-0.30103
-4.682923	anahtarlar	-0.39794
-4.807862	anahtarları	-0.30103
-4.983953	anahtarların	-0.30103
-4.807862	anahtarlarını	-0.4771213
-4.24359	anahtarı	-0.3245111
-4.983953	anahtarın	-0.30103
-4.983953	analist	-0.30103
-4.983953	analistler	-0.30103
-4.983953	analizi	-0.30103
-4.983953	analı	-0.30103
-4.983953	analık	-0.30103
-4.586013	anam	-0.3679768
-4.983953	anama	-0.30103
-4.983953	anamdan	-0.30103
-4.983953	anamla	-0.30103
-4.983953	anamı	-0.30103
-4.807862	anamın	-0.30103
-4.983953	anamızdan	-0.30103
-4.506832	anan	-0.30103
-4.983953	anana	-0.30103
-4.983953	anansa	-0.30103
-4.983953	ananı	-0.30103
-4.506832	ananın	-0.3521825
-4.983953	anaoğul	-0.30103
-4.054534	anası	-0.3152704
-4.586013	anasına	-0.3679768
-4.682923	anasından	-0.30103
-4.586013	anasını	-0.3679768
-4.983953	anasının	-0.30103
-4.807862	anasıyla	-0.30103
-4.983953	anasız	-0.30103
-4.506832	anatomi	-0.7781512
-4.586013	anatomik	-0.4771213
-4.983953	anayasayı	-0.30103
-4.682923	anayı	-0.30103
-4.983953	anaç	-0.30103
-3.452474	ancak	-0.3549054
-3.612885	anda	-0.3159216
-4.983953	andaki	-0.30103
-4.506832	andan	-0.544068
-4.983953	andrea	-0.30103
-4.983953	andy	-0.30103
-4.983953	andıran	-0.30103
-4.983953	andırıyor	-0.30103
-4.807862	andırıyordu	-0.4771213
-4.983953	anekoik	-0.30103
-4.983953	anevrizmatik	-0.30103
-4.983953	angeles	-0.30103
-4.983953	angın	-0.30103
-4.586013	ani	-0.3679768
-4.807862	aniden	-0.30103
-4.682923	anjina	-0.60206
-4.807862	anjiyografi	-0.4771213
-4.983953	ankara	-0.30103
-4.807862	ankarada	-0.30103
-4.807862	ankaradan	-0.30103
-4.983953	ankaranın	-0.30103
-4.439885	ankaraya	-0.30103
-4.983953	ankete	-0.30103
-4.807862	anki	-0.30103
-4.983953	anla	-0.30103
-4.381893	anladı	-0.5228788
-4.807862	anladık	-0.30103
-4.983953	anladıkça	-0.30103
-4.807862	anladılar	-0.4771213
-3.753504	anladım	-0.8129134
-4.006229	anladın	-0.845098
-4.381893	anladınız	-0.6532125
-4.983953	anladığımı	-0.30103
-4.983953	anladığına	-0.30103
-4.983953	anlam	-0.30103
-4.24359	anlama	-0.7781513
-4.807862	anlamadan	-0.30103
-4.983953	anlamadı	-0.30103
-4.807862	anlamadık	-0.30103
-4.17104	anlamadım	-0.69897
-4.807862	anlamadın	-0.4771212
-4.807862	anlamadınız	-0.4771212
-4.983953	anlamadığı	-0.30103
-4.682923	anlamadığım	-0.60206
-4.506832	anlamak	-0.30103
-4.807862	anlamakta	-0.30103
-4.983953	anlamaktan	-0.30103
-4.983953	anlamalarına	-0.30103
-4.807862	anlamalısın	-0.4771213
-4.983953	anlamam	-0.30103
-4.983953	anlamama	-0.30103
-4.983953	anlamamış	-0.30103
-4.983953	anlamamıştım	-0.30103
-4.983953	anlamanı	-0.30103
-4.682923	anlamaya	-0.30103
-4.807862	anlamayacak	-0.30103
-4.983953	anlamayan	-0.30103
-4.983953	anlamayana	-0.30103
-4.682923	anlamayarak	-0.30103
-4.983953	anlamayın	-0.30103
-4.682923	anlamaz	-0.39794
-4.682923	anlamda	-0.39794
-4.205802	anlamlı	-0.4101745
-4.439885	anlamı	-0.3424227
-4.439885	anlamını	-0.4771212
-4.586013	anlamıyor	-0.3679768
-4.983953	anlamıyordu	-0.30103
-4.807862	anlamıyordum	-0.30103
-4.983953	anlamıyormuş	-0.30103
-4.682923	anlamıyorsun	-0.60206
-4.983953	anlamıyorsunuz	-0.30103
-4.108892	anlamıyorum	-0.90309
-4.439885	anlamış	-0.39794
-4.983953	anlamışlar	-0.30103
-4.506832	anlamıştı	-0.7781512
-4.506832	anlamıştım	-0.544068
-4.284983	anlar	-0.39794
-4.983953	anlarda	-0.30103
-4.983953	anlarlar	-0.30103
-4.983953	anlarmış	-0.30103
-4.682923	anlarsın	-0.39794
-4.983953	anlarsınız	-0.30103
-4.682923	anlarım	-0.39794
-4.983953	anlarız	-0.30103
-4.983953	anlasınlar	-0.30103
-3.923255	anlat	-0.6690068
-4.983953	anlatabildim	-0.30103
-4.983953	anlatabilecek	-0.30103
-4.983953	anlatabiliyor	-0.30103
-4.682923	anlatacak	-0.30103
-4.983953	anlatacaksın	-0.30103
-4.983953	anlatacaktım	-0.30103
-4.983953	anlatacaktın	-0.30103
-4.983953	anlatacağım	-0.30103
-4.983953	anlatacağız	-0.30103
-4.983953	anlatalım	-0.30103
-4.983953	anlatamadım	-0.30103
-4.983953	anlatamam	-0.30103
-4.983953	anlatamamışsın	-0.30103
-4.983953	anlatamazsam	-0.30103
-4.983953	anlatamıyordum	-0.30103
-4.983953	anlatamıyoruz	-0.30103
-4.983953	anlatan	-0.30103
-4.983953	anlatana	-0.30103
-4.33074	anlatayım	-0.69897
-4.983953	anlatma	-0.30103
-4.983953	anlatmadı	-0.30103
-4.983953	anlatmadım	-0.30103
-4.807862	anlatmadın	-0.4771213
-4.284983	anlatmak	-0.30103
-4.983953	anlatmakla	-0.30103
-4.983953	anlatmaktansa	-0.30103
-4.983953	anlatmama	-0.30103
-4.983953	anlatması	-0.30103
-4.439885	anlatmaya	-0.39794
-4.807862	anlatmış	-0.30103
-4.682923	anlatmıştım	-0.60206
-4.682923	anlatsana	-0.39794
-4.983953	anlatsın	-0.30103
-4.054534	anlattı	-0.8016323
-4.983953	anlattıkları	-0.30103
-4.983953	anlattıktan	-0.30103
-4.983953	anlattılar	-0.30103
-4.983953	anlattım	-0.30103
-4.807862	anlattın	-0.30103
-4.983953	anlattıran	-0.30103
-4.983953	anlattığım	-0.30103
-4.682923	anlattığına	-0.60206
-4.983953	anlatılanlar	-0.30103
-4.682923	anlatın	-0.30103
-4.983953	anlatıncaya	-0.30103
-4.983953	anlatıp	-0.30103
-4.983953	anlatır	-0.30103
-4.983953	anlatırsın	-0.30103
-4.506832	anlatırım	-0.4259687
-4.586013	anlatıyordu	-0.69897
-4.983953	anlatıyorlardı	-0.30103
-4.381893	anlatıyorsun	-0.6532125
-4.983953	anlayabileceğiniz	-0.30103
-4.983953	anlayabilirim	-0.30103
-4.983953	anlayabiliyorum	-0.30103
-4.983953	anlayacak	-0.30103
-4.807862	anlayacaksın	-0.4771213
-4.983953	anlayacaksınız	-0.30103
-4.983953	anlayacaktır	-0.30103
-4.983953	anlayacağımdan	-0.30103
-4.807862	anlayacağın	-0.30103
-4.983953	anlayacağınız	-0.30103
-4.807862	anlayamadı	-0.30103
-4.586013	anlayamadım	-0.69897
-4.983953	anlayamadın	-0.30103
-4.682923	anlayamadığı	-0.39794
-4.586013	anlayamadığım	-0.4771212
-4.983953	anlayamayarak	-0.30103
-4.983953	anlayamazsın	-0.30103
-4.682923	anlayamıyordum	-0.60206
-4.807862	anlayamıyorum	-0.4771213
-4.506832	anlayan	-0.544068
-4.983953	anlayana	-0.30103
-4.983953	anlayanların	-0.30103
-4.807862	anlayarak	-0.30103
-4.506832	anlayınca	-0.30103
-4.682923	anlayışlı	-0.39794
-4.983953	anlayışı	-0.30103
-4.983953	anlayışınız	-0.30103
-4.983953	anlaşabiliriz	-0.30103
-4.983953	anlaşalım	-0.30103
-4.205802	anlaşma	-0.3756636
-4.983953	anlaşmadan	-0.30103
-4.682923	anlaşmamız	-0.30103
-4.983953	anlaşmamıştık	-0.30103
-4.682923	anlaşması	-0.30103
-4.983953	anlaşmazlık	-0.30103
-4.983953	anlaşmazlığın	-0.30103
-4.983953	anlaşmazsak	-0.30103
-4.983953	anlaşmışlardı	-0.30103
-4.983953	anlaşmışlardır	-0.30103
-4.586013	anlaştık	-0.3679768
-4.983953	anlaşılabilir	-0.30103
-4.807862	anlaşılacak	-0.30103
-4.983953	anlaşılacağını	-0.30103
-4.807862	anlaşılan	-0.30103
-4.439885	anlaşıldı	-0.3424227
-4.983953	anlaşılmak	-0.30103
-4.682923	anlaşılmaktadır	-0.60206
-4.983953	anlaşılmasına	-0.30103
-4.24359	anlaşılmaz	-0.3521825
-4.983953	anlaşılmıyordu	-0.30103
-4.682923	anlaşılır	-0.60206
-4.983953	anlaşılırdı	-0.30103
-4.983953	anlaşılıyor	-0.30103
-4.506832	anlaşılıyordu	-0.7781512
-4.983953	anliyor	-0.30103
-4.983953	anlı	-0.30103
-4.108892	anlıyor	-0.6532125
-4.983953	anlıyordu	-0.30103
-4.205802	anlıyordum	-1.079181
-4.983953	anlıyorlardı	-0.30103
-4.506832	anlıyorsun	-0.4259687
-4.983953	anlıyorsunuz	-0.30103
-3.807862	anlıyorum	-0.7659168
-3.807862	anne	-0.5910646
-4.807862	anneciğim	-0.4771213
-4.983953	annelerinin	-0.30103
-4.054534	annem	-0.3484547
-4.983953	annemdi	-0.30103
-4.983953	anneme	-0.30103
-4.682923	annemi	-0.30103
-4.807862	annemin	-0.30103
-4.983953	annemle	-0.30103
-4.983953	annemsin	-0.30103
-4.205802	annen	-0.3467875
-4.983953	anneni	-0.30103
-4.682923	anneniz	-0.39794
-4.983953	annenizin	-0.30103
-4.983953	annenle	-0.30103
-4.381893	annesi	-0.30103
-4.983953	annesine	-0.30103
-4.682923	annesinin	-0.30103
-4.983953	annesisin	-0.30103
-4.807862	annesiyim	-0.4771213
-4.807862	annesiyle	-0.30103
-4.807862	anomalisi	-0.4771213
-4.807862	anormal	-0.30103
-4.586013	anormallik	-0.3679768
-4.983953	anormammo	-0.30103
-4.983953	ans	-0.30103
-4.983953	ant	-0.30103
-4.983953	antep	-0.30103
-4.983953	antepsin	-0.30103
-4.983953	anterior	-0.30103
-4.983953	anterobazal	-0.30103
-4.983953	anteromedial	-0.30103
-4.983953	antevert	-0.30103
-4.983953	anteverttir	-0.30103
-4.983953	anthony	-0.30103
-4.807862	antiaritmik	-0.30103
-4.983953	antibiyoterapisine	-0.30103
-4.807862	antibiyotik	-0.30103
-4.682923	antidiyabetik	-0.30103
-4.586013	antihipertansif	-0.30103
-4.682923	antika	-0.30103
-4.807862	antikoagulan	-0.30103
-4.983953	antonio	-0.30103
-4.983953	antrenör	-0.30103
-4.983953	antropoloji	-0.30103
-4.807862	anzavur	-0.30103
-4.807862	anı	-0.30103
-4.983953	anılmaz	-0.30103
-4.807862	anılır	-0.4771213
-4.983953	anıtın	-0.30103
-4.138855	aort	-0.6283889
-4.506832	aorta	-0.30103
-4.807862	aortada	-0.30103
-4.983953	aortopulmoner	-0.30103
-4.284983	ap	-0.5118834
-4.807862	aparey	-0.4771212
-4.807862	apartman	-0.30103
-4.807862	apartmanda	-0.30103
-4.586013	apartmanın	-0.30103
-4.682923	apaçık	-0.30103
-4.983953	apeksine	-0.30103
-4.807862	apikal	-0.4771213
-4.682923	apikoposterior	-0.60206
-4.983953	apne	-0.30103
-3.779833	aptal	-0.3601514
-4.682923	aptala	-0.30103
-4.381893	aptalca	-0.5228788
-4.983953	aptalcaydı	-0.30103
-4.807862	aptallar	-0.4771213
-4.983953	aptalları	-0.30103
-4.983953	aptallaşma	-0.30103
-4.983953	aptallık	-0.30103
-4.983953	aptallıktır	-0.30103
-4.983953	aptallığa	-0.30103
-4.586013	aptalım	-0.69897
-4.807862	aptalın	-0.30103
-4.983953	aptes	-0.30103
-4.983953	apteshaneleri	-0.30103
-4.983953	aptesliğin	-0.30103
-4.439885	ar	-0.30103
-3.56898	ara	-0.750999
-3.837825	araba	-0.3273589
-4.807862	arabacı	-0.30103
-4.983953	arabacılık	-0.30103
-4.381893	arabada	-0.30103
-4.807862	arabadan	-0.4771213
-4.807862	arabadayım	-0.4771213
-4.439885	arabalar	-0.39794
-4.807862	arabalara	-0.30103
-4.983953	arabalarda	-0.30103
-4.983953	arabalardan	-0.30103
-4.586013	arabaların	-0.30103
-4.983953	arabalarının	-0.30103
-4.983953	arabalı	-0.30103
-4.682923	arabam	-0.30103
-4.983953	arabama	-0.30103
-4.983953	arabamız	-0.30103
-4.586013	araban	-0.30103
-4.983953	arabana	-0.30103
-4.381893	arabanı	-0.3802113
-4.439885	arabanın	-0.30103
-4.682923	arabası	-0.60206
-4.983953	arabasına	-0.30103
-4.983953	arabasını	-0.30103
-4.983953	arabasının	-0.30103
-4.33074	arabaya	-0.3309932
-4.381893	arabayı	-0.30103
-4.983953	aracılığıyla	-0.30103
-4.983953	aracıyım	-0.30103
-4.138855	arada	-0.3187588
-4.682923	aradaki	-0.30103
-4.381893	aradan	-0.3802113
-4.506832	aradı	-0.544068
-4.807862	aradılar	-0.4771213
-4.24359	aradım	-0.5440681
-4.682923	aradın	-0.39794
-4.983953	aradınız	-0.30103
-4.807862	aradığı	-0.30103
-4.983953	aradığım	-0.30103
-4.983953	aradığımı	-0.30103
-4.682923	aradığın	-0.39794
-4.983953	aradığına	-0.30103
-4.807862	aradığını	-0.30103
-4.807862	aradığınız	-0.30103
-4.983953	arafattan	-0.30103
-4.682923	araladı	-0.39794
-4.682923	aralandı	-0.30103
-4.983953	araları	-0.30103
-4.983953	aralarına	-0.30103
-4.108892	aralarında	-0.30103
-4.807862	aralarından	-0.30103
-4.983953	aralarındaydı	-0.30103
-4.983953	aralayarak	-0.30103
-4.983953	aralnormal	-0.30103
-3.740915	aralık	-0.3215517
-4.983953	aralıka	-0.30103
-4.983953	aralıkla	-0.30103
-4.807862	aralıklarla	-0.30103
-4.284983	aralıkları	-0.39794
-4.807862	aralıklarının	-0.4771213
-4.506832	aralıkta	-0.4259687
-4.983953	aralıktan	-0.30103
-4.983953	aralıktı	-0.30103
-4.983953	aralığa	-0.30103
-4.506832	aralığı	-0.4259687
-4.682923	aralığına	-0.30103
-4.983953	aralığında	-0.30103
-4.983953	aralığından	-0.30103
-4.682923	arama	-0.30103
-4.983953	aramadı	-0.30103
-4.807862	aramadın	-0.4771213
-4.682923	aramak	-0.30103
-4.983953	aramakla	-0.30103
-4.983953	aramakta	-0.30103
-4.983953	aramaktan	-0.30103
-4.983953	aramalıydın	-0.30103
-4.983953	aramalıyım	-0.30103
-4.983953	aramamak	-0.30103
-4.983953	aramamı	-0.30103
-4.983953	aramanı	-0.30103
-4.983953	araması	-0.30103
-4.24359	aramaya	-0.4259687
-4.983953	aramayı	-0.30103
-4.807862	aramda	-0.30103
-4.983953	aramıyor	-0.30103
-4.983953	aramız	-0.30103
-4.24359	aramızda	-0.30103
-4.682923	aramızdaki	-0.39794
-4.983953	aramızı	-0.30103
-4.682923	aramış	-0.39794
-4.983953	aramışlar	-0.30103
-4.983953	aramıştınız	-0.30103
-4.983953	arandı	-0.30103
-4.983953	arandıktan	-0.30103
-4.807862	arandığı	-0.30103
-4.983953	aranırken	-0.30103
-4.983953	aranıyor	-0.30103
-4.983953	aranıza	-0.30103
-4.682923	arap	-0.30103
-4.682923	araplar	-0.30103
-4.983953	arapça	-0.30103
-4.983953	arapın	-0.30103
-4.381893	arar	-0.5228788
-4.807862	ararken	-0.30103
-4.983953	ararmış	-0.30103
-4.983953	ararsan	-0.30103
-4.682923	ararsın	-0.60206
-4.24359	ararım	-0.7781513
-4.682923	ararız	-0.60206
-4.983953	arasam	-0.30103
-4.33074	arası	-0.3309932
-4.205802	arasına	-0.30103
-3.529108	arasında	-0.3458424
-4.33074	arasındaki	-0.3309932
-4.108892	arasından	-0.3174204
-4.983953	arasındaydı	-0.30103
-4.983953	arattıracaktı	-0.30103
-4.983953	aratır	-0.30103
-4.983953	aravurgunun	-0.30103
-4.138855	araya	-0.3617278
-4.807862	arayacak	-0.30103
-4.807862	arayacaksın	-0.4771213
-4.983953	arayacaktı	-0.30103
-4.506832	arayacaktım	-0.7781512
-4.983953	arayacaktır	-0.30103
-4.439885	arayacağım	-0.845098
-4.983953	arayacağız	-0.30103
-4.682923	arayalım	-0.39794
-4.983953	arayamadık	-0.30103
-4.439885	arayan	-0.30103
-4.983953	arayanlar	-0.30103
-4.586013	arayın	-0.4771213
-4.983953	arayıncaya	-0.30103
-4.807862	arayıp	-0.30103
-4.983953	arazi	-0.30103
-4.807862	araç	-0.30103
-4.983953	araçlar	-0.30103
-4.983953	araçlarının	-0.30103
-4.983953	araştır	-0.30103
-4.983953	araştıracağım	-0.30103
-4.983953	araştırdım	-0.30103
-4.983953	araştırma	-0.30103
-4.983953	araştırmacılardan	-0.30103
-4.983953	araştırmak	-0.30103
-4.983953	araştırması	-0.30103
-4.807862	araştırmaya	-0.30103
-4.983953	araştırmışlar	-0.30103
-4.983953	araştırıcı	-0.30103
-4.983953	araştırınca	-0.30103
-4.983953	araştırır	-0.30103
-4.983953	araştırıyordum	-0.30103
-4.983953	araştırıyorum	-0.30103
-4.983953	araştırıyoruz	-0.30103
-4.983953	archie	-0.30103
-4.983953	arda	-0.30103
-4.983953	ardıcın	-0.30103
-4.983953	ardımdan	-0.30103
-4.506832	ardına	-0.30103
-4.983953	ardınca	-0.30103
-4.586013	ardında	-0.30103
-4.17104	ardından	-0.30103
-4.983953	ardıç	-0.30103
-4.983953	arefe	-0.30103
-4.983953	arenstorf	-0.30103
-4.983953	arif	-0.30103
-4.682923	arife	-0.39794
-4.983953	aritmetikten	-0.30103
-4.682923	aritmi	-0.60206
-4.108892	arka	-0.3174204
-4.506832	arkada	-0.30103
-4.983953	arkadaki	-0.30103
-4.807862	arkadan	-0.30103
-3.822585	arkadaş	-0.3458424
-4.284983	arkadaşlar	-0.39794
-4.682923	arkadaşlardan	-0.30103
-4.983953	arkadaşlarla	-0.30103
-4.807862	arkadaşları	-0.30103
-4.381893	arkadaşlarım	-0.3802113
-4.983953	arkadaşlarımdan	-0.30103
-4.983953	arkadaşlarımın	-0.30103
-4.682923	arkadaşların	-0.30103
-4.682923	arkadaşlarına	-0.30103
-4.983953	arkadaşlarını	-0.30103
-4.807862	arkadaşlarının	-0.30103
-4.439885	arkadaşlık	-0.30103
-4.983953	arkadaşlığa	-0.30103
-4.983953	arkadaşlığından	-0.30103
-4.682923	arkadaştan	-0.39794
-4.983953	arkadaştı	-0.30103
-4.983953	arkadaştık	-0.30103
-4.983953	arkadaştılar	-0.30103
-4.983953	arkadaşça	-0.30103
-4.284983	arkadaşı	-0.3273589
-3.822585	arkadaşım	-0.3933443
-4.983953	arkadaşımdan	-0.30103
-4.983953	arkadaşımdı	-0.30103
-4.807862	arkadaşımla	-0.30103
-4.983953	arkadaşımı	-0.30103
-4.506832	arkadaşımın	-0.30103
-4.24359	arkadaşın	-0.3853509
-4.506832	arkadaşına	-0.30103
-4.983953	arkadaşından	-0.30103
-4.586013	arkadaşını	-0.3679768
-4.807862	arkadaşınım	-0.4771213
-4.284983	arkadaşının	-0.30103
-4.983953	arkadaşınız	-0.30103
-4.983953	arkadaşıyla	-0.30103
-4.807862	arkadaşıyım	-0.4771213
-4.506832	arkadaşız	-0.544068
-4.983953	arkalarına	-0.30103
-4.682923	arkalarından	-0.30103
-4.983953	arkalı	-0.30103
-4.983953	arkam	-0.30103
-4.983953	arkama	-0.30103
-4.807862	arkamda	-0.30103
-4.284983	arkamdan	-0.30103
-4.983953	arkamı	-0.30103
-4.983953	arkamıza	-0.30103
-4.682923	arkamızda	-0.39794
-4.807862	arkamızdan	-0.30103
-4.682923	arkana	-0.30103
-4.983953	arkanda	-0.30103
-4.807862	arkandayım	-0.4771213
-4.439885	arkanı	-0.39794
-4.983953	arkanız	-0.30103
-4.983953	arkanıza	-0.30103
-4.682923	arkası	-0.30103
-3.887043	arkasına	-0.31037
-3.983953	arkasında	-0.3258536
-4.506832	arkasındaki	-0.30103
-4.983953	arkasındakilere	-0.30103
-3.837825	arkasından	-0.3180633
-4.983953	arkasındaydı	-0.30103
-4.108892	arkasını	-0.4074853
-4.24359	arkaya	-0.3245111
-4.983953	arkbaşında	-0.30103
-4.983953	arlanmaz	-0.30103
-4.807862	arlanır	-0.30103
-4.983953	armağanı	-0.30103
-4.682923	armudu	-0.30103
-4.506832	armudun	-0.3521825
-4.983953	armudunu	-0.30103
-4.983953	armut	-0.30103
-4.983953	arnavutlar	-0.30103
-4.682923	arnavutluk	-0.30103
-4.807862	arnavutlukta	-0.4771213
-4.983953	arnavuttur	-0.30103
-4.138855	arpa	-0.3617278
-4.983953	arpacıya	-0.30103
-4.983953	arpadan	-0.30103
-4.983953	arpaya	-0.30103
-4.983953	arsadaki	-0.30103
-4.983953	arsaya	-0.30103
-4.284983	arslan	-0.3273589
-4.983953	arslana	-0.30103
-4.983953	arslandan	-0.30103
-4.586013	arsız	-0.30103
-4.983953	arsızın	-0.30103
-4.682923	art	-0.30103
-4.983953	artabilir	-0.30103
-4.586013	artan	-0.3679768
-4.807862	artar	-0.30103
-4.983953	artarak	-0.30103
-4.006229	arter	-0.552842
-4.983953	artere	-0.30103
-4.983953	arterial	-0.30103
-4.983953	arteriovenöz	-0.30103
-4.983953	arteriyal	-0.30103
-4.807862	arteriyel	-0.30103
-4.586013	arterlerde	-0.3679768
-4.983953	arterleri	-0.30103
-4.983953	arterlerinde	-0.30103
-4.983953	arthur	-0.30103
-4.983953	artiküler	-0.30103
-4.983953	artistleri	-0.30103
-4.682923	artması	-0.30103
-4.983953	artmaz	-0.30103
-4.682923	artmış	-0.30103
-4.983953	artmıştır	-0.30103
-4.381893	arttı	-0.6532125
-4.682923	arttıkça	-0.30103
-4.983953	arttırdı	-0.30103
-4.983953	artı	-0.30103
-2.994949	artık	-0.374051
-4.983953	artımı	-0.30103
-4.983953	artırarak	-0.30103
-4.682923	artırdı	-0.60206
-4.682923	artırır	-0.60206
-4.983953	artırıyordu	-0.30103
-4.682923	artıyor	-0.39794
-4.33074	artıyordu	-0.9542425
-4.983953	artığını	-0.30103
-4.439885	artış	-0.39794
-4.807862	artışları	-0.30103
-4.586013	artışı	-0.3679768
-4.983953	arz	-0.30103
-4.682923	arzu	-0.30103
-4.807862	arzular	-0.30103
-4.983953	arzuları	-0.30103
-4.983953	arzuların	-0.30103
-4.983953	arzularına	-0.30103
-4.983953	arzunuz	-0.30103
-4.682923	arzusu	-0.30103
-4.983953	arzusuna	-0.30103
-4.983953	arzusunda	-0.30103
-4.983953	arzusunu	-0.30103
-4.439885	arı	-0.3424227
-4.983953	arıca	-0.30103
-4.983953	arıdan	-0.30103
-4.506832	arık	-0.30103
-4.983953	arıklıkta	-0.30103
-4.983953	arılar	-0.30103
-4.17104	arıyor	-0.5314789
-4.983953	arıyordu	-0.30103
-4.381893	arıyordum	-0.90309
-4.682923	arıyordun	-0.60206
-4.807862	arıyorlar	-0.4771213
-4.983953	arıyormuş	-0.30103
-4.17104	arıyorsun	-0.69897
-4.506832	arıyorsunuz	-0.544068
-4.439885	arıyorum	-0.845098
-4.586013	arıyoruz	-0.69897
-4.983953	arşın	-0.30103
-4.682923	arşınına	-0.60206
-4.983953	asabidir	-0.30103
-4.983953	asabileşme	-0.30103
-4.983953	asalaklara	-0.30103
-4.983953	asansör	-0.30103
-4.983953	asansörde	-0.30103
-4.983953	asansörü	-0.30103
-4.983953	asarız	-0.30103
-4.983953	asayişten	-0.30103
-4.983953	asayım	-0.30103
-4.983953	asendan	-0.30103
-4.381893	asfalt	-0.30103
-4.983953	asfalta	-0.30103
-4.983953	asfaltı	-0.30103
-4.983953	asgari	-0.30103
-4.983953	ashdownun	-0.30103
-4.586013	asil	-0.30103
-4.983953	asilden	-0.30103
-4.983953	asildi	-0.30103
-4.983953	asildir	-0.30103
-4.983953	asimetrik	-0.30103
-4.682923	asistan	-0.30103
-4.983953	asistanlar	-0.30103
-4.983953	asistanımız	-0.30103
-4.983953	asistanıyla	-0.30103
-4.682923	asiye	-0.30103
-4.983953	asiyede	-0.30103
-4.381893	asiyenin	-0.30103
-4.983953	asiyeye	-0.30103
-4.506832	asiyeyi	-0.30103
-4.506832	asker	-0.544068
-4.807862	askerden	-0.30103
-4.983953	askerdeydim	-0.30103
-4.983953	askerdeyken	-0.30103
-4.983953	askere	-0.30103
-4.983953	askeri	-0.30103
-4.983953	askerin	-0.30103
-4.682923	askerler	-0.30103
-4.983953	askerleriyle	-0.30103
-4.983953	askerlik	-0.30103
-4.983953	askerlikle	-0.30103
-4.983953	askıdaki	-0.30103
-3.779833	asla	-0.3157533
-4.284983	aslan	-0.327359
-4.983953	aslana	-0.30103
-4.983953	aslandan	-0.30103
-4.983953	aslanlar	-0.30103
-4.983953	aslanım	-0.30103
-4.983953	aslen	-0.30103
-4.586013	aslı	-0.30103
-4.983953	aslımız	-0.30103
-4.682923	aslına	-0.30103
-4.138855	aslında	-0.3388186
-4.682923	aslını	-0.30103
-4.983953	asma	-0.30103
-4.983953	asmadıklarına	-0.30103
-4.983953	asmadım	-0.30103
-4.807862	asmış	-0.4771213
-4.983953	aspirinin	-0.30103
-4.807862	assendan	-0.4771212
-4.983953	astar	-0.30103
-4.983953	astragan	-0.30103
-4.983953	astronotları	-0.30103
-4.983953	asyanın	-0.30103
-4.983953	asıktı	-0.30103
-3.807862	asıl	-0.3168243
-4.983953	asılan	-0.30103
-4.983953	asıldı	-0.30103
-4.983953	asılmaz	-0.30103
-4.807862	asılmış	-0.30103
-4.983953	asılmıştı	-0.30103
-4.983953	asılsız	-0.30103
-4.807862	asılı	-0.30103
-4.807862	asılır	-0.4771213
-4.983953	asırda	-0.30103
-3.544621	at	-0.3533033
-3.923255	ata	-0.3222193
-4.682923	atacak	-0.30103
-4.983953	atacağı	-0.30103
-4.983953	atadan	-0.30103
-4.983953	ataktı	-0.30103
-4.983953	atalar	-0.30103
-4.983953	ataların	-0.30103
-4.983953	atalete	-0.30103
-4.983953	atalım	-0.30103
-4.983953	atamamıştı	-0.30103
-4.983953	atamaz	-0.30103
-4.983953	atamazsın	-0.30103
-4.983953	atan	-0.30103
-4.983953	atanan	-0.30103
-4.983953	atanın	-0.30103
-4.983953	atar	-0.30103
-4.506832	atarak	-0.30103
-4.983953	atasını	-0.30103
-4.682923	atelektazik	-0.39794
-4.983953	atelektaziler	-0.30103
-4.807862	aterom	-0.4771212
-3.740915	ateş	-0.3539661
-4.439885	ateşe	-0.3424227
-4.33074	ateşi	-0.30103
-4.983953	ateşin	-0.30103
-4.983953	ateşkes	-0.30103
-4.807862	ateşledi	-0.30103
-4.983953	ateşledim	-0.30103
-4.983953	ateşleme	-0.30103
-4.983953	ateşlenerek	-0.30103
-4.983953	ateşler	-0.30103
-4.983953	ateşleyin	-0.30103
-4.682923	ateşli	-0.30103
-4.983953	ateşliydi	-0.30103
-4.807862	ateşte	-0.30103
-4.586013	ateşçi	-0.30103
-4.983953	ateşçilerine	-0.30103
-4.983953	ateşçinin	-0.30103
-4.983953	ateşçiyi	-0.30103
-4.983953	atfediliyor	-0.30103
-4.983953	atipik	-0.30103
-4.807862	atla	-0.30103
-4.439885	atladı	-0.845098
-4.983953	atladık	-0.30103
-4.983953	atladığım	-0.30103
-4.983953	atlamak	-0.30103
-4.983953	atlamaktan	-0.30103
-4.983953	atlamaya	-0.30103
-4.983953	atlamayı	-0.30103
-4.983953	atlamazsan	-0.30103
-4.983953	atlamıştı	-0.30103
-4.807862	atlantik	-0.30103
-4.983953	atlantikin	-0.30103
-4.983953	atlantikteki	-0.30103
-4.983953	atlantikten	-0.30103
-4.506832	atlar	-0.3521825
-4.807862	atları	-0.30103
-4.983953	atlarımızı	-0.30103
-4.506832	atlas	-0.30103
-4.983953	atlatana	-0.30103
-4.983953	atlatma	-0.30103
-4.983953	atlatmak	-0.30103
-4.983953	atlatmaktan	-0.30103
-4.983953	atlattı	-0.30103
-4.983953	atlatırım	-0.30103
-4.807862	atlatıyor	-0.4771213
-4.807862	atlayacak	-0.30103
-4.983953	atlayacağım	-0.30103
-4.506832	atlayarak	-0.3521825
-4.983953	atlayınca	-0.30103
-4.682923	atlayıp	-0.30103
-4.682923	atlı	-0.30103
-4.682923	atlılar	-0.30103
-4.807862	atlıya	-0.30103
-4.983953	atlıyordum	-0.30103
-4.586013	atma	-0.3679768
-4.586013	atmaca	-0.30103
-4.807862	atmacanın	-0.30103
-4.983953	atmaca’ya	-0.30103
-4.983953	atmadan	-0.30103
-4.983953	atmadım	-0.30103
-4.682923	atmak	-0.30103
-4.983953	atmaktan	-0.30103
-4.983953	atmamalı	-0.30103
-4.586013	atmaya	-0.4771212
-4.983953	atmıyoruz	-0.30103
-4.682923	atmış	-0.30103
-4.586013	atmışlar	-0.3679768
-4.682923	atmıştı	-0.39794
-4.983953	atmışız	-0.30103
-4.983953	atrial	-0.30103
-4.33074	atriyum	-0.4771213
-4.983953	atsa	-0.30103
-4.983953	atsan	-0.30103
-4.586013	atta	-0.30103
-4.439885	attan	-0.3424226
-3.822585	attı	-0.69897
-4.983953	attıkları	-0.30103
-4.807862	attıktan	-0.4771213
-4.983953	attılar	-0.30103
-4.381893	attım	-0.5228788
-4.983953	attırmak	-0.30103
-4.983953	attığım	-0.30103
-4.682923	attığın	-0.39794
-4.983953	atölyeleri	-0.30103
-4.138855	atı	-0.3388186
-4.983953	atıcı	-0.30103
-4.983953	atıdır	-0.30103
-4.983953	atılacak	-0.30103
-4.983953	atılacaktı	-0.30103
-4.983953	atılacaktım	-0.30103
-4.586013	atılan	-0.30103
-4.983953	atılarak	-0.30103
-4.439885	atıldı	-0.3424227
-4.983953	atıldılar	-0.30103
-4.682923	atıldım	-0.39794
-4.983953	atıldığı	-0.30103
-4.983953	atılmasına	-0.30103
-4.807862	atılmış	-0.30103
-4.983953	atılmıştı	-0.30103
-4.983953	atılmıştım	-0.30103
-4.807862	atılıp	-0.30103
-4.983953	atılıyor	-0.30103
-4.983953	atılıyorlardı	-0.30103
-4.983953	atım	-0.30103
-4.807862	atımı	-0.30103
-4.983953	atımın	-0.30103
-3.983953	atın	-0.3553877
-4.807862	atına	-0.30103
-4.807862	atınca	-0.30103
-4.682923	atıp	-0.30103
-4.506832	atıyor	-0.4259687
-4.506832	atıyordu	-0.7781512
-4.983953	atıyorsun	-0.30103
-4.983953	atış	-0.30103
-4.807862	augmentasyon	-0.4771213
-4.983953	augsburg	-0.30103
-4.983953	authorware	-0.30103
-4.586013	av	-0.30103
-4.586013	ava	-0.30103
-4.983953	avantanın	-0.30103
-4.983953	avantayı	-0.30103
-4.682923	avarya	-0.30103
-4.807862	avasküler	-0.4771212
-4.24359	avaz	-0.4259687
-4.983953	avazları	-0.30103
-4.807862	avazı	-0.4771212
-4.983953	avcumda	-0.30103
-4.983953	avcunun	-0.30103
-4.807862	avcı	-0.30103
-4.983953	avcılar	-0.30103
-4.983953	avcının	-0.30103
-4.983953	avda	-0.30103
-4.983953	avdan	-0.30103
-4.983953	avdettir	-0.30103
-4.983953	avizeler	-0.30103
-4.807862	avlanmaz	-0.4771213
-4.983953	avlanmış	-0.30103
-4.807862	avlanır	-0.4771213
-4.983953	avlar	-0.30103
-4.983953	avlayanın	-0.30103
-4.983953	avluda	-0.30103
-4.983953	avlusunda	-0.30103
-4.983953	avluya	-0.30103
-4.054534	avni	-0.3679768
-4.439885	avninin	-0.30103
-4.983953	avniye	-0.30103
-4.586013	avradı	-0.30103
-4.682923	avradın	-0.39794
-3.837825	avrat	-0.3710679
-4.807862	avratlar	-0.30103
-4.983953	avratta	-0.30103
-4.983953	avrattan	-0.30103
-4.054534	avro	-0.3899711
-4.983953	avroluk	-0.30103
-4.586013	avroya	-0.30103
-4.983953	avroyu	-0.30103
-4.506832	avrupa	-0.30103
-4.807862	avrupada	-0.30103
-4.983953	avrupalı	-0.30103
-4.983953	avuca	-0.30103
-4.586013	avucumun	-0.4771212
-4.807862	avucunda	-0.30103
-4.983953	avucundaki	-0.30103
-4.983953	avucundakini	-0.30103
-4.983953	avucunun	-0.30103
-4.983953	avucuyla	-0.30103
-4.682923	avukat	-0.30103
-4.983953	avukatla	-0.30103
-4.983953	avukatlar	-0.30103
-4.983953	avukatlığını	-0.30103
-4.983953	avukatsın	-0.30103
-4.983953	avukatım	-0.30103
-4.983953	avukatımı	-0.30103
-4.983953	avukatın	-0.30103
-4.983953	avustralya	-0.30103
-4.983953	avustralyadaki	-0.30103
-4.983953	avustralya’daki	-0.30103
-4.983953	avusturyalı	-0.30103
-4.983953	avutan	-0.30103
-4.506832	avuç	-0.3521825
-4.983953	avuçlarıma	-0.30103
-4.807862	avuçlarımın	-0.4771213
-4.983953	avuçlarına	-0.30103
-4.983953	avı	-0.30103
-4.983953	avımı	-0.30103
-4.983953	avına	-0.30103
-4.983953	avından	-0.30103
-3.577413	ay	-0.3713175
-4.983953	aya	-0.30103
-3.837825	ayak	-0.3710679
-4.682923	ayakkabı	-0.30103
-4.983953	ayakkabılan	-0.30103
-4.807862	ayakkabılarım	-0.30103
-4.983953	ayakkabım	-0.30103
-4.983953	ayakkaplarının	-0.30103
-4.983953	ayaklan	-0.30103
-4.807862	ayaklar	-0.30103
-4.983953	ayaklarda	-0.30103
-4.33074	ayakları	-0.3309932
-4.983953	ayaklarım	-0.30103
-4.682923	ayaklarımı	-0.30103
-4.807862	ayaklarımızın	-0.30103
-4.807862	ayaklarına	-0.30103
-4.983953	ayaklarında	-0.30103
-4.807862	ayaklarından	-0.30103
-4.439885	ayaklarını	-0.30103
-4.506832	ayaklarının	-0.3521825
-4.983953	ayaklarınızın	-0.30103
-4.807862	ayaklarıyla	-0.30103
-4.17104	ayakta	-0.4336556
-4.983953	ayaktaydım	-0.30103
-4.983953	ayakucunda	-0.30103
-4.983953	ayakucunu	-0.30103
-4.983953	ayalimi	-0.30103
-4.983953	ayanı	-0.30103
-4.983953	ayardadır	-0.30103
-4.983953	ayarladım	-0.30103
-4.983953	ayarladın	-0.30103
-4.983953	ayarlanarak	-0.30103
-4.807862	ayarlandı	-0.4771213
-4.983953	ayarlarım	-0.30103
-4.983953	ayarlarız	-0.30103
-4.983953	ayarlayabilirim	-0.30103
-4.983953	ayartılmamıza	-0.30103
-4.983953	ayaza	-0.30103
-4.682923	ayazda	-0.30103
-3.853619	ayağa	-0.3744589
-4.33074	ayağı	-0.3309932
-4.983953	ayağım	-0.30103
-4.983953	ayağıma	-0.30103
-4.983953	ayağımda	-0.30103
-4.983953	ayağımla	-0.30103
-4.983953	ayağımın	-0.30103
-4.682923	ayağın	-0.30103
-4.682923	ayağına	-0.30103
-4.682923	ayağında	-0.30103
-4.983953	ayağındaki	-0.30103
-4.682923	ayağından	-0.30103
-4.33074	ayağını	-0.30103
-4.586013	ayağının	-0.30103
-4.983953	ayağınızın	-0.30103
-4.807862	ayağıyla	-0.30103
-4.33074	ayda	-0.4149733
-4.807862	aydan	-0.30103
-4.983953	aydında	-0.30103
-4.983953	aydınlanmak	-0.30103
-4.983953	aydınlanması	-0.30103
-4.807862	aydınlanmaya	-0.30103
-4.983953	aydınlanıyorduk	-0.30103
-4.983953	aydınlatarak	-0.30103
-4.983953	aydınlatayım	-0.30103
-4.807862	aydınlatmıştı	-0.4771213
-4.682923	aydınlattığı	-0.30103
-4.983953	aydınlatıldı	-0.30103
-4.983953	aydınlatılmaya	-0.30103
-4.983953	aydınlatılmış	-0.30103
-4.807862	aydınlatıyordu	-0.4771213
-4.439885	aydınlık	-0.30103
-4.807862	aydınlıktı	-0.4771213
-4.983953	aydınlığa	-0.30103
-4.983953	aydınlığın	-0.30103
-4.682923	aydır	-0.30103
-4.983953	ayin	-0.30103
-4.983953	aykırı	-0.30103
-4.983953	aylakçılığa	-0.30103
-4.983953	aylakçının	-0.30103
-4.439885	aylar	-0.30103
-4.983953	aylarca	-0.30103
-4.682923	aylardan	-0.60206
-4.983953	aylardır	-0.30103
-4.983953	ayların	-0.30103
-4.586013	aylık	-0.3679768
-4.682923	ayna	-0.39794
-4.807862	aynada	-0.30103
-4.807862	aynadaki	-0.30103
-4.983953	aynalı	-0.30103
-4.983953	aynanın	-0.30103
-4.983953	aynası	-0.30103
-4.983953	aynasıdır	-0.30103
-4.983953	aynasında	-0.30103
-4.983953	aynaya	-0.30103
-4.029711	aynen	-0.4313638
-3.276383	aynı	-0.4155033
-4.983953	aynısı	-0.30103
-4.983953	aynısını	-0.30103
-4.807862	aynıyız	-0.4771213
-4.983953	ayol	-0.30103
-4.108892	ayran	-0.3802113
-4.983953	ayrandan	-0.30103
-4.983953	ayrandır	-0.30103
-4.983953	ayranlarına	-0.30103
-4.807862	ayranı	-0.30103
-4.807862	ayranım	-0.30103
-4.983953	ayranın	-0.30103
-4.983953	ayranını	-0.30103
-4.24359	ayrı	-0.3245111
-3.94256	ayrıca	-0.30103
-4.807862	ayrıl	-0.4771213
-4.983953	ayrılacak	-0.30103
-4.983953	ayrılalı	-0.30103
-4.983953	ayrılalım	-0.30103
-4.983953	ayrılamadığı	-0.30103
-4.983953	ayrılamam	-0.30103
-4.682923	ayrılan	-0.30103
-4.983953	ayrılanı	-0.30103
-4.506832	ayrıldı	-0.544068
-4.506832	ayrıldık	-0.7781512
-4.807862	ayrıldılar	-0.30103
-4.506832	ayrıldım	-0.7781512
-4.983953	ayrıldınız	-0.30103
-4.983953	ayrıldığımız	-0.30103
-4.807862	ayrılma	-0.4771213
-4.983953	ayrılmadım	-0.30103
-4.983953	ayrılmadığımız	-0.30103
-4.506832	ayrılmak	-0.30103
-4.983953	ayrılmanı	-0.30103
-4.983953	ayrılmanın	-0.30103
-4.983953	ayrılması	-0.30103
-4.983953	ayrılmasıyla	-0.30103
-4.807862	ayrılmayalım	-0.30103
-4.983953	ayrılmayın	-0.30103
-4.439885	ayrılmış	-0.30103
-4.807862	ayrılık	-0.30103
-4.807862	ayrılın	-0.4771213
-4.983953	ayrılınca	-0.30103
-4.807862	ayrılıp	-0.30103
-4.807862	ayrılır	-0.4771213
-4.983953	ayrılıyor	-0.30103
-4.983953	ayrılıyorlar	-0.30103
-4.983953	ayrılıyorsun	-0.30103
-4.983953	ayrılıyorum	-0.30103
-4.983953	ayrılıyoruz	-0.30103
-4.983953	ayrımcılık	-0.30103
-4.983953	ayrımız	-0.30103
-4.983953	ayrıntılar	-0.30103
-4.586013	ayrıntılı	-0.30103
-4.983953	ayrıydılar	-0.30103
-4.807862	ayva	-0.30103
-4.983953	ayvanın	-0.30103
-4.983953	ayvayı	-0.30103
-4.983953	ayvaz	-0.30103
-4.983953	ayyar	-0.30103
-3.983953	ayı	-0.3553877
-4.983953	ayıbı	-0.30103
-4.983953	ayıbını	-0.30103
-4.983953	ayık	-0.30103
-4.586013	ayılar	-0.3679768
-4.586013	ayın	-0.30103
-4.807862	ayına	-0.4771213
-4.586013	ayında	-0.3679768
-4.807862	ayının	-0.30103
-4.284983	ayıp	-0.60206
-4.983953	ayıpsın	-0.30103
-4.983953	ayıpsız	-0.30103
-4.807862	ayıptır	-0.4771213
-4.983953	ayır	-0.30103
-4.983953	ayırabiliyordu	-0.30103
-4.983953	ayıracağından	-0.30103
-4.983953	ayıramadım	-0.30103
-4.983953	ayıramıyordu	-0.30103
-4.983953	ayıran	-0.30103
-4.807862	ayırana	-0.30103
-4.983953	ayırdedilmemiştir	-0.30103
-4.807862	ayırdığınız	-0.4771213
-4.983953	ayırmadan	-0.30103
-4.586013	ayırmak	-0.30103
-4.983953	ayırmamaya	-0.30103
-4.682923	ayırmaya	-0.30103
-4.983953	ayırmayan	-0.30103
-4.983953	ayırmayarak	-0.30103
-4.983953	ayırmış	-0.30103
-4.17104	ayırt	-0.845098
-4.983953	ayırıyordu	-0.30103
-4.983953	ayırıyorduk	-0.30103
-4.983953	ayıyı	-0.30103
-4.807862	ayşe	-0.30103
-3.415751	az	-0.4247332
-4.807862	aza	-0.30103
-4.983953	azabı	-0.30103
-4.983953	azabını	-0.30103
-4.983953	azalarının	-0.30103
-4.807862	azaldı	-0.4771213
-4.807862	azaldığını	-0.30103
-4.983953	azalmayan	-0.30103
-4.807862	azalmış	-0.30103
-4.983953	azalsın	-0.30103
-4.983953	azaltacaktım	-0.30103
-4.983953	azalttılar	-0.30103
-4.983953	azaltılacak	-0.30103
-4.983953	azalınca	-0.30103
-4.983953	azalırken	-0.30103
-4.807862	azalıyor	-0.30103
-4.983953	azalıyordu	-0.30103
-4.983953	azameti	-0.30103
-4.983953	azan	-0.30103
-4.506832	azap	-0.30103
-4.983953	azapları	-0.30103
-4.983953	azaptan	-0.30103
-4.983953	azar	-0.30103
-4.983953	azarladı	-0.30103
-4.983953	azarlayarak	-0.30103
-4.983953	azarmış	-0.30103
-4.983953	azasından	-0.30103
-4.983953	azdan	-0.30103
-4.983953	azdır	-0.30103
-4.983953	azgını	-0.30103
-4.807862	azime	-0.30103
-4.983953	azitromisin	-0.30103
-4.983953	aziz	-0.30103
-4.983953	azizdir	-0.30103
-4.983953	azizim	-0.30103
-4.983953	azlıkta	-0.30103
-4.983953	azlıktılar	-0.30103
-4.983953	azmaz	-0.30103
-4.983953	azmetmişti	-0.30103
-4.983953	azmettiniz	-0.30103
-4.983953	azmışlardı	-0.30103
-4.983953	azraili	-0.30103
-4.586013	azı	-0.3679768
-4.205802	azıcık	-0.30103
-4.983953	azık	-0.30103
-4.983953	azılı	-0.30103
-4.983953	azımsayıp	-0.30103
-4.586013	azından	-0.30103
-4.983953	azınlık	-0.30103
-4.807862	azınlıklara	-0.30103
-4.983953	azınlıklardan	-0.30103
-4.983953	azıtıyordu	-0.30103
-3.42166	aç	-0.4272294
-4.807862	aça	-0.30103
-4.983953	açabilecek	-0.30103
-4.682923	açabilir	-0.39794
-4.983953	açabilirsin	-0.30103
-4.983953	açabiliyorlardı	-0.30103
-4.586013	açacak	-0.3679768
-4.983953	açacaksın	-0.30103
-4.983953	açacaktım	-0.30103
-4.983953	açalım	-0.30103
-4.983953	açamadım	-0.30103
-4.586013	açan	-0.30103
-4.205802	açar	-0.50515
-4.439885	açarak	-0.30103
-4.983953	açarlar	-0.30103
-4.983953	açarım	-0.30103
-4.983953	açlardan	-0.30103
-4.586013	açlık	-0.3679768
-4.439885	açlıktan	-0.3424227
-4.983953	açlığı	-0.30103
-4.807862	açma	-0.4771213
-4.983953	açmadan	-0.30103
-4.983953	açmadı	-0.30103
-4.983953	açmadık	-0.30103
-4.983953	açmadım	-0.30103
-4.983953	açmadığını	-0.30103
-4.807862	açmak	-0.30103
-4.983953	açmalısın	-0.30103
-4.983953	açmama	-0.30103
-4.983953	açması	-0.30103
-4.983953	açmaya	-0.30103
-4.983953	açmayı	-0.30103
-4.807862	açmaz	-0.30103
-4.983953	açmıyor	-0.30103
-4.983953	açmıyordu	-0.30103
-4.983953	açmıyorsun	-0.30103
-4.807862	açmış	-0.30103
-4.807862	açmıştı	-0.30103
-3.822585	açtı	-0.6139593
-4.983953	açtıkça	-0.30103
-4.682923	açtılar	-0.39794
-4.24359	açtım	-0.5440681
-4.807862	açtın	-0.30103
-4.983953	açtınız	-0.30103
-4.983953	açtırdı	-0.30103
-4.983953	açtırmıyor	-0.30103
-4.807862	açtığı	-0.30103
-4.983953	açtığım	-0.30103
-4.983953	açtığın	-0.30103
-4.983953	açtığını	-0.30103
-4.682923	açı	-0.39794
-4.586013	açıdan	-0.3679768
-3.560707	açık	-0.3811883
-4.983953	açıkgözlük	-0.30103
-4.983953	açıkla	-0.30103
-4.983953	açıkladı	-0.30103
-4.586013	açıklama	-0.30103
-4.682923	açıklamak	-0.30103
-4.983953	açıklamama	-0.30103
-4.983953	açıklamana	-0.30103
-4.807862	açıklaması	-0.30103
-4.983953	açıklamaya	-0.30103
-4.586013	açıklanacak	-0.69897
-4.983953	açıklanmamışlar	-0.30103
-4.983953	açıklayabilir	-0.30103
-4.983953	açıklayabilirim	-0.30103
-4.983953	açıklayacak	-0.30103
-4.983953	açıklayacaksın	-0.30103
-4.983953	açıklayacağım	-0.30103
-4.682923	açıklayayım	-0.60206
-4.983953	açıklayın	-0.30103
-4.983953	açıklıkla	-0.30103
-4.983953	açıklığa	-0.30103
-4.983953	açıkmış	-0.30103
-4.682923	açıkta	-0.30103
-4.983953	açıktan	-0.30103
-4.983953	açıktayım	-0.30103
-4.682923	açıktı	-0.39794
-4.108892	açıktır	-1.176091
-4.33074	açıkça	-0.30103
-4.807862	açıkçası	-0.30103
-4.983953	açılacak	-0.30103
-4.983953	açılacağı	-0.30103
-4.284983	açılan	-0.30103
-4.807862	açılarak	-0.30103
-4.080863	açıldı	-0.9294189
-4.983953	açıldıktan	-0.30103
-4.807862	açıldığı	-0.4771213
-4.983953	açıldığını	-0.30103
-4.983953	açılma	-0.30103
-4.983953	açılmamıştı	-0.30103
-4.807862	açılması	-0.30103
-4.983953	açılmasına	-0.30103
-4.983953	açılmasını	-0.30103
-4.682923	açılmaya	-0.30103
-4.807862	açılmaz	-0.30103
-4.983953	açılmıyordu	-0.30103
-4.983953	açılmış	-0.30103
-4.682923	açılmıştı	-0.60206
-4.983953	açılsın	-0.30103
-4.983953	açılı	-0.30103
-4.506832	açılımı	-0.544068
-4.807862	açılın	-0.4771213
-4.983953	açılınca	-0.30103
-4.506832	açılır	-0.30103
-4.983953	açılırsın	-0.30103
-4.983953	açılırım	-0.30103
-4.807862	açılıyor	-0.4771213
-4.983953	açılıyordu	-0.30103
-4.983953	açılış	-0.30103
-4.983953	açılışında	-0.30103
-4.983953	açılışının	-0.30103
-4.586013	açım	-0.69897
-4.205802	açın	-0.4101745
-4.17104	açıp	-0.3203352
-4.381893	açısından	-0.3357921
-4.682923	açıyor	-0.30103
-4.983953	açıyorlardı	-0.30103
-4.807862	açız	-0.4771213
-4.807862	açığa	-0.30103
-4.983953	açışında	-0.30103
-4.983953	ağ	-0.30103
-3.807862	ağa	-0.3087168
-4.682923	ağabey	-0.30103
-4.33074	ağaca	-0.4149734
-4.33074	ağacı	-0.3309932
-4.682923	ağacın	-0.30103
-4.983953	ağacına	-0.30103
-4.439885	ağacından	-0.30103
-4.983953	ağacını	-0.30103
-4.807862	ağacının	-0.30103
-4.983953	ağacığım	-0.30103
-4.983953	ağada	-0.30103
-4.983953	ağaların	-0.30103
-4.983953	ağalık	-0.30103
-4.983953	ağam	-0.30103
-4.983953	ağan	-0.30103
-4.33074	ağanın	-0.3309932
-4.983953	ağaran	-0.30103
-4.983953	ağarasım	-0.30103
-4.983953	ağartır	-0.30103
-4.983953	ağarınca	-0.30103
-4.983953	ağarırken	-0.30103
-4.983953	ağasının	-0.30103
-4.983953	ağaya	-0.30103
-3.962764	ağaç	-0.3521825
-4.586013	ağaçlar	-0.30103
-4.983953	ağaçlardan	-0.30103
-4.983953	ağaçlarla	-0.30103
-4.807862	ağaçları	-0.30103
-4.983953	ağaçlarımızı	-0.30103
-4.506832	ağaçların	-0.3521825
-4.983953	ağaçlarını	-0.30103
-4.807862	ağaçlarının	-0.30103
-4.807862	ağaçlı	-0.30103
-4.983953	ağaçlık	-0.30103
-4.807862	ağaçsız	-0.30103
-4.983953	ağaçta	-0.30103
-4.586013	ağaçtan	-0.30103
-4.983953	ağla	-0.30103
-4.586013	ağladı	-0.69897
-4.983953	ağladın	-0.30103
-4.807862	ağladığını	-0.30103
-4.439885	ağlama	-0.39794
-4.586013	ağlamak	-0.30103
-4.983953	ağlamakla	-0.30103
-4.983953	ağlamaklı	-0.30103
-4.983953	ağlamaktır	-0.30103
-4.983953	ağlamalar	-0.30103
-4.983953	ağlamaları	-0.30103
-4.983953	ağlamalarım	-0.30103
-4.983953	ağlamamış	-0.30103
-4.983953	ağlamanın	-0.30103
-4.983953	ağlamasınlar	-0.30103
-4.506832	ağlamaya	-0.544068
-4.983953	ağlamayan	-0.30103
-4.807862	ağlamaz	-0.30103
-4.983953	ağlamışsın	-0.30103
-4.983953	ağlanabileceğini	-0.30103
-4.439885	ağlar	-0.3424227
-4.983953	ağlardı	-0.30103
-4.983953	ağlarsa	-0.30103
-4.983953	ağlarsın	-0.30103
-4.983953	ağlarım	-0.30103
-4.807862	ağlasın	-0.30103
-4.983953	ağlatan	-0.30103
-4.983953	ağlatıcı	-0.30103
-4.586013	ağlatır	-0.30103
-4.439885	ağlaya	-0.39794
-4.983953	ağlayacak	-0.30103
-4.983953	ağlayacaktı	-0.30103
-4.506832	ağlayan	-0.30103
-4.807862	ağlayarak	-0.30103
-4.807862	ağlayıp	-0.30103
-4.983953	ağlayış	-0.30103
-4.983953	ağlaşarak	-0.30103
-4.33074	ağlıyor	-0.3309932
-4.24359	ağlıyordu	-1.041393
-4.983953	ağlıyordum	-0.30103
-4.983953	ağlıyordun	-0.30103
-4.983953	ağlıyorsun	-0.30103
-4.983953	ağlıyorum	-0.30103
-4.983953	ağnamış	-0.30103
-4.983953	ağrılar	-0.30103
-4.983953	ağrılarda	-0.30103
-4.983953	ağrıları	-0.30103
-4.586013	ağrımaya	-0.4771213
-4.983953	ağrın	-0.30103
-4.983953	ağrırsa	-0.30103
-4.205802	ağrısı	-0.3467875
-4.807862	ağrısız	-0.4771212
-4.682923	ağrıtır	-0.60206
-4.983953	ağrıtıyordu	-0.30103
-4.983953	ağrıya	-0.30103
-4.983953	ağrıyana	-0.30103
-4.33074	ağrıyor	-0.69897
-4.586013	ağustosta	-0.30103
-4.983953	ağustostan	-0.30103
-4.682923	ağustosun	-0.30103
-4.983953	ağza	-0.30103
-4.17104	ağzı	-0.3424227
-4.807862	ağzım	-0.30103
-4.983953	ağzıma	-0.30103
-4.439885	ağzımdan	-0.30103
-4.682923	ağzımı	-0.30103
-4.807862	ağzımın	-0.30103
-4.983953	ağzımızı	-0.30103
-4.682923	ağzın	-0.30103
-4.108892	ağzına	-0.3174204
-4.682923	ağzında	-0.30103
-4.138855	ağzından	-0.3388186
-3.983953	ağzını	-0.3258536
-4.682923	ağzının	-0.30103
-4.807862	ağzıyla	-0.30103
-4.983953	ağıl	-0.30103
-4.983953	ağılda	-0.30103
-3.30726	ağır	-0.4279033
-4.983953	ağırbaşlı	-0.30103
-4.983953	ağırdan	-0.30103
-4.983953	ağırdı	-0.30103
-4.807862	ağırdır	-0.4771213
-4.983953	ağırlaması	-0.30103
-4.983953	ağırlanmaz	-0.30103
-4.682923	ağırlar	-0.60206
-4.983953	ağırlaşarak	-0.30103
-4.983953	ağırlaşmıştı	-0.30103
-4.983953	ağırlaşıverdi	-0.30103
-4.682923	ağırlık	-0.30103
-4.807862	ağırlıklı	-0.4771213
-4.983953	ağırlıktan	-0.30103
-4.807862	ağırlığı	-0.30103
-4.807862	ağırlığıyla	-0.30103
-4.983953	ağırıma	-0.30103
-4.284983	ağız	-0.30103
-4.983953	ağızda	-0.30103
-4.807862	ağızdan	-0.30103
-4.983953	ağızlarına	-0.30103
-4.983953	ağızlarını	-0.30103
-4.983953	ağızlarıyla	-0.30103
-4.054534	aş	-0.3309932
-4.586013	aşa	-0.30103
-4.983953	aşama	-0.30103
-4.983953	aşamaya	-0.30103
-4.983953	aşan	-0.30103
-4.682923	aşar	-0.39794
-3.682923	aşağı	-0.3537364
-4.17104	aşağıda	-0.30103
-4.983953	aşağıdaki	-0.30103
-4.983953	aşağıdalar	-0.30103
-4.586013	aşağıdan	-0.3679768
-4.983953	aşağılarda	-0.30103
-4.33074	aşağılık	-0.3679768
-4.983953	aşağılıklığını	-0.30103
-4.983953	aşağısı	-0.30103
-4.983953	aşağısındaki	-0.30103
-3.904772	aşağıya	-0.3444957
-4.983953	aşağıyı	-0.30103
-4.983953	aşikârede	-0.30103
-4.029711	aşk	-0.3631779
-4.586013	aşka	-0.30103
-4.807862	aşkla	-0.30103
-4.983953	aşkları	-0.30103
-4.983953	aşkolsun	-0.30103
-4.682923	aşkım	-0.39794
-4.983953	aşkımı	-0.30103
-4.381893	aşkın	-0.3357921
-4.439885	aşkına	-0.4771213
-4.983953	aşkındır	-0.30103
-4.983953	aşkını	-0.30103
-4.983953	aşla	-0.30103
-4.983953	aşmada	-0.30103
-4.983953	aşmayan	-0.30103
-4.983953	aşmış	-0.30103
-4.983953	aştıkları	-0.30103
-4.983953	aştım	-0.30103
-4.983953	aşure	-0.30103
-4.284983	aşı	-0.3273589
-4.284983	aşık	-0.30103
-4.682923	aşıktım	-0.60206
-4.807862	aşım	-0.30103
-4.983953	aşıma	-0.30103
-4.807862	aşına	-0.30103
-4.983953	aşından	-0.30103
-4.983953	aşınmaz	-0.30103
-4.807862	aşını	-0.30103
-4.682923	aşıp	-0.30103
-4.682923	aşırı	-0.30103
-4.983953	aşırır	-0.30103
-4.983953	aşıyla	-0.30103
-4.682923	aşığın	-0.30103
-4.983953	aşığız	-0.30103
-3.560707	baba	-0.4885507
-4.284983	babacığım	-0.5118834
-4.807862	babadan	-0.30103
-4.983953	babalarımızın	-0.30103
-3.822585	babam	-0.3458424
-4.983953	babama	-0.30103
-4.807862	babamdan	-0.30103
-4.807862	babamla	-0.30103
-4.506832	babamı	-0.30103
-4.682923	babamın	-0.30103
-4.983953	babamız	-0.30103
-3.904772	baban	-0.4036923
-4.506832	babana	-0.3521825
-4.807862	babanla	-0.30103
-4.682923	babanı	-0.30103
-4.807862	babanım	-0.4771213
-4.807862	babanın	-0.30103
-4.807862	babanız	-0.30103
-3.983953	babası	-0.3553877
-4.586013	babasına	-0.30103
-4.682923	babasından	-0.30103
-4.586013	babasını	-0.30103
-4.586013	babasının	-0.30103
-4.983953	babasısın	-0.30103
-4.983953	babasıyla	-0.30103
-4.682923	babaya	-0.30103
-4.807862	babayiğit	-0.30103
-4.682923	babayı	-0.39794
-4.983953	babayım	-0.30103
-4.983953	baca	-0.30103
-4.682923	bacadan	-0.39794
-4.682923	bacak	-0.39794
-4.983953	bacakları	-0.30103
-4.983953	bacaklarımda	-0.30103
-4.807862	bacaklarımı	-0.30103
-4.983953	bacaklarımın	-0.30103
-4.682923	bacaklarına	-0.30103
-4.983953	bacaklarında	-0.30103
-4.807862	bacaklarını	-0.30103
-4.983953	bacanağından	-0.30103
-4.807862	bacası	-0.30103
-4.983953	bacağı	-0.30103
-4.983953	bacağım	-0.30103
-4.983953	bacağımı	-0.30103
-4.586013	bacağından	-0.3679768
-4.983953	bacısını	-0.30103
-4.983953	badana	-0.30103
-4.983953	badem	-0.30103
-4.983953	badnikte	-0.30103
-4.381893	bahane	-0.3357921
-4.983953	bahaneler	-0.30103
-4.983953	bahanen	-0.30103
-4.983953	bahanesini	-0.30103
-4.983953	bahaneyle	-0.30103
-4.586013	bahar	-0.30103
-4.983953	baharda	-0.30103
-4.983953	bahardan	-0.30103
-4.807862	baharı	-0.30103
-4.983953	bahasına	-0.30103
-4.983953	bahayla	-0.30103
-4.983953	bahislerinizi	-0.30103
-4.586013	bahse	-0.3679768
-4.983953	bahsedebilir	-0.30103
-4.983953	bahsedeceklerdir	-0.30103
-4.983953	bahsedeceksin	-0.30103
-4.807862	bahsedeceğim	-0.4771213
-4.807862	bahseden	-0.30103
-4.983953	bahsederken	-0.30103
-4.983953	bahsederlerdi	-0.30103
-4.983953	bahsederlerken	-0.30103
-4.983953	bahsedildi	-0.30103
-4.983953	bahsedilir	-0.30103
-4.807862	bahsediyor	-0.4771213
-4.983953	bahsediyordu	-0.30103
-4.983953	bahsediyordum	-0.30103
-4.983953	bahsediyorlar	-0.30103
-4.381893	bahsediyorsun	-0.6532125
-4.807862	bahsediyorsunuz	-0.4771213
-4.807862	bahsediyorum	-0.4771213
-4.807862	bahsediyoruz	-0.4771213
-4.807862	bahsetme	-0.4771213
-4.807862	bahsetmek	-0.30103
-4.983953	bahsetmeye	-0.30103
-4.983953	bahsetmezdi	-0.30103
-4.983953	bahsetmiştim	-0.30103
-4.983953	bahsetsenize	-0.30103
-4.807862	bahsetti	-0.4771213
-4.983953	bahsettik	-0.30103
-4.983953	bahsettiler	-0.30103
-4.983953	bahsettiği	-0.30103
-4.983953	bahsettiğim	-0.30103
-4.807862	bahsettiğimi	-0.30103
-4.983953	bahsettiğimiz	-0.30103
-4.807862	bahsettiğini	-0.30103
-4.983953	bahsettiğinizi	-0.30103
-4.807862	baht	-0.30103
-4.983953	bahta	-0.30103
-4.586013	bahtiyar	-0.30103
-4.983953	bahtiyarım	-0.30103
-4.682923	bahtı	-0.30103
-4.983953	bahtına	-0.30103
-4.983953	bahçanın	-0.30103
-4.284983	bahçe	-0.3273589
-4.983953	bahçecikte	-0.30103
-4.506832	bahçede	-0.3521825
-4.807862	bahçedeki	-0.30103
-4.983953	bahçeden	-0.30103
-4.983953	bahçeleri	-0.30103
-4.983953	bahçene	-0.30103
-4.586013	bahçenin	-0.30103
-4.807862	bahçesi	-0.30103
-4.983953	bahçesinden	-0.30103
-4.807862	bahçesini	-0.30103
-4.439885	bahçeye	-0.30103
-4.682923	bahçeyi	-0.30103
-4.807862	bahçıvan	-0.30103
-4.983953	bahçıvanmış	-0.30103
-4.983953	bahşetmez	-0.30103
-4.983953	bahşiş	-0.30103
-3.108892	bak	-0.599883
-4.586013	bakabilir	-0.4771213
-4.807862	bakabilirim	-0.4771213
-4.983953	bakabilirsin	-0.30103
-4.682923	bakacak	-0.30103
-4.983953	bakacaklar	-0.30103
-4.983953	bakacağım	-0.30103
-4.983953	bakacağımı	-0.30103
-4.983953	bakacağın	-0.30103
-4.983953	bakacağını	-0.30103
-4.983953	bakacağız	-0.30103
-4.983953	bakakalmıştı	-0.30103
-4.983953	bakalum	-0.30103
-3.355564	bakalım	-0.6139592
-4.983953	bakamam	-0.30103
-4.983953	bakamayacağım	-0.30103
-3.87001	bakan	-0.3928004
-4.983953	bakanlara	-0.30103
-4.983953	bakanların	-0.30103
-4.983953	bakanı	-0.30103
-4.983953	bakanından	-0.30103
-4.054534	bakar	-0.4436975
-4.24359	bakarak	-0.30103
-4.807862	bakardı	-0.4771213
-4.807862	bakarken	-0.30103
-4.983953	bakarlar	-0.30103
-4.807862	bakarsan	-0.30103
-4.983953	bakarsanız	-0.30103
-4.983953	bakarsın	-0.30103
-4.439885	bakarım	-0.845098
-4.682923	bakarız	-0.60206
-3.94256	bakayım	-0.60206
-4.983953	bakir	-0.30103
-4.807862	bakire	-0.30103
-4.24359	bakkal	-0.30103
-4.983953	bakkalı	-0.30103
-4.682923	bakkalın	-0.30103
-4.983953	bakkalına	-0.30103
-4.983953	bakladan	-0.30103
-4.807862	baklava	-0.30103
-4.006229	bakma	-0.5118834
-4.682923	bakmadan	-0.30103
-4.983953	bakmadım	-0.30103
-4.983953	bakmadınız	-0.30103
-4.33074	bakmak	-0.30103
-4.682923	bakmakla	-0.30103
-4.807862	bakmakta	-0.30103
-4.807862	bakmaktan	-0.30103
-4.807862	bakmalı	-0.30103
-4.807862	bakmalıyım	-0.4771213
-4.983953	bakmamıştım	-0.30103
-4.983953	bakmanın	-0.30103
-4.983953	bakmasına	-0.30103
-4.983953	bakmasından	-0.30103
-4.080863	bakmaya	-0.4586379
-4.983953	bakmayacak	-0.30103
-4.983953	bakmayacağım	-0.30103
-4.807862	bakmayı	-0.30103
-4.586013	bakmayın	-0.3679768
-4.682923	bakmaz	-0.30103
-4.983953	bakmazmış	-0.30103
-4.983953	bakmazsan	-0.30103
-4.983953	bakmazsınız	-0.30103
-4.807862	bakmıyor	-0.30103
-4.983953	bakmıyordu	-0.30103
-4.983953	bakmıyordum	-0.30103
-4.983953	bakmıyorum	-0.30103
-4.284983	bakmış	-0.30103
-4.983953	bakmışsın	-0.30103
-4.983953	bakmıştı	-0.30103
-4.24359	baksana	-0.7781512
-4.682923	bakterileri	-0.60206
-3.521555	baktı	-0.7596678
-4.807862	baktık	-0.30103
-4.983953	baktıkça	-0.30103
-4.24359	baktılar	-0.5440681
-3.577413	baktım	-0.7781512
-4.682923	baktın	-0.30103
-4.983953	baktıracağım	-0.30103
-4.983953	baktırır	-0.30103
-4.807862	baktığı	-0.30103
-4.506832	baktığım	-0.544068
-4.983953	baktığımda	-0.30103
-4.807862	baktığımı	-0.30103
-4.983953	baktığımız	-0.30103
-4.983953	baktığını	-0.30103
-4.983953	baktığınız	-0.30103
-4.983953	bakıcı	-0.30103
-4.983953	bakılmaz	-0.30103
-4.807862	bakılır	-0.30103
-4.983953	bakılırsa	-0.30103
-4.682923	bakım	-0.30103
-4.983953	bakımda	-0.30103
-4.983953	bakımdan	-0.30103
-4.983953	bakımsız	-0.30103
-4.682923	bakımından	-0.30103
-3.603742	bakın	-0.5407903
-4.682923	bakınarak	-0.30103
-4.439885	bakınca	-0.30103
-4.138855	bakındı	-1.146128
-4.506832	bakındım	-0.544068
-4.807862	bakındın	-0.30103
-4.983953	bakınıyordu	-0.30103
-4.983953	bakınıyorlardı	-0.30103
-4.586013	bakınız	-0.30103
-4.33074	bakıp	-0.30103
-4.807862	bakır	-0.30103
-4.983953	bakıver	-0.30103
-4.983953	bakıyon	-0.30103
-4.284983	bakıyor	-0.447158
-3.94256	bakıyordu	-0.90309
-4.983953	bakıyorduk	-0.30103
-4.33074	bakıyordum	-0.69897
-4.586013	bakıyorlar	-0.30103
-4.33074	bakıyorlardı	-0.9542425
-4.284983	bakıyorsun	-0.7403626
-4.586013	bakıyorsunuz	-0.4771213
-4.381893	bakıyorum	-0.90309
-4.682923	bakış	-0.30103
-4.807862	bakışla	-0.30103
-4.983953	bakışlar	-0.30103
-4.807862	bakışlarda	-0.30103
-4.682923	bakışlarla	-0.30103
-4.586013	bakışları	-0.30103
-4.807862	bakışlarımız	-0.30103
-4.983953	bakışlarına	-0.30103
-4.807862	bakışlarında	-0.30103
-4.586013	bakışlarını	-0.30103
-4.983953	bakışlarınız	-0.30103
-4.983953	bakışlı	-0.30103
-4.682923	bakışta	-0.30103
-4.807862	bakıştık	-0.4771213
-4.586013	bakıştılar	-0.69897
-4.506832	bakışı	-0.30103
-4.983953	bakışından	-0.30103
-4.983953	bakışının	-0.30103
-4.807862	bakışıp	-0.30103
-4.983953	bakışırken	-0.30103
-4.983953	bakışıyor	-0.30103
-3.962764	bal	-0.312311
-4.983953	balayı	-0.30103
-4.983953	balcı	-0.30103
-4.983953	balcının	-0.30103
-4.586013	baldan	-0.3679768
-4.983953	baldırlarına	-0.30103
-4.983953	baldızım	-0.30103
-4.983953	baldızımın	-0.30103
-4.983953	balkan	-0.30103
-4.983953	balkanlarda	-0.30103
-4.983953	balkondan	-0.30103
-4.807862	balmumu	-0.30103
-4.807862	balo	-0.30103
-4.983953	balon	-0.30103
-4.983953	balonu	-0.30103
-4.983953	baloya	-0.30103
-4.439885	balta	-0.3424227
-4.983953	baltacı	-0.30103
-4.983953	baltacıların	-0.30103
-4.983953	baltalar	-0.30103
-4.983953	baltalıklarına	-0.30103
-4.983953	baltalıyor	-0.30103
-4.983953	baltanın	-0.30103
-4.983953	baltası	-0.30103
-4.983953	baltayla	-0.30103
-4.983953	balçıkla	-0.30103
-4.983953	balçıklaşan	-0.30103
-4.586013	balı	-0.30103
-4.284983	balık	-0.3273589
-4.682923	balıkesir	-0.30103
-4.983953	balıkesirden	-0.30103
-4.983953	balıkesire	-0.30103
-4.807862	balıklar	-0.30103
-4.983953	balıkpazarı	-0.30103
-4.983953	balıkçılıktır	-0.30103
-4.983953	balıkçının	-0.30103
-4.983953	balım	-0.30103
-4.983953	balın	-0.30103
-4.983953	balığa	-0.30103
-4.682923	balığı	-0.30103
-4.983953	balığın	-0.30103
-4.983953	bam	-0.30103
-4.983953	bambaşka	-0.30103
-4.983953	ban	-0.30103
-2.625067	bana	-0.453121
-4.983953	bangonot	-0.30103
-4.983953	bangonottan	-0.30103
-4.807862	banka	-0.30103
-4.807862	bankada	-0.30103
-4.983953	bankadan	-0.30103
-4.983953	bankalar	-0.30103
-4.983953	bankalardan	-0.30103
-4.983953	bankası	-0.30103
-4.983953	banker	-0.30103
-4.983953	banknottu	-0.30103
-4.983953	banknotun	-0.30103
-4.983953	banliyö	-0.30103
-4.983953	banyo	-0.30103
-4.807862	bar	-0.30103
-4.807862	bara	-0.30103
-4.983953	barda	-0.30103
-4.284983	bardak	-0.30103
-4.983953	bardaklarıyla	-0.30103
-4.983953	bardan	-0.30103
-4.983953	bardağı	-0.30103
-4.983953	bardağın	-0.30103
-4.33074	bari	-0.5642715
-4.983953	barlardan	-0.30103
-4.983953	barların	-0.30103
-4.983953	barmen	-0.30103
-4.983953	barsak	-0.30103
-4.983953	barsakderesi	-0.30103
-4.983953	barselona’ya	-0.30103
-4.586013	barut	-0.3679768
-4.586013	baryum	-0.69897
-4.983953	baryumlu	-0.30103
-4.807862	barın	-0.30103
-4.983953	barındırmaz	-0.30103
-4.983953	barındırır	-0.30103
-4.983953	barındırıyor	-0.30103
-4.983953	barındırıyordu	-0.30103
-4.983953	barının	-0.30103
-4.983953	barış	-0.30103
-4.983953	barışmamıştı	-0.30103
-4.682923	barıştık	-0.30103
-4.983953	barışçıl	-0.30103
-4.439885	bas	-0.3424227
-4.983953	basa	-0.30103
-4.983953	basabileceği	-0.30103
-4.983953	basamak	-0.30103
-4.983953	basamaklarına	-0.30103
-4.983953	basamayacak	-0.30103
-4.807862	basamağa	-0.4771213
-4.983953	basanındır	-0.30103
-4.807862	basarlar	-0.4771213
-4.983953	basarım	-0.30103
-4.983953	basbayağı	-0.30103
-4.983953	basescu	-0.30103
-4.983953	basiretin	-0.30103
-4.054534	basit	-0.3899711
-4.983953	basitlik	-0.30103
-4.983953	basitliği	-0.30103
-4.983953	basitti	-0.30103
-4.983953	baskça’da	-0.30103
-4.807862	baskı	-0.30103
-4.983953	baskıdaki	-0.30103
-4.983953	baskın	-0.30103
-4.983953	baskında	-0.30103
-4.807862	baskısız	-0.30103
-4.807862	basma	-0.30103
-4.983953	basması	-0.30103
-4.983953	basmaz	-0.30103
-4.983953	bassa	-0.30103
-4.983953	baston	-0.30103
-4.983953	bastonuna	-0.30103
-4.983953	bastonunu	-0.30103
-4.807862	bastı	-0.30103
-4.807862	bastım	-0.30103
-4.983953	bastıran	-0.30103
-4.983953	bastırarak	-0.30103
-4.807862	bastırdı	-0.4771213
-4.983953	bastırdığı	-0.30103
-4.983953	bastırmak	-0.30103
-4.983953	bastırıp	-0.30103
-4.506832	bastırır	-0.4259687
-4.983953	bastırıveriyor	-0.30103
-4.682923	bastırıyor	-0.30103
-4.586013	bastığı	-0.30103
-4.807862	bastığın	-0.30103
-4.439885	bası	-0.845098
-4.807862	basık	-0.30103
-4.983953	basıl	-0.30103
-4.983953	basılacak	-0.30103
-4.983953	basıldı	-0.30103
-4.983953	basılmaz	-0.30103
-4.983953	basılıp	-0.30103
-4.807862	basın	-0.30103
-4.807862	basınca	-0.30103
-4.983953	basıncı	-0.30103
-4.983953	basınç	-0.30103
-4.983953	basıp	-0.30103
-4.983953	basıyor	-0.30103
-4.983953	basıyordu	-0.30103
-4.983953	basıyordum	-0.30103
-4.586013	bası 	-0.69897
-4.983953	bata	-0.30103
-4.983953	bataklık	-0.30103
-4.983953	bataklıklar	-0.30103
-4.807862	batar	-0.4771213
-4.983953	batarak	-0.30103
-4.983953	batarsın	-0.30103
-4.983953	batmak	-0.30103
-4.682923	batman	-0.30103
-4.807862	batmaz	-0.4771213
-4.807862	batmış	-0.30103
-4.983953	batmışlardı	-0.30103
-4.807862	battaniye	-0.30103
-4.983953	battı	-0.30103
-4.983953	battığını	-0.30103
-4.506832	batı	-0.30103
-4.205802	batın	-0.50515
-4.682923	batında	-0.60206
-4.807862	batır	-0.4771213
-4.983953	batırdın	-0.30103
-4.983953	batırır	-0.30103
-4.983953	batıya	-0.30103
-4.983953	bavulları	-0.30103
-4.983953	bavullarımı	-0.30103
-4.983953	bavulumu	-0.30103
-4.807862	bavulunu	-0.30103
-4.682923	bay	-0.30103
-4.029711	bayan	-0.6434527
-4.284983	bayanlar	-0.5118834
-4.983953	bayanı	-0.30103
-4.983953	bayatlama	-0.30103
-4.682923	bayağı	-0.30103
-4.983953	baybay	-0.30103
-4.586013	baygın	-0.30103
-4.983953	baygınlık	-0.30103
-4.983953	baygınlığa	-0.30103
-4.983953	baygınmış	-0.30103
-4.983953	baykuşun	-0.30103
-4.381893	baylar	-0.5228787
-4.983953	baylığı	-0.30103
-4.682923	bayrak	-0.30103
-4.138855	bayram	-0.3617278
-4.586013	bayramda	-0.30103
-4.983953	bayramdan	-0.30103
-4.807862	bayrami	-0.30103
-4.983953	bayrağın	-0.30103
-4.983953	baytar	-0.30103
-4.807862	bayılacak	-0.30103
-4.682923	bayılacaksın	-0.60206
-4.983953	bayılacaksınız	-0.30103
-4.807862	bayıldı	-0.4771213
-4.983953	bayıldıkları	-0.30103
-4.983953	bayıldım	-0.30103
-4.983953	bayıldın	-0.30103
-4.807862	bayılmaya	-0.30103
-4.983953	bayılmış	-0.30103
-4.983953	bayılmıştı	-0.30103
-4.983953	bayılmışım	-0.30103
-4.807862	bayılırım	-0.4771213
-4.983953	bayılıyor	-0.30103
-4.381893	bayım	-0.90309
-4.983953	bayındırdan	-0.30103
-4.983953	bayır	-0.30103
-4.983953	bayıra	-0.30103
-4.682923	bayırda	-0.30103
-4.983953	bayırdan	-0.30103
-4.807862	bayırın	-0.30103
-4.983953	baz	-0.30103
-4.439885	bazal	-0.60206
-4.983953	bazali	-0.30103
-3.904772	bazan	-0.3107899
-4.33074	bazen	-0.3309932
-4.983953	bazla	-0.30103
-4.807862	bazlama	-0.30103
-3.793622	bazı	-0.308454
-4.586013	bazıları	-0.30103
-4.983953	bazılarında	-0.30103
-4.983953	bazılarının	-0.30103
-4.205802	bağ	-0.3222193
-4.586013	bağa	-0.30103
-4.983953	bağdan	-0.30103
-4.682923	bağdat	-0.39794
-4.983953	bağdata	-0.30103
-4.682923	bağdattan	-0.39794
-4.983953	bağdatı	-0.30103
-4.682923	bağdaş	-0.39794
-4.24359	bağla	-0.3245111
-4.807862	bağladı	-0.4771213
-4.983953	bağladılar	-0.30103
-4.983953	bağladığım	-0.30103
-4.983953	bağladığımız	-0.30103
-4.983953	bağlamakta	-0.30103
-4.983953	bağlamaktır	-0.30103
-4.983953	bağlamaya	-0.30103
-4.983953	bağlamaz	-0.30103
-4.983953	bağlamında	-0.30103
-4.983953	bağlamışlar	-0.30103
-4.983953	bağlamışlardı	-0.30103
-4.682923	bağlamıştı	-0.60206
-4.983953	bağlandı	-0.30103
-4.983953	bağlanmayan	-0.30103
-4.983953	bağlanmayı	-0.30103
-4.983953	bağlanmaz	-0.30103
-4.983953	bağlanmış	-0.30103
-4.983953	bağlantı	-0.30103
-4.983953	bağlantılarının	-0.30103
-4.983953	bağlantılı	-0.30103
-4.983953	bağlantının	-0.30103
-4.807862	bağlanıyor	-0.4771213
-4.682923	bağlar	-0.30103
-4.983953	bağlarda	-0.30103
-4.983953	bağlayalım	-0.30103
-4.983953	bağlayamıyor	-0.30103
-4.682923	bağlayan	-0.30103
-4.983953	bağlayanın	-0.30103
-4.983953	bağlayın	-0.30103
-4.983953	bağlayıp	-0.30103
-4.080863	bağlı	-0.4259687
-4.983953	bağlıdır	-0.30103
-4.983953	bağlılığı	-0.30103
-4.983953	bağlıydı	-0.30103
-4.983953	bağlıydım	-0.30103
-4.983953	bağlıyordu	-0.30103
-4.682923	bağrı	-0.30103
-4.983953	bağrıma	-0.30103
-4.983953	bağrından	-0.30103
-4.983953	bağrışarak	-0.30103
-4.983953	bağrıştığı	-0.30103
-4.983953	bağrışıyordu	-0.30103
-4.983953	bağı	-0.30103
-4.983953	bağım	-0.30103
-4.807862	bağımsız	-0.30103
-4.983953	bağın	-0.30103
-4.983953	bağını	-0.30103
-4.983953	bağır	-0.30103
-4.807862	bağıra	-0.30103
-4.983953	bağıracak	-0.30103
-4.983953	bağıracaktı	-0.30103
-4.682923	bağıran	-0.30103
-4.506832	bağırarak	-0.30103
-3.807862	bağırdı	-0.5910646
-4.983953	bağırdık	-0.30103
-4.983953	bağırdıkça	-0.30103
-4.586013	bağırdılar	-0.69897
-4.682923	bağırdım	-0.39794
-4.807862	bağırdığım	-0.4771213
-4.983953	bağırdığını	-0.30103
-4.983953	bağırgan	-0.30103
-4.983953	bağırlarını	-0.30103
-4.983953	bağırmadı	-0.30103
-4.807862	bağırmak	-0.30103
-4.506832	bağırmaya	-0.544068
-4.807862	bağırmayı	-0.30103
-4.983953	bağırmayın	-0.30103
-4.983953	bağırmaz	-0.30103
-4.983953	bağırmazsa	-0.30103
-4.983953	bağırmıyor	-0.30103
-4.682923	bağırmış	-0.60206
-4.983953	bağırsa	-0.30103
-4.983953	bağırsak	-0.30103
-4.983953	bağırsana	-0.30103
-4.983953	bağırınca	-0.30103
-4.983953	bağırıp	-0.30103
-4.682923	bağırır	-0.30103
-4.983953	bağırırdı	-0.30103
-4.983953	bağırırken	-0.30103
-4.983953	bağırırmış	-0.30103
-4.381893	bağırıyordu	-0.6532125
-4.506832	bağırıyorsun	-0.544068
-4.807862	bağırışları	-0.30103
-4.983953	bağış	-0.30103
-4.807862	bağışla	-0.30103
-4.983953	bağışladım	-0.30103
-4.983953	bağışlamış	-0.30103
-4.983953	bağışlanacak	-0.30103
-4.983953	bağışlar	-0.30103
-4.983953	bağışlasın	-0.30103
-4.682923	bağışlayın	-0.60206
-4.983953	bağışlayınız	-0.30103
-3.536795	baş	-0.3415635
-3.904772	başa	-0.3107899
-4.682923	başak	-0.30103
-4.983953	başarabildiniz	-0.30103
-4.983953	başarabilirim	-0.30103
-4.983953	başarabiliriz	-0.30103
-4.983953	başarabilirsin	-0.30103
-4.983953	başaracaksın	-0.30103
-4.983953	başaracağım	-0.30103
-4.983953	başaracağını	-0.30103
-4.983953	başaracağız	-0.30103
-4.983953	başaramayacağız	-0.30103
-4.983953	başaramayız	-0.30103
-4.983953	başaramazsam	-0.30103
-4.983953	başardı	-0.30103
-4.439885	başardık	-0.60206
-4.983953	başardılar	-0.30103
-4.807862	başardım	-0.4771213
-4.586013	başardın	-0.69897
-4.983953	başarmadaki	-0.30103
-4.983953	başarmış	-0.30103
-4.983953	başarmıştı	-0.30103
-4.983953	başarılar	-0.30103
-4.682923	başarılı	-0.39794
-4.983953	başarılıydı	-0.30103
-4.983953	başarının	-0.30103
-4.983953	başarır	-0.30103
-4.983953	başarısı	-0.30103
-4.983953	başarısından	-0.30103
-4.983953	başarısız	-0.30103
-4.983953	başarısızlık	-0.30103
-4.983953	başarısızlıklar	-0.30103
-4.983953	başarıyorsun	-0.30103
-4.983953	başasistana	-0.30103
-4.983953	başbakan	-0.30103
-4.983953	başbakanı	-0.30103
-4.983953	başcağızını	-0.30103
-4.983953	başgardiyanın	-0.30103
-4.807862	başhekim	-0.30103
-4.983953	başhekime	-0.30103
-4.983953	başhekimle	-0.30103
-2.964837	başka	-0.5563025
-4.983953	başkaca	-0.30103
-4.807862	başkaları	-0.4771212
-4.807862	başkalarına	-0.30103
-4.983953	başkalarında	-0.30103
-4.983953	başkalarından	-0.30103
-4.983953	başkalarının	-0.30103
-4.586013	başkan	-0.4771213
-4.983953	başkanlığını	-0.30103
-4.807862	başkanı	-0.30103
-4.983953	başkanım	-0.30103
-4.506832	başkası	-0.30103
-4.807862	başkasına	-0.30103
-4.983953	başkasını	-0.30103
-4.983953	başkasının	-0.30103
-4.983953	başkatip	-0.30103
-4.807862	başkaydı	-0.4771213
-4.807862	başkent	-0.30103
-4.983953	başkentinswki	-0.30103
-4.506832	başla	-0.7781512
-3.209436	başladı	-1.10721
-4.080863	başladık	-0.7781512
-4.983953	başladıkları	-0.30103
-4.029711	başladılar	-0.7201594
-3.705199	başladım	-0.9242793
-4.807862	başladın	-0.4771213
-4.807862	başladınız	-0.30103
-4.506832	başladığı	-0.30103
-4.983953	başladığım	-0.30103
-4.983953	başladığımı	-0.30103
-4.983953	başladığımız	-0.30103
-4.983953	başladığın	-0.30103
-4.682923	başladığını	-0.30103
-4.506832	başlama	-0.4259687
-4.983953	başlamadım	-0.30103
-4.586013	başlamak	-0.3679768
-4.983953	başlaması	-0.30103
-4.983953	başlamaz	-0.30103
-4.439885	başlamış	-0.39794
-4.682923	başlamışlar	-0.60206
-4.586013	başlamışlardı	-0.69897
-4.983953	başlamışsındır	-0.30103
-3.651515	başlamıştı	-0.90309
-4.586013	başlamıştım	-0.69897
-4.807862	başlamıştır	-0.4771213
-4.807862	başlandı	-0.30103
-4.983953	başlangıcı	-0.30103
-4.807862	başlangıcında	-0.4771213
-4.983953	başlangıcından	-0.30103
-4.983953	başlangıcıydı	-0.30103
-4.586013	başlangıç	-0.4771213
-4.807862	başlangıçta	-0.30103
-4.807862	başlanması	-0.4771212
-4.439885	başlar	-0.39794
-4.983953	başlarım	-0.30103
-4.983953	başların	-0.30103
-4.682923	başlarına	-0.30103
-4.506832	başlarında	-0.3521825
-4.983953	başlarından	-0.30103
-4.506832	başlarını	-0.30103
-4.983953	başlarıydı	-0.30103
-4.983953	başlasak	-0.30103
-4.983953	başlat	-0.30103
-4.983953	başlatmadım	-0.30103
-4.807862	başlattı	-0.4771213
-4.983953	başlattın	-0.30103
-4.983953	başlattıysa	-0.30103
-4.983953	başlatıldı	-0.30103
-4.807862	başlayabilir	-0.4771212
-4.983953	başlayabiliriz	-0.30103
-4.983953	başlayabilirsiniz	-0.30103
-4.682923	başlayacak	-0.60206
-4.682923	başlayacaktı	-0.60206
-4.983953	başlayacaktım	-0.30103
-4.24359	başlayalım	-0.6368221
-4.506832	başlayan	-0.30103
-4.983953	başlayarak	-0.30103
-4.807862	başlayın	-0.4771213
-4.807862	başlayınca	-0.30103
-4.983953	başlayıncaya	-0.30103
-4.807862	başlı	-0.30103
-4.807862	başlıca	-0.30103
-4.983953	başlıklı	-0.30103
-4.983953	başlısı	-0.30103
-4.24359	başlıyor	-0.7781512
-4.506832	başlıyordu	-0.7781512
-4.983953	başlıyorduk	-0.30103
-4.506832	başlıyorum	-0.7781512
-4.138855	başlıyoruz	-1.146128
-4.983953	başmabeyinci	-0.30103
-4.983953	başmakçıdır	-0.30103
-4.983953	başrol	-0.30103
-4.983953	başsız	-0.30103
-4.682923	başta	-0.30103
-4.983953	baştadır	-0.30103
-4.807862	baştaki	-0.30103
-4.080863	baştan	-0.3521825
-4.983953	baştaydı	-0.30103
-4.983953	başucumda	-0.30103
-4.983953	başucumdaki	-0.30103
-4.807862	başucuna	-0.30103
-4.807862	başucunda	-0.30103
-4.983953	başvur	-0.30103
-4.983953	başvurarak	-0.30103
-4.983953	başvurdu	-0.30103
-4.983953	başvurmak	-0.30103
-4.983953	başvuru	-0.30103
-4.682923	başvurusuna	-0.60206
-4.682923	başvurusunda	-0.39794
-4.983953	başvuruyordu	-0.30103
-4.983953	başyapıtı	-0.30103
-4.983953	başçı	-0.30103
-4.983953	başüstüne	-0.30103
-3.705199	başı	-0.3197794
-4.983953	başıboş	-0.30103
-4.983953	başıdır	-0.30103
-4.138855	başım	-0.3617278
-4.054534	başıma	-0.3152704
-4.983953	başımayım	-0.30103
-4.682923	başımda	-0.30103
-4.33074	başımdan	-0.4771213
-4.807862	başımla	-0.30103
-3.887043	başımı	-0.3424227
-4.682923	başımın	-0.30103
-4.807862	başımız	-0.30103
-4.439885	başımıza	-0.3424227
-4.983953	başımızayız	-0.30103
-4.983953	başımızdan	-0.30103
-4.983953	başımızı	-0.30103
-4.138855	başın	-0.30103
-3.465439	başına	-0.3617279
-4.682923	başınasın	-0.60206
-4.983953	başınaydı	-0.30103
-3.853619	başında	-0.3388186
-4.439885	başındaki	-0.30103
-4.029711	başından	-0.3452336
-3.276383	başını	-0.3738064
-4.33074	başının	-0.3309932
-4.807862	başınız	-0.30103
-4.682923	başınıza	-0.30103
-4.983953	başınızı	-0.30103
-4.381893	başıyla	-0.3357921
-4.983953	başşehri	-0.30103
-3.536795	be	-0.6927211
-4.284983	bebek	-0.5118834
-4.983953	bebekleri	-0.30103
-4.983953	bebeklerim	-0.30103
-4.983953	bebeler	-0.30103
-4.807862	bebeği	-0.30103
-3.793622	bebeğim	-0.845098
-4.983953	bebeğimiz	-0.30103
-4.807862	becerdin	-0.30103
-4.983953	becerebileceği	-0.30103
-4.983953	becerecekti	-0.30103
-4.983953	beceremezsiniz	-0.30103
-4.983953	beceremiyordum	-0.30103
-4.983953	beceremiyorsunuz	-0.30103
-4.983953	beceremiyorum	-0.30103
-4.983953	becerikli	-0.30103
-4.983953	beceriyor	-0.30103
-4.983953	beceriyorsun	-0.30103
-4.983953	bedasıl	-0.30103
-4.586013	bedava	-0.3679768
-4.983953	beddua	-0.30103
-4.807862	bedel	-0.30103
-4.983953	bedeldir	-0.30103
-4.682923	bedeli	-0.30103
-4.983953	bedelinin	-0.30103
-4.983953	bedenimden	-0.30103
-4.983953	bedeninden	-0.30103
-4.983953	bedestende	-0.30103
-4.983953	bedir	-0.30103
-4.24359	bedri	-0.30103
-4.983953	bedrinin	-0.30103
-4.983953	bedri’den	-0.30103
-4.439885	bedri’nin	-0.30103
-4.682923	bedri’ye	-0.30103
-4.807862	bedri’yi	-0.30103
-4.983953	beee	-0.30103
-4.983953	bekaj	-0.30103
-4.807862	bekar	-0.30103
-4.983953	bekardır	-0.30103
-4.807862	bekarlık	-0.30103
-4.807862	bekarın	-0.30103
-4.17104	bekir	-0.30103
-4.983953	bekirceğiz	-0.30103
-4.983953	bekiri	-0.30103
-4.983953	bekirin	-0.30103
-3.728681	bekle	-0.6532125
-4.080863	bekledi	-0.7781512
-4.586013	bekledik	-0.69897
-4.983953	bekledikleri	-0.30103
-4.506832	bekledikten	-0.7781513
-4.807862	beklediler	-0.4771213
-4.108892	bekledim	-0.7533277
-4.983953	bekledin	-0.30103
-4.682923	beklediniz	-0.39794
-4.983953	beklediği	-0.30103
-4.506832	beklediğim	-0.30103
-4.983953	beklediğimi	-0.30103
-4.682923	beklediğini	-0.30103
-4.983953	beklediğiniz	-0.30103
-4.586013	bekleme	-0.3679768
-4.807862	beklemede	-0.30103
-4.586013	beklemeden	-0.30103
-4.983953	beklemedi	-0.30103
-4.807862	beklemediği	-0.4771213
-4.807862	beklemediğim	-0.30103
-4.807862	beklemediğimiz	-0.30103
-4.439885	beklemek	-0.3424227
-4.983953	beklemekte	-0.30103
-4.983953	beklemelerini	-0.30103
-4.983953	beklemeli	-0.30103
-4.983953	beklemenin	-0.30103
-4.983953	beklemesinde	-0.30103
-4.381893	beklemeye	-0.5228787
-4.983953	beklemeyeceğiz	-0.30103
-4.983953	beklemeyi	-0.30103
-4.983953	beklemez	-0.30103
-4.983953	beklemiyordular	-0.30103
-4.682923	beklemiyordum	-0.60206
-4.983953	beklemiyorum	-0.30103
-4.807862	beklemişti	-0.4771213
-4.983953	beklemiştim	-0.30103
-4.983953	beklenilenden	-0.30103
-4.983953	beklenir	-0.30103
-4.205802	bekleniyor	-1.079181
-4.682923	beklenmedik	-0.60206
-4.807862	beklenmeyen	-0.4771213
-4.983953	beklenmiyor	-0.30103
-4.284983	bekler	-0.39794
-4.807862	beklerdi	-0.4771213
-4.586013	beklerim	-0.4771213
-4.983953	bekleriz	-0.30103
-4.807862	beklerken	-0.30103
-4.807862	beklerler	-0.30103
-4.807862	beklersin	-0.30103
-4.983953	beklersiniz	-0.30103
-4.983953	beklesinler	-0.30103
-4.983953	bekletme	-0.30103
-4.983953	bekletmeden	-0.30103
-4.983953	bekletti	-0.30103
-4.807862	beklettiğim	-0.4771213
-4.682923	bekleyebilir	-0.39794
-4.682923	bekleyecek	-0.30103
-4.983953	bekleyeceksiniz	-0.30103
-4.33074	bekleyeceğim	-0.9542425
-4.807862	bekleyeceğiz	-0.4771213
-4.983953	bekleyemedim	-0.30103
-4.807862	bekleyemem	-0.4771213
-4.983953	bekleyemeyecekti	-0.30103
-4.983953	bekleyemeyeceğim	-0.30103
-4.983953	bekleyemeyeceğini	-0.30103
-4.983953	bekleyemez	-0.30103
-4.983953	bekleyemiyorum	-0.30103
-4.205802	bekleyen	-0.30103
-4.983953	bekleyenlerin	-0.30103
-4.807862	bekleyerek	-0.30103
-4.983953	bekleyeyim	-0.30103
-4.108892	bekleyin	-0.6532125
-4.983953	bekleyip	-0.30103
-4.983953	bekleyiş	-0.30103
-4.983953	bekleşen	-0.30103
-4.983953	bekleşmeye	-0.30103
-4.983953	bekleştiler	-0.30103
-4.029711	bekliyor	-0.5835766
-4.33074	bekliyordu	-0.9542425
-4.807862	bekliyorduk	-0.4771213
-4.33074	bekliyordum	-0.9542425
-4.586013	bekliyordun	-0.4771213
-4.983953	bekliyordunuz	-0.30103
-4.439885	bekliyorlar	-0.39794
-4.586013	bekliyorlardı	-0.69897
-4.807862	bekliyormuş	-0.30103
-4.381893	bekliyorsun	-0.5228788
-4.807862	bekliyorsunuz	-0.4771213
-4.381893	bekliyorum	-0.90309
-4.586013	bekliyoruz	-0.69897
-4.983953	bekman	-0.30103
-4.983953	bektaşinin	-0.30103
-4.983953	bekâr	-0.30103
-4.983953	bekâra	-0.30103
-4.983953	bekârdı	-0.30103
-4.983953	bekârlardan	-0.30103
-4.983953	bekçi	-0.30103
-4.586013	bel	-0.30103
-4.682923	bela	-0.39794
-4.807862	belada	-0.30103
-4.983953	beladan	-0.30103
-4.983953	belagat	-0.30103
-4.983953	belanı	-0.30103
-4.807862	belası	-0.4771213
-4.586013	belasını	-0.3679768
-4.983953	belasısın	-0.30103
-4.506832	belediye	-0.3521825
-4.983953	belediyedir	-0.30103
-4.983953	belediyesince	-0.30103
-4.983953	belerivermiş	-0.30103
-4.807862	beleş	-0.30103
-4.807862	belgeli	-0.4771213
-4.983953	belgesi	-0.30103
-4.682923	belgrad	-0.30103
-4.983953	belgrada	-0.30103
-4.983953	belgradlılar	-0.30103
-4.983953	belgradın	-0.30103
-4.682923	beli	-0.30103
-4.983953	belim	-0.30103
-4.983953	belime	-0.30103
-4.983953	belinde	-0.30103
-4.807862	belinden	-0.30103
-4.682923	beline	-0.30103
-4.983953	belini	-0.30103
-4.586013	belirdi	-0.69897
-4.983953	beliren	-0.30103
-3.887043	belirgin	-0.5026754
-4.983953	belirginleşme	-0.30103
-4.983953	belirginleşmesi	-0.30103
-4.983953	belirginleşmeye	-0.30103
-4.983953	belirip	-0.30103
-4.983953	belirlemek	-0.30103
-4.983953	belirlendi	-0.30103
-4.983953	belirlenebilir	-0.30103
-4.983953	belirlenen	-0.30103
-4.983953	belirlenmiş	-0.30103
-4.983953	belirleyici	-0.30103
-4.983953	belirli	-0.30103
-4.983953	belirmişti	-0.30103
-4.586013	belirsiz	-0.30103
-4.586013	belirtildi	-0.69897
-4.983953	belirtilenler	-0.30103
-4.439885	belirtilerek	-0.39794
-4.983953	belirtiliyor	-0.30103
-4.586013	belirtiyor	-0.4771212
-4.807862	belirtti	-0.4771213
-4.983953	belirttiği	-0.30103
-3.235765	belki	-0.4501986
-4.983953	belledim	-0.30103
-3.552589	belli	-0.5062795
-4.682923	bellidir	-0.60206
-4.983953	bellisiz	-0.30103
-4.439885	belliydi	-0.845098
-4.983953	belvedere	-0.30103
-4.983953	belyayev	-0.30103
-4.983953	belâsını	-0.30103
-4.983953	belçika	-0.30103
-4.807862	bembeyaz	-0.30103
-2.385163	ben	-0.4782194
-3.822585	bence	-0.3357921
-4.983953	bencilsin	-0.30103
-3.682923	bende	-0.4191293
-4.983953	bendeki	-0.30103
-3.446134	benden	-0.4057654
-4.983953	bendendir	-0.30103
-4.983953	bendeniz	-0.30103
-4.983953	bendenize	-0.30103
-4.807862	bendim	-0.30103
-4.983953	benedikt	-0.30103
-2.641531	beni	-0.4021419
-2.813691	benim	-0.4370041
-4.983953	benimdi	-0.30103
-4.586013	benimki	-0.30103
-4.983953	benimkilerin	-0.30103
-4.807862	benimkini	-0.30103
-3.427651	benimle	-0.3943057
-4.807862	benimlesin	-0.4771213
-4.807862	benizli	-0.30103
-4.983953	benle	-0.30103
-4.983953	benlik	-0.30103
-4.506832	bensiz	-0.30103
-4.983953	benzemektedir	-0.30103
-4.983953	benzemeye	-0.30103
-4.682923	benzemeyen	-0.30103
-4.983953	benzemeyenlere	-0.30103
-4.682923	benzemez	-0.60206
-4.682923	benzemiyor	-0.60206
-4.506832	benzemiyordu	-0.7781512
-4.983953	benzemiyorlardı	-0.30103
-4.080863	benzer	-0.39794
-4.983953	benzerdi	-0.30103
-4.807862	benzeri	-0.30103
-4.983953	benzetir	-0.30103
-4.983953	benzetiyordu	-0.30103
-4.983953	benzetti	-0.30103
-4.983953	benzettiğinizi	-0.30103
-4.586013	benzeye	-0.3679768
-4.983953	benzeyeceklerini	-0.30103
-3.962764	benzeyen	-0.4045706
-4.983953	benzeyerek	-0.30103
-4.33074	benzi	-0.3309932
-4.983953	benzimde	-0.30103
-4.682923	benzin	-0.30103
-4.983953	benzinimiz	-0.30103
-4.983953	benzinin	-0.30103
-4.33074	benziyor	-0.69897
-4.080863	benziyordu	-0.60206
-4.983953	benziyorlar	-0.30103
-4.983953	benziyorlardı	-0.30103
-4.983953	benziyorsunuz	-0.30103
-4.983953	benziyorum	-0.30103
-4.983953	benziyoruz	-0.30103
-4.983953	beraat	-0.30103
-3.392889	beraber	-0.3222193
-4.586013	beraberce	-0.30103
-4.807862	beraberdi	-0.4771213
-4.807862	beraberdiler	-0.4771213
-4.983953	beraberinde	-0.30103
-4.682923	beraberlik	-0.30103
-4.983953	berabermiş	-0.30103
-4.054534	berbat	-0.4436975
-4.983953	berbatsın	-0.30103
-4.983953	berbattı	-0.30103
-4.24359	berber	-0.3245111
-4.682923	berbere	-0.39794
-4.983953	berberin	-0.30103
-4.983953	berbermiş	-0.30103
-4.983953	bere	-0.30103
-4.983953	beredir	-0.30103
-4.586013	bereket	-0.3679768
-4.983953	bereketli	-0.30103
-4.983953	berekettir	-0.30103
-4.983953	beresini	-0.30103
-3.376498	beri	-0.318289
-4.506832	beria	-0.3521825
-4.807862	beriayı	-0.30103
-4.983953	beria’nın	-0.30103
-4.983953	beriki	-0.30103
-4.983953	berişa	-0.30103
-4.682923	berk	-0.30103
-4.807862	berlin	-0.30103
-4.682923	berlinde	-0.30103
-4.983953	berlinden	-0.30103
-4.807862	berline	-0.30103
-4.807862	berlinin	-0.30103
-4.983953	bermutat	-0.30103
-4.983953	berrak	-0.30103
-4.983953	besarabyalı	-0.30103
-4.983953	besbelli	-0.30103
-4.807862	besbelliydi	-0.4771213
-4.983953	besle	-0.30103
-4.983953	besledik	-0.30103
-4.983953	beslemeden	-0.30103
-4.586013	beslemek	-0.30103
-4.983953	beslemekten	-0.30103
-4.682923	beslemez	-0.60206
-4.807862	beslenir	-0.4771213
-4.983953	beslenirken	-0.30103
-4.506832	besler	-0.3521825
-4.983953	besmeleli	-0.30103
-4.506832	beter	-0.3521825
-4.983953	beterdi	-0.30103
-4.586013	beterdir	-0.69897
-4.983953	betli	-0.30103
-4.807862	beton	-0.30103
-4.983953	bevliye	-0.30103
-3.47207	bey	-0.4149733
-4.983953	beyan	-0.30103
-3.56898	beyaz	-0.3396594
-4.983953	beyaza	-0.30103
-4.682923	beyazdı	-0.39794
-4.983953	beyazdır	-0.30103
-4.983953	beyazlanmıştı	-0.30103
-4.983953	beyazlığı	-0.30103
-4.983953	beyazın	-0.30103
-4.983953	beyazıt	-0.30103
-4.807862	beyazıt’a	-0.30103
-4.506832	beybaba	-0.30103
-4.983953	beybabanın	-0.30103
-4.983953	beyde	-0.30103
-4.807862	beyden	-0.30103
-4.983953	beydendi	-0.30103
-4.983953	beydi	-0.30103
-4.381893	beyefendi	-0.3802113
-4.983953	beyefendisiyle	-0.30103
-4.983953	beygir	-0.30103
-4.983953	beyhude	-0.30103
-4.807862	beyi	-0.30103
-4.054534	beyim	-0.4771212
-3.904772	beyin	-0.4423592
-4.983953	beyinsiz	-0.30103
-4.682923	beyle	-0.30103
-3.904772	beyler	-0.6842467
-4.807862	beylerin	-0.30103
-4.586013	beylik	-0.30103
-4.983953	beylikten	-0.30103
-4.983953	beyliktir	-0.30103
-4.983953	beyliği	-0.30103
-4.682923	beyni	-0.30103
-4.983953	beynime	-0.30103
-4.983953	beynimi	-0.30103
-4.983953	beynin	-0.30103
-4.983953	beyobasını	-0.30103
-4.983953	beyoğlunda	-0.30103
-4.983953	beysin	-0.30103
-4.807862	beyşehir	-0.30103
-4.983953	beyşehirden	-0.30103
-4.205802	bez	-0.3756636
-4.983953	bezeden	-0.30103
-3.962764	bezi	-0.4771213
-4.983953	bezik	-0.30103
-4.983953	bezinden	-0.30103
-4.807862	bezini	-0.4771213
-4.682923	bezinin	-0.60206
-4.682923	bezler	-0.39794
-4.506832	bezleri	-0.544068
-4.983953	beğendi	-0.30103
-4.586013	beğendim	-0.69897
-4.506832	beğendin	-0.7781513
-4.983953	beğendiğim	-0.30103
-4.983953	beğendiğine	-0.30103
-4.983953	beğendiğinize	-0.30103
-4.983953	beğeneceksin	-0.30103
-4.983953	beğeneceğini	-0.30103
-4.983953	beğenilmesine	-0.30103
-4.983953	beğenirsin	-0.30103
-4.983953	beğenmedin	-0.30103
-4.983953	beğenmediğin	-0.30103
-4.983953	beğenmediğini	-0.30103
-4.983953	beğenmeyen	-0.30103
-4.983953	beğenmeyenin	-0.30103
-4.983953	beğenmez	-0.30103
-4.807862	beğenmiş	-0.30103
-4.807862	beğensin	-0.30103
-3.049455	beş	-0.5158738
-4.807862	beşe	-0.30103
-4.983953	beşer	-0.30103
-4.983953	beşeriz	-0.30103
-4.682923	beşi	-0.39794
-4.983953	beşik	-0.30103
-4.807862	beşikte	-0.30103
-4.983953	beşikten	-0.30103
-4.983953	beşinci	-0.30103
-4.807862	beşindeki	-0.4771212
-4.807862	beşinden	-0.30103
-4.807862	beşini	-0.30103
-4.586013	beşlik	-0.30103
-4.983953	beşlisi	-0.30103
-4.983953	bg	-0.30103
-4.682923	bi	-0.30103
-4.983953	bianca	-0.30103
-4.983953	biber	-0.30103
-4.983953	bihaber	-0.30103
-4.506832	bil	-0.4259687
-3.661734	bilateral	-0.4701724
-4.682923	bildikleri	-0.39794
-4.983953	bildiklerini	-0.30103
-4.983953	bildiktir	-0.30103
-4.807862	bildim	-0.30103
-4.33074	bildin	-0.69897
-4.807862	bildirdi	-0.4771213
-4.983953	bildirelim	-0.30103
-4.586013	bildirildi	-0.69897
-4.807862	bildirilmedi	-0.4771213
-4.983953	bildirin	-0.30103
-4.983953	bildirirler	-0.30103
-4.983953	bildiriyorlardı	-0.30103
-4.983953	bildirmişler	-0.30103
-4.506832	bildiği	-0.30103
-4.439885	bildiğim	-0.39794
-4.807862	bildiğimiz	-0.30103
-4.586013	bildiğin	-0.30103
-4.807862	bildiğinden	-0.30103
-4.983953	bildiğine	-0.30103
-4.33074	bildiğini	-0.4771213
-4.983953	bildiğiniz	-0.30103
-4.983953	bildiğinizi	-0.30103
-2.975353	bile	-0.3651475
-4.983953	bilebilir	-0.30103
-4.807862	bilebilirdim	-0.30103
-4.983953	bilebilirim	-0.30103
-4.983953	bileceğim	-0.30103
-4.983953	bilekleri	-0.30103
-4.983953	bileklerime	-0.30103
-4.983953	bilemedi	-0.30103
-4.506832	bilemedim	-0.4259687
-4.807862	bilemem	-0.4771213
-4.983953	bilemeyeceğim	-0.30103
-4.983953	bilemeyerek	-0.30103
-4.807862	bilemeyiz	-0.4771213
-4.983953	bilemez	-0.30103
-4.983953	bilemezdim	-0.30103
-4.983953	bilemezmiş	-0.30103
-4.807862	bilemezsin	-0.4771213
-4.682923	bilemezsiniz	-0.39794
-4.983953	bilemiyordu	-0.30103
-4.506832	bilemiyorum	-0.4259687
-4.439885	bilen	-0.30103
-4.983953	bilene	-0.30103
-4.983953	bilenler	-0.30103
-4.807862	bilerek	-0.30103
-4.983953	bileteral	-0.30103
-4.983953	biletinizi	-0.30103
-4.807862	biletler	-0.30103
-4.983953	biletçi	-0.30103
-4.24359	bileyim	-0.544068
-4.983953	bilezikle	-0.30103
-4.983953	bileziklerimi	-0.30103
-4.983953	bileziktir	-0.30103
-4.983953	bileği	-0.30103
