
\data\
ngram 1=28922
ngram 2=96757
ngram 3=9504

\1-grams:
-4.996755	1	-0.30103
-4.820663	100	-0.4771213
-4.996755	12	-0.30103
-4.996755	13	-0.30103
-4.695724	15	-0.39794
-4.996755	2	-0.30103
-4.820663	24	-0.4771213
-4.996755	26	-0.30103
-4.996755	28	-0.30103
-4.996755	3	-0.30103
-4.996755	34	-0.30103
-4.996755	35	-0.30103
-4.996755	36	-0.30103
-4.996755	37	-0.30103
-4.695724	4	-0.39794
-4.996755	40	-0.30103
-4.996755	41	-0.30103
-4.996755	44	-0.30103
-4.695724	5	-0.39794
-4.820663	5,3	-0.4771213
-4.996755	55	-0.30103
-4.820663	5f	-0.30103
-4.598814	6	-0.3679768
-4.598814	60	-0.4771213
-4.996755	64	-0.30103
-4.996755	7	-0.30103
-4.996755	92	-0.30103
-4.996755	98	-0.30103
-4.996755	98,1	-0.30103
-0.7996119	</s>
-99	<s>	-0.6847723
-4.121693	a	-0.4074853
-4.695724	a.p	-0.60206
-4.996755	aaa	-0.30103
-4.820663	aaah	-0.30103
-4.820663	aah	-0.4771213
-4.598814	ab	-0.30103
-4.519633	aba	-0.3521825
-4.996755	abanın	-0.30103
-4.996755	abartmaya	-0.30103
-4.996755	abartıyorsun	-0.30103
-4.996755	abaza	-0.30103
-4.519633	abdal	-0.3521825
-4.695724	abdala	-0.30103
-4.695724	abdalın	-0.30103
-4.996755	abdest	-0.30103
-4.996755	abdestle	-0.30103
-4.996755	abdestsiz	-0.30103
-4.121693	abdomen	-0.7533277
-4.183841	abdominal	-0.4771212
-4.598814	abdominopelvik	-0.69897
-4.996755	abdullah	-0.30103
-4.996755	abdurrahman	-0.30103
-4.695724	abi	-0.60206
-4.996755	abim	-0.30103
-4.695724	abla	-0.60206
-4.820663	ablacığım	-0.30103
-4.996755	ablası	-0.30103
-4.996755	ablasına	-0.30103
-4.820663	aborjin	-0.30103
-4.996755	aca	-0.30103
-3.753716	acaba	-0.4181434
-4.996755	acar	-0.30103
-4.394694	acayip	-0.4393327
-3.664316	acele	-0.4175355
-4.996755	aceleci	-0.30103
-4.598814	acelem	-0.3679768
-4.996755	acelemiz	-0.30103
-4.996755	acelen	-0.30103
-4.996755	aceleye	-0.30103
-4.598814	acemi	-0.30103
-4.820663	acemilik	-0.30103
-4.996755	acemiydim	-0.30103
-4.820663	acentadan	-0.30103
-4.996755	acentaya	-0.30103
-4.297784	acil	-0.447158
-4.996755	acilen	-0.30103
-4.996755	aciz	-0.30103
-3.685001	acı	-0.3521825
-4.996755	acıdan	-0.30103
-4.996755	acıdılar	-0.30103
-4.820663	acıdır	-0.30103
-4.996755	acıdığı	-0.30103
-4.519633	acıkan	-0.30103
-4.996755	acıklı	-0.30103
-4.996755	acıkmamış	-0.30103
-4.996755	acıkmıyor	-0.30103
-4.820663	acıkmış	-0.30103
-4.996755	acıktı	-0.30103
-4.996755	acıktık	-0.30103
-4.996755	acıktın	-0.30103
-4.996755	acıktınız	-0.30103
-4.996755	acıktırırsan	-0.30103
-4.996755	acıktığımı	-0.30103
-4.996755	acıkır	-0.30103
-4.996755	acılarını	-0.30103
-4.996755	acılıkla	-0.30103
-4.820663	acıman	-0.30103
-4.996755	acımasızsın	-0.30103
-4.996755	acımayacak	-0.30103
-4.996755	acımaz	-0.30103
-4.996755	acımıyor	-0.30103
-4.996755	acımış	-0.30103
-4.996755	acın	-0.30103
-4.996755	acınacak	-0.30103
-4.820663	acınası	-0.4771213
-4.996755	acından	-0.30103
-4.996755	acındırırsan	-0.30103
-4.996755	acını	-0.30103
-4.996755	acır	-0.30103
-4.996755	acırsın	-0.30103
-4.996755	acısı	-0.30103
-4.996755	acısından	-0.30103
-4.996755	acısını	-0.30103
-4.996755	acıt	-0.30103
-4.996755	acıtacak	-0.30103
-4.996755	acıtmayacak	-0.30103
-4.996755	acıtmıştı	-0.30103
-4.820663	acıttı	-0.4771213
-4.820663	acıtıyor	-0.30103
-4.996755	acıtıyordu	-0.30103
-4.598814	acıyan	-0.30103
-4.343542	acıyor	-0.6989701
-4.820663	acıyı	-0.30103
-4.996755	acıyınız	-0.30103
-4.695724	ada	-0.30103
-4.996755	adaaam	-0.30103
-4.996755	adalar	-0.30103
-4.996755	adaleleri	-0.30103
-4.820663	adalelerini	-0.30103
-4.695724	adalet	-0.30103
-4.996755	adaletin	-0.30103
-3.173933	adam	-0.3756636
-3.975565	adama	-0.312311
-4.996755	adamak	-0.30103
-4.820663	adamakla	-0.4771212
-3.753716	adamakıllı	-0.30103
-4.820663	adamcağız	-0.30103
-4.996755	adamcağızı	-0.30103
-4.996755	adamcağızın	-0.30103
-4.996755	adamdan	-0.30103
-4.598814	adamdı	-0.69897
-4.519633	adamdır	-0.4259687
-4.996755	adamla	-0.30103
-4.297784	adamlar	-0.30103
-4.996755	adamlara	-0.30103
-4.996755	adamlarla	-0.30103
-4.695724	adamları	-0.30103
-4.695724	adamların	-0.30103
-4.996755	adamlarını	-0.30103
-4.996755	adamlarız	-0.30103
-4.996755	adammışsın	-0.30103
-4.519633	adamsın	-0.544068
-3.955362	adamı	-0.3233064
-4.519633	adamım	-0.544068
-4.996755	adamımız	-0.30103
-3.820663	adamın	-0.3168243
-4.695724	adamına	-0.60206
-4.996755	adamıyım	-0.30103
-4.820663	adana	-0.30103
-4.996755	adanmış	-0.30103
-4.695724	adanın	-0.30103
-4.996755	adası	-0.30103
-4.598814	aday	-0.30103
-4.820663	adaylar	-0.30103
-4.996755	adaylık	-0.30103
-4.996755	adaylığını	-0.30103
-4.996755	adayım	-0.30103
-4.218603	adaşım	-0.3467875
-4.996755	addır	-0.30103
-4.996755	adelphoe	-0.30103
-4.996755	adenomatöz	-0.30103
-4.121693	adet	-0.3565473
-3.850626	adeta	-0.3372422
-4.996755	adetleri	-0.30103
-4.996755	adettir	-0.30103
-4.452686	adi	-0.39794
-4.297784	adil	-0.5118833
-4.996755	adin	-0.30103
-4.996755	adla	-0.30103
-4.996755	adlandırılmıyor	-0.30103
-4.996755	adları	-0.30103
-4.996755	adliyeye	-0.30103
-4.598814	adlı	-0.4771213
-4.598814	adneksiyal	-0.4771212
-4.996755	adrenal	-0.30103
-4.996755	adres	-0.30103
-4.820663	adresi	-0.30103
-4.996755	adresimi	-0.30103
-4.695724	adresini	-0.30103
-4.996755	adreslerini	-0.30103
-4.996755	adresli	-0.30103
-3.899845	adı	-0.3823349
-3.505393	adım	-0.3958164
-4.820663	adıma	-0.4771213
-4.820663	adımda	-0.4771213
-4.996755	adımdan	-0.30103
-4.996755	adımlanın	-0.30103
-4.452686	adımlar	-0.4771213
-4.996755	adımlardan	-0.30103
-4.093665	adımlarla	-0.30103
-4.996755	adımları	-0.30103
-4.996755	adımlarım	-0.30103
-4.996755	adımlarını	-0.30103
-4.996755	adımlarınıza	-0.30103
-4.695724	adımı	-0.30103
-4.820663	adımına	-0.30103
-4.343542	adın	-0.4771213
-4.519633	adına	-0.3521825
-4.121693	adını	-0.30103
-4.598814	adınız	-0.3679768
-4.996755	adınızı	-0.30103
-4.996755	adıyla	-0.30103
-4.996755	aemilianın	-0.30103
-4.820663	aerasyonları	-0.4771213
-4.820663	aerasyonu	-0.30103
-4.598814	af	-0.3679768
-4.996755	afacan	-0.30103
-4.996755	afat	-0.30103
-4.695724	afedersiniz	-0.60206
-4.297784	aferin	-0.39794
-4.996755	afettir	-0.30103
-4.996755	affedebilecek	-0.30103
-4.343542	affedersin	-0.4771213
-4.218603	affedersiniz	-0.4522977
-4.996755	affedilmez	-0.30103
-4.996755	affedin	-0.30103
-4.820663	affediniz	-0.30103
-4.820663	affediyorum	-0.4771213
-4.695724	affet	-0.39794
-4.820663	affetmeyeceğim	-0.4771213
-4.695724	affetsin	-0.60206
-4.996755	affettim	-0.30103
-4.996755	affettin	-0.30103
-4.996755	afili	-0.30103
-4.996755	afiyet	-0.30103
-4.820663	afrika	-0.30103
-4.996755	afrikalı	-0.30103
-3.590214	ah	-0.3462575
-4.820663	ahali	-0.30103
-4.996755	ahalisini	-0.30103
-4.996755	ahbabım	-0.30103
-4.820663	ahbabın	-0.30103
-4.121693	ahbap	-0.4393327
-4.996755	ahbaplara	-0.30103
-4.996755	ahbapları	-0.30103
-4.996755	ahbapların	-0.30103
-4.996755	ahbaplarına	-0.30103
-4.996755	ahbaplık	-0.30103
-4.996755	ahbaplığa	-0.30103
-4.820663	ahbaplığı	-0.30103
-4.996755	ahbaplığımız	-0.30103
-4.996755	ahbapça	-0.30103
-4.820663	ahenge	-0.30103
-4.996755	ahengini	-0.30103
-4.820663	ahenk	-0.30103
-4.996755	ahenkler	-0.30103
-4.996755	ahenkli	-0.30103
-4.996755	ahenktardılar	-0.30103
-4.598814	aheste	-0.4771212
-4.996755	ahh	-0.30103
-4.996755	ahha	-0.30103
-4.695724	ahhh	-0.39794
-4.695724	ahlak	-0.30103
-4.996755	ahlakı	-0.30103
-4.996755	ahlatın	-0.30103
-4.598814	ahmak	-0.30103
-4.996755	ahmaklıktır	-0.30103
-4.996755	ahmağa	-0.30103
-4.695724	ahmağı	-0.30103
-4.996755	ahmed	-0.30103
-4.695724	ahmet	-0.39794
-4.996755	ahreni	-0.30103
-4.996755	ahtisaari	-0.30103
-4.996755	ahçıya	-0.30103
-4.820663	ahı	-0.30103
-4.598814	ahını	-0.3679768
-4.996755	ahır	-0.30103
-4.996755	ahıra	-0.30103
-4.996755	ahırda	-0.30103
-4.996755	ahırını	-0.30103
-4.695724	ahşap	-0.30103
-4.820663	ai	-0.4771213
-4.996755	aidim	-0.30103
-4.218603	aile	-0.3222193
-4.996755	ailedensin	-0.30103
-4.695724	aileler	-0.30103
-4.996755	aileleri	-0.30103
-4.256392	ailem	-0.4771213
-4.996755	aileme	-0.30103
-4.996755	ailemize	-0.30103
-4.695724	ailen	-0.30103
-4.996755	ailene	-0.30103
-4.996755	ailenin	-0.30103
-4.820663	ailesi	-0.30103
-4.996755	ailesinden	-0.30103
-4.996755	ailesinin	-0.30103
-4.996755	aileye	-0.30103
-4.996755	aircomb	-0.30103
-4.996755	aishihik	-0.30103
-3.996755	ait	-0.3553877
-4.996755	aitsin	-0.30103
-4.996755	aitti	-0.30103
-4.996755	aittir	-0.30103
-4.996755	ajans	-0.30103
-3.955362	ak	-0.3233064
-4.996755	akacak	-0.30103
-4.996755	akademisi	-0.30103
-4.598814	akan	-0.3679768
-4.996755	akanı	-0.30103
-4.996755	akanından	-0.30103
-4.598814	akar	-0.4771212
-4.996755	akara	-0.30103
-4.996755	akarak	-0.30103
-4.820663	akarken	-0.30103
-4.695724	akarsu	-0.30103
-4.996755	akarsuya	-0.30103
-4.996755	akash	-0.30103
-4.695724	akbulut	-0.30103
-4.996755	akbulutun	-0.30103
-3.534357	akciğer	-0.6592028
-4.820663	akciğerde	-0.30103
-4.996755	akciğerin	-0.30103
-4.598814	akciğerlerde	-0.30103
-4.820663	akdeniz	-0.30103
-4.996755	akisler	-0.30103
-4.996755	akisleri	-0.30103
-4.695724	akla	-0.30103
-4.996755	aklarını	-0.30103
-4.093665	aklı	-0.3735807
-4.695724	aklım	-0.39794
-3.899845	aklıma	-0.4336556
-4.394694	aklımdan	-0.3802112
-4.996755	aklımdasın	-0.30103
-4.519633	aklımı	-0.30103
-4.695724	aklımız	-0.30103
-4.996755	aklımıza	-0.30103
-4.996755	aklımızdan	-0.30103
-4.519633	aklın	-0.30103
-4.151657	aklına	-0.3617278
-4.598814	aklında	-0.3679768
-4.452686	aklından	-0.39794
-4.042512	aklını	-0.4313638
-4.996755	aklınızda	-0.30103
-4.996755	aklınızı	-0.30103
-4.996755	aklığı	-0.30103
-4.996755	akmasa	-0.30103
-4.996755	akmayınca	-0.30103
-4.996755	akmazsa	-0.30103
-4.996755	akmıyor	-0.30103
-4.996755	akmıyordu	-0.30103
-4.996755	akraba	-0.30103
-4.996755	akrabadan	-0.30103
-4.820663	akrabaları	-0.30103
-4.695724	akrabalarından	-0.30103
-4.996755	akrabam	-0.30103
-4.996755	akrabamdır	-0.30103
-4.996755	akrabamın	-0.30103
-4.996755	akrabanın	-0.30103
-4.996755	akrabanız	-0.30103
-4.820663	akrabası	-0.30103
-4.820663	akrabaya	-0.30103
-4.996755	akratılan	-0.30103
-4.820663	akrep	-0.30103
-4.996755	aks	-0.30103
-4.996755	aksak	-0.30103
-4.996755	aksamak	-0.30103
-4.820663	aksaraya	-0.30103
-4.996755	aksediyordu	-0.30103
-4.519633	aksi	-0.3521825
-4.820663	aksiel	-0.30103
-4.996755	aksilla	-0.30103
-4.996755	aksillada	-0.30103
-4.452686	aksiller	-0.60206
-4.598814	aksine	-0.4771213
-4.519633	aksiyel	-0.544068
-4.996755	aksı	-0.30103
-4.996755	aktan	-0.30103
-4.996755	aktarma	-0.30103
-4.996755	aktif	-0.30103
-4.820663	aktivite	-0.4771213
-4.820663	aktris	-0.30103
-4.996755	aktrislerin	-0.30103
-4.996755	aktör	-0.30103
-4.996755	aktörlerle	-0.30103
-4.996755	aktörüm	-0.30103
-4.996755	aktı	-0.30103
-4.996755	aktır	-0.30103
-4.996755	aktığı	-0.30103
-4.820663	akustik	-0.4771213
-4.695724	akut	-0.60206
-4.598814	akça	-0.30103
-4.996755	akçadır	-0.30103
-4.996755	akçanın	-0.30103
-4.996755	akçay	-0.30103
-4.820663	akçe	-0.30103
-4.996755	akçesine	-0.30103
-4.996755	akçesiyle	-0.30103
-4.820663	akçeye	-0.30103
-4.996755	akı	-0.30103
-4.820663	akıbet	-0.30103
-4.996755	akıbete	-0.30103
-4.996755	akıbeti	-0.30103
-3.820663	akıl	-0.3344537
-4.996755	akılcağızımı	-0.30103
-4.598814	akıldan	-0.3679768
-4.996755	akılları	-0.30103
-3.850626	akıllı	-0.3180633
-4.598814	akıllıca	-0.4771213
-4.996755	akıllıların	-0.30103
-4.820663	akıllısı	-0.30103
-4.343542	akılsız	-0.30103
-4.996755	akılsızın	-0.30103
-3.718001	akım	-0.5019448
-4.996755	akına	-0.30103
-4.996755	akıtacak	-0.30103
-4.695724	akıyor	-0.30103
-4.820663	akıyordu	-0.4771213
-4.996755	akışa	-0.30103
-4.820663	akışı	-0.30103
-4.996755	akışını	-0.30103
-3.416971	akşam	-0.3296752
-4.019031	akşama	-0.60206
-4.820663	akşamacak	-0.4771213
-4.996755	akşamda	-0.30103
-4.297784	akşamdan	-0.39794
-4.996755	akşamdı	-0.30103
-4.452686	akşamki	-0.3424227
-4.996755	akşamkine	-0.30103
-4.996755	akşamkinin	-0.30103
-4.996755	akşamla	-0.30103
-4.394694	akşamlar	-0.3357921
-4.519633	akşamları	-0.30103
-4.996755	akşamlı	-0.30103
-4.820663	akşamüstü	-0.30103
-4.394694	akşamüzeri	-0.3357921
-4.820663	akşamüzerleri	-0.30103
-4.452686	akşamı	-0.30103
-4.519633	akşamın	-0.30103
-4.996755	akşamına	-0.30103
-3.289184	al	-0.5179153
-4.452686	ala	-0.30103
-4.996755	alabama’daki	-0.30103
-4.996755	alabildiği	-0.30103
-4.820663	alabildiğine	-0.30103
-4.183841	alabilir	-0.845098
-4.996755	alabilirim	-0.30103
-4.820663	alabilirsin	-0.4771213
-4.996755	alabilirsiniz	-0.30103
-4.297784	alacak	-0.39794
-4.820663	alacakaranlık	-0.30103
-4.695724	alacakaranlıkta	-0.30103
-4.996755	alacakaranlığına	-0.30103
-4.820663	alacakaranlığında	-0.30103
-4.996755	alacaklıdır	-0.30103
-4.996755	alacaklıydım	-0.30103
-4.996755	alacaksın	-0.30103
-4.820663	alacalı	-0.30103
-4.996755	alacalısından	-0.30103
-4.996755	alacağı	-0.30103
-4.218603	alacağım	-1.079181
-4.996755	alacağımı	-0.30103
-4.996755	alacağın	-0.30103
-4.996755	alacağını	-0.30103
-4.820663	alacağız	-0.4771213
-4.343542	alaka	-0.3679768
-4.218603	alakadar	-0.30103
-4.996755	alakadarları	-0.30103
-4.996755	alakadarsın	-0.30103
-4.996755	alakalan	-0.30103
-4.695724	alakalandı	-0.60206
-4.996755	alakalandırdığı	-0.30103
-4.996755	alakaları	-0.30103
-4.996755	alakalarına	-0.30103
-4.598814	alakam	-0.30103
-4.996755	alakamı	-0.30103
-4.996755	alakamın	-0.30103
-4.343542	alakası	-0.4771212
-4.996755	alakasız	-0.30103
-4.996755	alakayı	-0.30103
-4.996755	alalım	-0.30103
-4.996755	alamadı	-0.30103
-4.996755	alamadılar	-0.30103
-4.820663	alamadım	-0.30103
-4.820663	alamamıştı	-0.4771213
-4.996755	alamayacaktı	-0.30103
-4.996755	alamayacağın	-0.30103
-4.996755	alamayan	-0.30103
-4.996755	alamayınca	-0.30103
-4.996755	alamaz	-0.30103
-4.996755	alamazdı	-0.30103
-4.695724	alamazsın	-0.60206
-4.996755	alamet	-0.30103
-4.996755	alameti	-0.30103
-4.820663	alamıyordum	-0.4771213
-4.695724	alamıyorum	-0.60206
-3.850626	alan	-0.4293485
-4.820663	alana	-0.30103
-4.394694	alanda	-0.3802113
-4.996755	alandan	-0.30103
-4.820663	alanlar	-0.30103
-4.452686	alanlarda	-0.3424227
-4.598814	alanları	-0.3679768
-4.996755	alanlarına	-0.30103
-4.343542	alanlarında	-0.4771212
-4.996755	alanlı	-0.30103
-4.452686	alanı	-0.39794
-4.820663	alanın	-0.30103
-4.452686	alanına	-0.845098
-4.820663	alanında	-0.30103
-3.917573	alarak	-0.30103
-4.820663	alarm	-0.4771213
-4.996755	alasın	-0.30103
-4.256392	alay	-0.30103
-4.996755	alaya	-0.30103
-4.598814	alaycı	-0.3679768
-4.996755	alaylan	-0.30103
-4.996755	alayı	-0.30103
-4.297784	alayım	-0.7403627
-4.996755	alayına	-0.30103
-4.695724	albay	-0.60206
-4.996755	albümin	-0.30103
-4.996755	albümün	-0.30103
-4.996755	albümünü	-0.30103
-4.996755	albümünün	-0.30103
-4.996755	aldanma	-0.30103
-4.996755	aldanmadığıma	-0.30103
-4.996755	aldanmamış	-0.30103
-4.996755	aldanmayın	-0.30103
-4.996755	aldanmaz	-0.30103
-4.996755	aldanmış	-0.30103
-4.996755	aldanır	-0.30103
-4.996755	aldatma	-0.30103
-4.996755	aldatmak	-0.30103
-4.996755	aldatıldım	-0.30103
-4.996755	aldatılmış	-0.30103
-4.996755	aldatıyor	-0.30103
-4.996755	aldude	-0.30103
-3.534357	aldı	-0.6387829
-4.598814	aldık	-0.69897
-4.695724	aldıkları	-0.30103
-4.996755	aldıklarının	-0.30103
-4.820663	aldıktan	-0.4771212
-4.598814	aldılar	-0.30103
-3.792634	aldım	-0.5818565
-4.256392	aldın	-0.6368221
-4.519633	aldınız	-0.4259687
-4.996755	aldır	-0.30103
-4.996755	aldırdım	-0.30103
-4.695724	aldırma	-0.39794
-4.996755	aldırmadı	-0.30103
-4.996755	aldırmadılar	-0.30103
-4.996755	aldırmadım	-0.30103
-4.996755	aldırmalısınız	-0.30103
-4.996755	aldırmaya	-0.30103
-4.695724	aldırmayın	-0.60206
-4.996755	aldırırım	-0.30103
-4.996755	aldırırız	-0.30103
-4.695724	aldırış	-0.30103
-4.297784	aldığı	-0.359022
-4.820663	aldığım	-0.30103
-4.820663	aldığımız	-0.30103
-4.996755	aldığın	-0.30103
-4.996755	aldığını	-0.30103
-4.996755	alegorisidir	-0.30103
-4.996755	alelacayip	-0.30103
-4.695724	alelade	-0.39794
-4.996755	alelumum	-0.30103
-4.820663	alem	-0.30103
-4.996755	aleme	-0.30103
-4.996755	alemi	-0.30103
-4.996755	alemlerinden	-0.30103
-4.996755	alenileşen	-0.30103
-4.820663	aleniyet	-0.4771212
-4.996755	alerjim	-0.30103
-4.820663	alet	-0.4771213
-4.996755	aletlerini	-0.30103
-4.996755	aletlerle	-0.30103
-4.598814	alev	-0.30103
-4.996755	alevden	-0.30103
-4.996755	alevle	-0.30103
-4.996755	alevler	-0.30103
-4.996755	alevlerin	-0.30103
-4.996755	alevlerle	-0.30103
-4.996755	aleyhime	-0.30103
-4.820663	aleyhinde	-0.30103
-4.996755	aleyhindesiniz	-0.30103
-4.996755	aleykümselam	-0.30103
-4.996755	alfabesindeki	-0.30103
-4.996755	alfandaki	-0.30103
-4.996755	algı	-0.30103
-4.996755	algılama	-0.30103
-4.996755	algınlıklarıydı	-0.30103
-4.183841	ali	-0.3203351
-4.996755	alice	-0.30103
-4.996755	alide	-0.30103
-4.519633	alim	-0.30103
-4.996755	alimallah	-0.30103
-4.996755	alimdi	-0.30103
-4.996755	alimin	-0.30103
-4.996755	alimle	-0.30103
-4.695724	alinin	-0.30103
-4.256392	aliye	-0.3245111
-4.820663	aliyenin	-0.30103
-4.820663	aliyeyi	-0.30103
-4.996755	alkol	-0.30103
-4.820663	alkış	-0.30103
-4.996755	alkışlandı	-0.30103
-4.996755	alkışlandılar	-0.30103
-4.996755	alkışlar	-0.30103
-3.478241	allah	-0.3521825
-4.343542	allaha	-0.3679768
-4.519633	allahaısmarladık	-0.3521825
-4.996755	allahdır	-0.30103
-4.598814	allahtan	-0.3679768
-4.996755	allahuekber	-0.30103
-4.996755	allahı	-0.30103
-4.256392	allahım	-0.3853509
-4.218603	allahın	-0.30103
-4.695724	allahını	-0.39794
-4.996755	allah’ın	-0.30103
-4.996755	allak	-0.30103
-4.996755	allen	-0.30103
-4.820663	allı	-0.4771213
-4.996755	allık	-0.30103
-4.996755	allıkları	-0.30103
-4.067336	alma	-0.4149733
-4.519633	almadan	-0.3521825
-4.996755	almadık	-0.30103
-4.996755	almadılar	-0.30103
-4.598814	almadım	-0.4771213
-4.996755	almadığı	-0.30103
-4.996755	almadığın	-0.30103
-4.019031	almak	-0.4210053
-4.996755	almakta	-0.30103
-4.996755	almaktadır	-0.30103
-4.996755	almaktan	-0.30103
-4.996755	almalarına	-0.30103
-4.996755	almalarını	-0.30103
-4.996755	almalısın	-0.30103
-4.996755	almam	-0.30103
-4.996755	almama	-0.30103
-4.996755	almamıştı	-0.30103
-4.996755	almamıştım	-0.30103
-4.343542	alman	-0.30103
-4.343542	almanca	-0.30103
-4.996755	almandır	-0.30103
-4.996755	almanlarından	-0.30103
-4.996755	almanya	-0.30103
-4.996755	almanyadan	-0.30103
-4.695724	almanyaya	-0.30103
-4.820663	almanyayı	-0.30103
-4.996755	almanya’daki	-0.30103
-4.820663	almanı	-0.30103
-4.996755	almasın	-0.30103
-4.598814	almaya	-0.30103
-4.996755	almayarak	-0.30103
-4.519633	almayayım	-0.544068
-4.394694	almayı	-0.3802112
-4.343542	almaz	-0.4771212
-4.996755	almazsa	-0.30103
-4.996755	almıyor	-0.30103
-4.996755	almıyordu	-0.30103
-4.820663	almıyorum	-0.4771213
-4.067336	almış	-0.4436975
-4.820663	almışlar	-0.30103
-4.598814	almışlardı	-0.69897
-4.996755	almışsın	-0.30103
-4.297784	almıştı	-0.7403627
-4.820663	almıştım	-0.4771213
-4.996755	almıştın	-0.30103
-4.820663	almıştır	-0.4771213
-4.996755	alna	-0.30103
-4.996755	alnı	-0.30103
-4.996755	alnıma	-0.30103
-4.519633	alnına	-0.30103
-4.996755	alnından	-0.30103
-4.820663	alnını	-0.30103
-4.820663	alnının	-0.30103
-4.820663	alo	-0.4771213
-4.996755	alpha	-0.30103
-4.996755	alsam	-0.30103
-4.820663	alsın	-0.4771213
-3.654332	alt	-0.4704907
-4.996755	altları	-0.30103
-3.975565	altmış	-0.3679768
-4.996755	altmışar	-0.30103
-4.820663	altmışlık	-0.30103
-4.996755	altmıştan	-0.30103
-4.695724	altta	-0.60206
-4.996755	alttakileri	-0.30103
-4.996755	alttan	-0.30103
-4.996755	altyazı	-0.30103
-4.996755	altüst	-0.30103
-3.394695	altı	-0.4464524
-4.996755	altıda	-0.30103
-4.996755	altımda	-0.30103
-4.996755	altımdaki	-0.30103
-3.850626	altın	-0.3180633
-3.866421	altına	-0.3617278
-3.806423	altında	-0.3332147
-4.695724	altındaki	-0.30103
-4.218603	altından	-0.30103
-4.996755	altındaydım	-0.30103
-4.996755	altındır	-0.30103
-4.996755	altınları	-0.30103
-4.519633	altını	-0.30103
-4.598814	altının	-0.3679768
-4.996755	altısı	-0.30103
-4.695724	alçacık	-0.30103
-4.093665	alçak	-0.3735807
-4.996755	alçaklara	-0.30103
-4.996755	alçal	-0.30103
-4.996755	alçalan	-0.30103
-4.996755	alçalmış	-0.30103
-4.996755	alçaltın	-0.30103
-4.996755	alçaltıp	-0.30103
-4.820663	alı	-0.30103
-4.820663	alıcı	-0.30103
-4.996755	alıkoyacak	-0.30103
-4.996755	alıkoyamayacaktı	-0.30103
-4.996755	alıkoyan	-0.30103
-4.996755	alıkoydum	-0.30103
-4.996755	alıkoyuyor	-0.30103
-4.996755	alımı	-0.30103
-4.093665	alın	-0.4973246
-4.820663	alınacak	-0.30103
-4.996755	alınamazdı	-0.30103
-4.256392	alınan	-0.4771212
-4.695724	alınca	-0.30103
-4.093665	alındı	-1.20412
-4.996755	alınma	-0.30103
-4.452686	alınmadı	-0.845098
-4.343542	alınmaz	-0.9542425
-4.820663	alınmış	-0.30103
-4.996755	alınmıştır	-0.30103
-4.996755	alınır	-0.30103
-4.996755	alınırdı	-0.30103
-3.741482	alıp	-0.3209248
-3.792634	alır	-0.5070845
-4.820663	alırdı	-0.30103
-4.996755	alırdım	-0.30103
-4.820663	alırken	-0.30103
-4.820663	alırsa	-0.30103
-4.996755	alırsam	-0.30103
-4.519633	alırsan	-0.30103
-4.598814	alırsın	-0.4771212
-4.343542	alırım	-0.69897
-4.820663	alıver	-0.30103
-3.955362	alıyor	-0.7160034
-4.297784	alıyordu	-1
-4.996755	alıyorduk	-0.30103
-4.996755	alıyordum	-0.30103
-4.996755	alıyorlar	-0.30103
-4.996755	alıyorlarsa	-0.30103
-4.996755	alıyorsun	-0.30103
-4.297784	alıyorum	-1
-4.996755	alışkanlıkla	-0.30103
-4.996755	alışkanlığı	-0.30103
-4.598814	alışkın	-0.30103
-4.996755	alışkındı	-0.30103
-4.996755	alışkınız	-0.30103
-4.996755	alışmadık	-0.30103
-4.996755	alışmamıştım	-0.30103
-4.996755	alışmayan	-0.30103
-4.695724	alışmış	-0.39794
-4.996755	alışmışa	-0.30103
-4.996755	alışmıştım	-0.30103
-4.820663	alışsan	-0.4771212
-4.996755	alıştılar	-0.30103
-4.695724	alıştım	-0.39794
-4.996755	alıştıracaksın	-0.30103
-4.996755	alıştırır	-0.30103
-4.996755	alıştığı	-0.30103
-4.820663	alışveriş	-0.30103
-4.820663	alışverişi	-0.30103
-4.695724	alışverişte	-0.30103
-4.996755	alışık	-0.30103
-4.996755	alışınca	-0.30103
-4.996755	alışını	-0.30103
-4.996755	alışının	-0.30103
-4.820663	alışır	-0.30103
-4.996755	alışığım	-0.30103
-2.807826	ama	-0.4213238
-4.996755	amacı	-0.30103
-4.820663	amacım	-0.30103
-4.695724	amacın	-0.39794
-3.607589	aman	-0.4062654
-4.343542	amanın	-0.30103
-4.820663	aması	-0.30103
-4.820663	amaç	-0.30103
-4.996755	amaçlanan	-0.30103
-4.996755	amaçlanıyor	-0.30103
-4.695724	amaçlı	-0.60206
-4.820663	ambar	-0.30103
-4.996755	ambara	-0.30103
-4.996755	ambarcı	-0.30103
-4.996755	ambardan	-0.30103
-4.996755	ambarları	-0.30103
-4.996755	ambarı	-0.30103
-4.996755	ambarın	-0.30103
-4.598814	ambarında	-0.3679768
-4.996755	ambarındaki	-0.30103
-4.996755	amberidir	-0.30103
-4.452686	ambulans	-0.30103
-4.519633	amca	-0.3521825
-4.996755	amcam	-0.30103
-4.996755	amcamı	-0.30103
-4.996755	amcası	-0.30103
-4.695724	amele	-0.30103
-4.820663	amelelik	-0.30103
-4.695724	amelenin	-0.30103
-4.820663	amelesi	-0.30103
-4.996755	ameleye	-0.30103
-4.121693	ameliyat	-0.3565473
-4.996755	ameliyata	-0.30103
-4.996755	ameliyatsız	-0.30103
-4.695724	ameliyatta	-0.39794
-4.820663	ameliyattan	-0.30103
-4.996755	ameliyatı	-0.30103
-4.820663	ameliyatın	-0.30103
-4.695724	ameliyatında	-0.30103
-4.996755	amerika	-0.30103
-4.820663	amerikada	-0.30103
-4.820663	amerikalı	-0.30103
-4.820663	amerikalıdır	-0.4771213
-4.820663	amerikalılar	-0.30103
-4.820663	amerikan	-0.30103
-4.996755	amfibi	-0.30103
-4.996755	amfizematöz	-0.30103
-4.820663	amin	-0.30103
-4.996755	amir	-0.30103
-4.519633	amma	-0.30103
-4.820663	amnion	-0.4771212
-4.820663	amniotik	-0.4771213
-4.996755	ampisilin	-0.30103
-4.996755	ampulü	-0.30103
-4.996755	amuca	-0.30103
-4.996755	amına	-0.30103
-3.654332	an	-0.3550118
-3.478241	ana	-0.4816217
-4.598814	anacığım	-0.30103
-4.820663	anadan	-0.30103
-4.820663	anadolu	-0.30103
-4.996755	anadoluyu	-0.30103
-4.820663	anafor	-0.30103
-4.996755	anaforlamadığımız	-0.30103
-4.256392	anahtar	-0.3853509
-4.996755	anahtarla	-0.30103
-4.695724	anahtarlar	-0.39794
-4.820663	anahtarları	-0.30103
-4.996755	anahtarların	-0.30103
-4.820663	anahtarlarını	-0.4771213
-4.256392	anahtarı	-0.3245111
-4.996755	anahtarın	-0.30103
-4.996755	analist	-0.30103
-4.996755	analistler	-0.30103
-4.996755	analizi	-0.30103
-4.996755	analizinde	-0.30103
-4.996755	analı	-0.30103
-4.996755	analık	-0.30103
-4.598814	anam	-0.3679768
-4.996755	anama	-0.30103
-4.996755	anamdan	-0.30103
-4.996755	anamla	-0.30103
-4.996755	anamı	-0.30103
-4.820663	anamın	-0.30103
-4.996755	anamızdan	-0.30103
-4.519633	anan	-0.30103
-4.996755	anana	-0.30103
-4.996755	anansa	-0.30103
-4.996755	ananı	-0.30103
-4.519633	ananın	-0.3521825
-4.996755	anaoğul	-0.30103
-4.067336	anası	-0.3152704
-4.598814	anasına	-0.3679768
-4.695724	anasından	-0.30103
-4.598814	anasını	-0.3679768
-4.996755	anasının	-0.30103
-4.820663	anasıyla	-0.30103
-4.996755	anasız	-0.30103
-4.452686	anatomi	-0.845098
-4.297784	anatomik	-0.60206
-4.996755	anayasayı	-0.30103
-4.695724	anayı	-0.30103
-4.996755	anaç	-0.30103
-3.452687	ancak	-0.3575113
-3.625687	anda	-0.3159215
-4.996755	andaki	-0.30103
-4.519633	andan	-0.544068
-4.996755	andrea	-0.30103
-4.996755	andy	-0.30103
-4.996755	andıran	-0.30103
-4.996755	andırıyor	-0.30103
-4.820663	andırıyordu	-0.4771213
-4.996755	anekoik	-0.30103
-4.996755	anevrizmatik	-0.30103
-4.996755	angeles	-0.30103
-4.996755	angın	-0.30103
-4.598814	ani	-0.3679768
-4.820663	aniden	-0.30103
-4.695724	anjina	-0.60206
-4.598814	anjiyografi	-0.69897
-4.996755	ankara	-0.30103
-4.820663	ankarada	-0.30103
-4.820663	ankaradan	-0.30103
-4.996755	ankaranın	-0.30103
-4.452686	ankaraya	-0.30103
-4.996755	ankete	-0.30103
-4.820663	anki	-0.30103
-4.996755	anla	-0.30103
-4.394694	anladı	-0.5228788
-4.820663	anladık	-0.30103
-4.996755	anladıkça	-0.30103
-4.820663	anladılar	-0.4771213
-3.766306	anladım	-0.8129134
-4.019031	anladın	-0.845098
-4.394694	anladınız	-0.6532125
-4.996755	anladığımı	-0.30103
-4.996755	anladığına	-0.30103
-4.996755	anlam	-0.30103
-4.256392	anlama	-0.7781513
-4.820663	anlamadan	-0.30103
-4.996755	anlamadı	-0.30103
-4.820663	anlamadık	-0.30103
-4.183841	anlamadım	-0.69897
-4.820663	anlamadın	-0.4771213
-4.820663	anlamadınız	-0.4771213
-4.996755	anlamadığı	-0.30103
-4.695724	anlamadığım	-0.60206
-4.519633	anlamak	-0.30103
-4.820663	anlamakta	-0.30103
-4.996755	anlamaktan	-0.30103
-4.996755	anlamalarına	-0.30103
-4.820663	anlamalısın	-0.4771213
-4.996755	anlamam	-0.30103
-4.996755	anlamama	-0.30103
-4.996755	anlamamış	-0.30103
-4.996755	anlamamıştım	-0.30103
-4.996755	anlamanı	-0.30103
-4.695724	anlamaya	-0.30103
-4.820663	anlamayacak	-0.30103
-4.996755	anlamayan	-0.30103
-4.996755	anlamayana	-0.30103
-4.695724	anlamayarak	-0.30103
-4.996755	anlamayın	-0.30103
-4.695724	anlamaz	-0.39794
-4.695724	anlamda	-0.39794
-4.019031	anlamlı	-0.4771212
-4.452686	anlamı	-0.3424227
-4.452686	anlamını	-0.4771213
-4.598814	anlamıyor	-0.3679768
-4.996755	anlamıyordu	-0.30103
-4.820663	anlamıyordum	-0.30103
-4.996755	anlamıyormuş	-0.30103
-4.695724	anlamıyorsun	-0.60206
-4.996755	anlamıyorsunuz	-0.30103
-4.121693	anlamıyorum	-0.9030899
-4.452686	anlamış	-0.39794
-4.996755	anlamışlar	-0.30103
-4.519633	anlamıştı	-0.7781513
-4.519633	anlamıştım	-0.544068
-4.297784	anlar	-0.39794
-4.996755	anlarda	-0.30103
-4.996755	anlarlar	-0.30103
-4.996755	anlarmış	-0.30103
-4.695724	anlarsın	-0.39794
-4.996755	anlarsınız	-0.30103
-4.695724	anlarım	-0.39794
-4.996755	anlarız	-0.30103
-4.996755	anlasınlar	-0.30103
-3.936057	anlat	-0.6690068
-4.996755	anlatabildim	-0.30103
-4.996755	anlatabilecek	-0.30103
-4.996755	anlatabiliyor	-0.30103
-4.695724	anlatacak	-0.30103
-4.996755	anlatacaksın	-0.30103
-4.996755	anlatacaktım	-0.30103
-4.996755	anlatacaktın	-0.30103
-4.996755	anlatacağım	-0.30103
-4.996755	anlatacağız	-0.30103
-4.996755	anlatalım	-0.30103
-4.996755	anlatamadım	-0.30103
-4.996755	anlatamam	-0.30103
-4.996755	anlatamamışsın	-0.30103
-4.996755	anlatamazsam	-0.30103
-4.996755	anlatamıyordum	-0.30103
-4.996755	anlatamıyoruz	-0.30103
-4.996755	anlatan	-0.30103
-4.996755	anlatana	-0.30103
-4.343542	anlatayım	-0.69897
-4.996755	anlatma	-0.30103
-4.996755	anlatmadı	-0.30103
-4.996755	anlatmadım	-0.30103
-4.820663	anlatmadın	-0.4771213
-4.297784	anlatmak	-0.30103
-4.996755	anlatmakla	-0.30103
-4.996755	anlatmaktansa	-0.30103
-4.996755	anlatmama	-0.30103
-4.996755	anlatması	-0.30103
-4.452686	anlatmaya	-0.39794
-4.820663	anlatmış	-0.30103
-4.695724	anlatmıştım	-0.60206
-4.695724	anlatsana	-0.39794
-4.996755	anlatsın	-0.30103
-4.067336	anlattı	-0.8016324
-4.996755	anlattıkları	-0.30103
-4.996755	anlattıktan	-0.30103
-4.996755	anlattılar	-0.30103
-4.996755	anlattım	-0.30103
-4.820663	anlattın	-0.30103
-4.996755	anlattıran	-0.30103
-4.996755	anlattığım	-0.30103
-4.695724	anlattığına	-0.60206
-4.996755	anlatılanlar	-0.30103
-4.695724	anlatın	-0.30103
-4.996755	anlatıncaya	-0.30103
-4.996755	anlatıp	-0.30103
-4.996755	anlatır	-0.30103
-4.996755	anlatırsın	-0.30103
-4.519633	anlatırım	-0.4259687
-4.598814	anlatıyordu	-0.69897
-4.996755	anlatıyorlardı	-0.30103
-4.394694	anlatıyorsun	-0.6532125
-4.996755	anlayabileceğiniz	-0.30103
-4.996755	anlayabilirim	-0.30103
-4.996755	anlayabiliyorum	-0.30103
-4.996755	anlayacak	-0.30103
-4.820663	anlayacaksın	-0.4771213
-4.996755	anlayacaksınız	-0.30103
-4.996755	anlayacaktır	-0.30103
-4.996755	anlayacağımdan	-0.30103
-4.820663	anlayacağın	-0.30103
-4.996755	anlayacağınız	-0.30103
-4.820663	anlayamadı	-0.30103
-4.598814	anlayamadım	-0.69897
-4.996755	anlayamadın	-0.30103
-4.695724	anlayamadığı	-0.39794
-4.598814	anlayamadığım	-0.4771213
-4.996755	anlayamayarak	-0.30103
-4.996755	anlayamazsın	-0.30103
-4.695724	anlayamıyordum	-0.60206
-4.820663	anlayamıyorum	-0.4771213
-4.519633	anlayan	-0.544068
-4.996755	anlayana	-0.30103
-4.996755	anlayanların	-0.30103
-4.820663	anlayarak	-0.30103
-4.519633	anlayınca	-0.30103
-4.695724	anlayışlı	-0.39794
-4.996755	anlayışı	-0.30103
-4.996755	anlayışınız	-0.30103
-4.996755	anlaşabiliriz	-0.30103
-4.996755	anlaşalım	-0.30103
-4.218603	anlaşma	-0.3756636
-4.996755	anlaşmadan	-0.30103
-4.695724	anlaşmamız	-0.30103
-4.996755	anlaşmamıştık	-0.30103
-4.695724	anlaşması	-0.30103
-4.996755	anlaşmazlık	-0.30103
-4.996755	anlaşmazlığın	-0.30103
-4.996755	anlaşmazsak	-0.30103
-4.996755	anlaşmışlardı	-0.30103
-4.996755	anlaşmışlardır	-0.30103
-4.598814	anlaştık	-0.3679768
-4.996755	anlaşılabilir	-0.30103
-4.820663	anlaşılacak	-0.30103
-4.996755	anlaşılacağını	-0.30103
-4.820663	anlaşılan	-0.30103
-4.452686	anlaşıldı	-0.3424227
-4.996755	anlaşılmak	-0.30103
-4.598814	anlaşılmaktadır	-0.69897
-4.996755	anlaşılmasına	-0.30103
-4.256392	anlaşılmaz	-0.3521825
-4.996755	anlaşılmıyordu	-0.30103
-4.695724	anlaşılır	-0.60206
-4.996755	anlaşılırdı	-0.30103
-4.996755	anlaşılıyor	-0.30103
-4.519633	anlaşılıyordu	-0.7781513
-4.996755	anliyor	-0.30103
-4.996755	anlı	-0.30103
-4.121693	anlıyor	-0.6532125
-4.996755	anlıyordu	-0.30103
-4.218603	anlıyordum	-1.079181
-4.996755	anlıyorlardı	-0.30103
-4.519633	anlıyorsun	-0.4259687
-4.996755	anlıyorsunuz	-0.30103
-3.820663	anlıyorum	-0.7659168
-3.820663	anne	-0.5910646
-4.820663	anneciğim	-0.4771213
-4.996755	annelerinin	-0.30103
-4.067336	annem	-0.3484547
-4.996755	annemdi	-0.30103
-4.996755	anneme	-0.30103
-4.695724	annemi	-0.30103
-4.820663	annemin	-0.30103
-4.996755	annemle	-0.30103
-4.996755	annemsin	-0.30103
-4.218603	annen	-0.3467875
-4.996755	anneni	-0.30103
-4.695724	anneniz	-0.39794
-4.996755	annenizin	-0.30103
-4.996755	annenle	-0.30103
-4.394694	annesi	-0.30103
-4.996755	annesine	-0.30103
-4.695724	annesinin	-0.30103
-4.996755	annesisin	-0.30103
-4.820663	annesiyim	-0.4771213
-4.820663	annesiyle	-0.30103
-4.820663	anomalisi	-0.4771213
-4.820663	anormal	-0.30103
-4.598814	anormallik	-0.3679768
-4.996755	anormammo	-0.30103
-4.996755	ans	-0.30103
-4.996755	ant	-0.30103
-4.996755	antep	-0.30103
-4.996755	antepsin	-0.30103
-4.820663	anterior	-0.4771213
-4.996755	anterobazal	-0.30103
-4.996755	anteromedial	-0.30103
-4.996755	antevert	-0.30103
-4.996755	anteverttir	-0.30103
-4.996755	anthony	-0.30103
-4.820663	antiaritmik	-0.30103
-4.996755	antibiyoterapisine	-0.30103
-4.820663	antibiyotik	-0.30103
-4.695724	antidiyabetik	-0.30103
-4.598814	antihipertansif	-0.30103
-4.695724	antika	-0.30103
-4.820663	antikoagulan	-0.30103
-4.996755	antonio	-0.30103
-4.996755	antrenör	-0.30103
-4.996755	antropoloji	-0.30103
-4.820663	anzavur	-0.30103
-4.820663	anı	-0.30103
-4.996755	anılmaz	-0.30103
-4.820663	anılır	-0.4771213
-4.996755	anıtın	-0.30103
-4.042512	aort	-0.6434526
-4.297784	aorta	-0.30103
-4.820663	aortada	-0.30103
-4.996755	aortopulmoner	-0.30103
-4.121693	ap	-0.5797836
-4.695724	aparey	-0.60206
-4.820663	apartman	-0.30103
-4.820663	apartmanda	-0.30103
-4.598814	apartmanın	-0.30103
-4.695724	apaçık	-0.30103
-4.996755	apeks	-0.30103
-4.820663	apeksine	-0.4771213
-4.695724	apikal	-0.39794
-4.695724	apikoposterior	-0.60206
-4.695724	apne	-0.60206
-4.820663	appendiks	-0.4771213
-3.792634	aptal	-0.3601515
-4.695724	aptala	-0.30103
-4.394694	aptalca	-0.5228788
-4.996755	aptalcaydı	-0.30103
-4.820663	aptallar	-0.4771213
-4.996755	aptalları	-0.30103
-4.996755	aptallaşma	-0.30103
-4.996755	aptallık	-0.30103
-4.996755	aptallıktır	-0.30103
-4.996755	aptallığa	-0.30103
-4.598814	aptalım	-0.69897
-4.820663	aptalın	-0.30103
-4.996755	aptes	-0.30103
-4.996755	apteshaneleri	-0.30103
-4.996755	aptesliğin	-0.30103
-4.452686	ar	-0.30103
-3.534357	ara	-0.7911162
-3.850626	araba	-0.3273589
-4.820663	arabacı	-0.30103
-4.996755	arabacılık	-0.30103
-4.394694	arabada	-0.30103
-4.820663	arabadan	-0.4771213
-4.820663	arabadayım	-0.4771213
-4.452686	arabalar	-0.39794
-4.820663	arabalara	-0.30103
-4.996755	arabalarda	-0.30103
-4.996755	arabalardan	-0.30103
-4.598814	arabaların	-0.30103
-4.996755	arabalarının	-0.30103
-4.996755	arabalı	-0.30103
-4.695724	arabam	-0.30103
-4.996755	arabama	-0.30103
-4.996755	arabamız	-0.30103
-4.598814	araban	-0.30103
-4.996755	arabana	-0.30103
-4.394694	arabanı	-0.3802112
-4.452686	arabanın	-0.30103
-4.695724	arabası	-0.60206
-4.996755	arabasına	-0.30103
-4.996755	arabasını	-0.30103
-4.996755	arabasının	-0.30103
-4.343542	arabaya	-0.3309932
-4.394694	arabayı	-0.30103
-4.996755	aracılığıyla	-0.30103
-4.996755	aracıyım	-0.30103
-4.151657	arada	-0.3187588
-4.695724	aradaki	-0.30103
-4.394694	aradan	-0.3802113
-4.519633	aradı	-0.544068
-4.820663	aradılar	-0.4771213
-4.256392	aradım	-0.544068
-4.695724	aradın	-0.39794
-4.996755	aradınız	-0.30103
-4.820663	aradığı	-0.30103
-4.996755	aradığım	-0.30103
-4.996755	aradığımı	-0.30103
-4.695724	aradığın	-0.39794
-4.996755	aradığına	-0.30103
-4.820663	aradığını	-0.30103
-4.820663	aradığınız	-0.30103
-4.996755	arafattan	-0.30103
-4.695724	araladı	-0.39794
-4.695724	aralandı	-0.30103
-4.996755	araları	-0.30103
-4.996755	aralarına	-0.30103
-4.121693	aralarında	-0.30103
-4.820663	aralarından	-0.30103
-4.996755	aralarındaydı	-0.30103
-4.996755	aralayarak	-0.30103
-4.996755	aralnormal	-0.30103
-3.753716	aralık	-0.3215517
-4.996755	aralıka	-0.30103
-4.996755	aralıkla	-0.30103
-4.820663	aralıklarla	-0.30103
-4.019031	aralıkları	-0.60206
-4.695724	aralıklarının	-0.60206
-4.519633	aralıkta	-0.4259687
-4.996755	aralıktan	-0.30103
-4.996755	aralıktı	-0.30103
-4.996755	aralığa	-0.30103
-4.343542	aralığı	-0.5642715
-4.695724	aralığına	-0.30103
-4.820663	aralığında	-0.4771213
-4.996755	aralığından	-0.30103
-4.695724	arama	-0.30103
-4.996755	aramadı	-0.30103
-4.820663	aramadın	-0.4771213
-4.695724	aramak	-0.30103
-4.996755	aramakla	-0.30103
-4.996755	aramakta	-0.30103
-4.996755	aramaktan	-0.30103
-4.996755	aramalıydın	-0.30103
-4.996755	aramalıyım	-0.30103
-4.996755	aramamak	-0.30103
-4.996755	aramamı	-0.30103
-4.996755	aramanı	-0.30103
-4.996755	araması	-0.30103
-4.256392	aramaya	-0.4259687
-4.996755	aramayı	-0.30103
-4.820663	aramda	-0.30103
-4.996755	aramıyor	-0.30103
-4.996755	aramız	-0.30103
-4.256392	aramızda	-0.30103
-4.695724	aramızdaki	-0.39794
-4.996755	aramızı	-0.30103
-4.695724	aramış	-0.39794
-4.996755	aramışlar	-0.30103
-4.996755	aramıştınız	-0.30103
-4.996755	arandı	-0.30103
-4.996755	arandıktan	-0.30103
-4.820663	arandığı	-0.30103
-4.996755	aranırken	-0.30103
-4.996755	aranıyor	-0.30103
-4.996755	aranıza	-0.30103
-4.695724	arap	-0.30103
-4.695724	araplar	-0.30103
-4.996755	arapça	-0.30103
-4.996755	arapın	-0.30103
-4.394694	arar	-0.5228788
-4.820663	ararken	-0.30103
-4.996755	ararmış	-0.30103
-4.996755	ararsan	-0.30103
-4.695724	ararsın	-0.60206
-4.256392	ararım	-0.7781513
-4.695724	ararız	-0.60206
-4.996755	arasam	-0.30103
-4.343542	arası	-0.3309932
-4.218603	arasına	-0.30103
-3.534357	arasında	-0.3449354
-4.343542	arasındaki	-0.3309932
-4.121693	arasından	-0.3174204
-4.996755	arasındaydı	-0.30103
-4.996755	arattıracaktı	-0.30103
-4.996755	aratır	-0.30103
-4.996755	aravurgunun	-0.30103
-4.151657	araya	-0.3617278
-4.820663	arayacak	-0.30103
-4.820663	arayacaksın	-0.4771213
-4.996755	arayacaktı	-0.30103
-4.519633	arayacaktım	-0.7781513
-4.996755	arayacaktır	-0.30103
-4.452686	arayacağım	-0.845098
-4.996755	arayacağız	-0.30103
-4.695724	arayalım	-0.39794
-4.996755	arayamadık	-0.30103
-4.452686	arayan	-0.30103
-4.996755	arayanlar	-0.30103
-4.598814	arayın	-0.4771212
-4.996755	arayıncaya	-0.30103
-4.820663	arayıp	-0.30103
-4.996755	arazi	-0.30103
-4.820663	araç	-0.30103
-4.996755	araçlar	-0.30103
-4.996755	araçlarının	-0.30103
-4.996755	araştır	-0.30103
-4.996755	araştıracağım	-0.30103
-4.996755	araştırdım	-0.30103
-4.996755	araştırma	-0.30103
-4.996755	araştırmacılardan	-0.30103
-4.996755	araştırmak	-0.30103
-4.996755	araştırması	-0.30103
-4.820663	araştırmaya	-0.30103
-4.996755	araştırmışlar	-0.30103
-4.996755	araştırıcı	-0.30103
-4.996755	araştırınca	-0.30103
-4.996755	araştırır	-0.30103
-4.996755	araştırıyordum	-0.30103
-4.996755	araştırıyorum	-0.30103
-4.996755	araştırıyoruz	-0.30103
-4.996755	archie	-0.30103
-4.996755	arda	-0.30103
-4.996755	ardıcın	-0.30103
-4.996755	ardımdan	-0.30103
-4.519633	ardına	-0.30103
-4.996755	ardınca	-0.30103
-4.598814	ardında	-0.30103
-4.151657	ardından	-0.30103
-4.996755	ardıç	-0.30103
-4.996755	arefe	-0.30103
-4.996755	arenstorf	-0.30103
-4.996755	arif	-0.30103
-4.695724	arife	-0.39794
-4.996755	ario	-0.30103
-4.996755	aritmetikten	-0.30103
-4.695724	aritmi	-0.60206
-4.121693	arka	-0.3174204
-4.519633	arkada	-0.30103
-4.996755	arkadaki	-0.30103
-4.820663	arkadan	-0.30103
-3.835387	arkadaş	-0.3458423
-4.297784	arkadaşlar	-0.39794
-4.695724	arkadaşlardan	-0.30103
-4.996755	arkadaşlarla	-0.30103
-4.820663	arkadaşları	-0.30103
-4.394694	arkadaşlarım	-0.3802112
-4.996755	arkadaşlarımdan	-0.30103
-4.996755	arkadaşlarımın	-0.30103
-4.695724	arkadaşların	-0.30103
-4.695724	arkadaşlarına	-0.30103
-4.996755	arkadaşlarını	-0.30103
-4.820663	arkadaşlarının	-0.30103
-4.452686	arkadaşlık	-0.30103
-4.996755	arkadaşlığa	-0.30103
-4.996755	arkadaşlığından	-0.30103
-4.695724	arkadaştan	-0.39794
-4.996755	arkadaştı	-0.30103
-4.996755	arkadaştık	-0.30103
-4.996755	arkadaştılar	-0.30103
-4.996755	arkadaşça	-0.30103
-4.297784	arkadaşı	-0.327359
-3.835387	arkadaşım	-0.3933443
-4.996755	arkadaşımdan	-0.30103
-4.996755	arkadaşımdı	-0.30103
-4.820663	arkadaşımla	-0.30103
-4.996755	arkadaşımı	-0.30103
-4.519633	arkadaşımın	-0.30103
-4.256392	arkadaşın	-0.3853509
-4.519633	arkadaşına	-0.30103
-4.996755	arkadaşından	-0.30103
-4.598814	arkadaşını	-0.3679768
-4.820663	arkadaşınım	-0.4771213
-4.297784	arkadaşının	-0.30103
-4.996755	arkadaşınız	-0.30103
-4.996755	arkadaşıyla	-0.30103
-4.820663	arkadaşıyım	-0.4771213
-4.519633	arkadaşız	-0.544068
-4.996755	arkalarına	-0.30103
-4.695724	arkalarından	-0.30103
-4.996755	arkalı	-0.30103
-4.996755	arkam	-0.30103
-4.996755	arkama	-0.30103
-4.820663	arkamda	-0.30103
-4.297784	arkamdan	-0.30103
-4.996755	arkamı	-0.30103
-4.996755	arkamıza	-0.30103
-4.695724	arkamızda	-0.39794
-4.820663	arkamızdan	-0.30103
-4.695724	arkana	-0.30103
-4.996755	arkanda	-0.30103
-4.820663	arkandayım	-0.4771213
-4.452686	arkanı	-0.39794
-4.996755	arkanız	-0.30103
-4.996755	arkanıza	-0.30103
-4.695724	arkası	-0.30103
-3.899845	arkasına	-0.31037
-3.996755	arkasında	-0.3258536
-4.519633	arkasındaki	-0.30103
-4.996755	arkasındakilere	-0.30103
-3.850626	arkasından	-0.3180633
-4.996755	arkasındaydı	-0.30103
-4.121693	arkasını	-0.4074853
-4.256392	arkaya	-0.3245111
-4.996755	arkbaşında	-0.30103
-4.996755	arkus	-0.30103
-4.996755	arlanmaz	-0.30103
-4.820663	arlanır	-0.30103
-4.996755	armağanı	-0.30103
-4.695724	armudu	-0.30103
-4.519633	armudun	-0.3521825
-4.996755	armudunu	-0.30103
-4.996755	armut	-0.30103
-4.996755	arnavutlar	-0.30103
-4.695724	arnavutluk	-0.30103
-4.820663	arnavutlukta	-0.4771212
-4.996755	arnavuttur	-0.30103
-4.151657	arpa	-0.3617278
-4.996755	arpacıya	-0.30103
-4.996755	arpadan	-0.30103
-4.996755	arpaya	-0.30103
-4.996755	arsadaki	-0.30103
-4.996755	arsaya	-0.30103
-4.297784	arslan	-0.327359
-4.996755	arslana	-0.30103
-4.996755	arslandan	-0.30103
-4.598814	arsız	-0.30103
-4.996755	arsızın	-0.30103
-4.695724	art	-0.30103
-4.996755	artabilir	-0.30103
-4.598814	artan	-0.3679768
-4.820663	artar	-0.30103
-4.996755	artarak	-0.30103
-3.835387	arter	-0.5228787
-4.996755	artere	-0.30103
-4.820663	arterial	-0.4771213
-4.996755	arteriografi	-0.30103
-4.996755	arteriovenöz	-0.30103
-4.820663	arteriyal	-0.4771213
-4.695724	arteriyel	-0.39794
-4.343542	arterlerde	-0.3309932
-4.820663	arterleri	-0.30103
-4.996755	arterlerinde	-0.30103
-4.996755	arthur	-0.30103
-4.820663	artiküler	-0.4771213
-4.996755	artistleri	-0.30103
-4.695724	artması	-0.30103
-4.996755	artmaz	-0.30103
-4.695724	artmış	-0.30103
-4.996755	artmıştır	-0.30103
-4.394694	arttı	-0.6532125
-4.695724	arttıkça	-0.30103
-4.996755	arttırdı	-0.30103
-4.996755	artı	-0.30103
-3.00775	artık	-0.3740509
-4.820663	artımı	-0.4771212
-4.996755	artırarak	-0.30103
-4.695724	artırdı	-0.60206
-4.695724	artırır	-0.60206
-4.996755	artırıyordu	-0.30103
-4.695724	artıyor	-0.39794
-4.343542	artıyordu	-0.9542425
-4.996755	artığını	-0.30103
-4.452686	artış	-0.39794
-4.695724	artışları	-0.30103
-4.519633	artışı	-0.4259688
-4.996755	arz	-0.30103
-4.695724	arzu	-0.30103
-4.820663	arzular	-0.30103
-4.996755	arzuları	-0.30103
-4.996755	arzuların	-0.30103
-4.996755	arzularına	-0.30103
-4.996755	arzunuz	-0.30103
-4.695724	arzusu	-0.30103
-4.996755	arzusuna	-0.30103
-4.996755	arzusunda	-0.30103
-4.996755	arzusunu	-0.30103
-4.452686	arı	-0.3424227
-4.996755	arıca	-0.30103
-4.996755	arıdan	-0.30103
-4.519633	arık	-0.30103
-4.996755	arıklıkta	-0.30103
-4.996755	arılar	-0.30103
-4.183841	arıyor	-0.5314789
-4.996755	arıyordu	-0.30103
-4.394694	arıyordum	-0.90309
-4.695724	arıyordun	-0.60206
-4.820663	arıyorlar	-0.4771213
-4.996755	arıyormuş	-0.30103
-4.183841	arıyorsun	-0.69897
-4.519633	arıyorsunuz	-0.544068
-4.452686	arıyorum	-0.845098
-4.598814	arıyoruz	-0.69897
-4.996755	arşın	-0.30103
-4.695724	arşınına	-0.60206
-4.996755	asabidir	-0.30103
-4.996755	asabileşme	-0.30103
-4.996755	asalaklara	-0.30103
-4.996755	asansör	-0.30103
-4.996755	asansörde	-0.30103
-4.996755	asansörü	-0.30103
-4.996755	asarız	-0.30103
-4.996755	asayişten	-0.30103
-4.996755	asayım	-0.30103
-4.996755	asendan	-0.30103
-4.996755	asetabuler	-0.30103
-4.394694	asfalt	-0.30103
-4.996755	asfalta	-0.30103
-4.996755	asfaltı	-0.30103
-4.996755	asgari	-0.30103
-4.996755	ashdownun	-0.30103
-4.598814	asil	-0.30103
-4.996755	asilden	-0.30103
-4.996755	asildi	-0.30103
-4.996755	asildir	-0.30103
-4.996755	asimetrik	-0.30103
-4.695724	asistan	-0.30103
-4.996755	asistanlar	-0.30103
-4.996755	asistanımız	-0.30103
-4.996755	asistanıyla	-0.30103
-4.695724	asiye	-0.30103
-4.996755	asiyede	-0.30103
-4.394694	asiyenin	-0.30103
-4.996755	asiyeye	-0.30103
-4.519633	asiyeyi	-0.30103
-4.519633	asker	-0.544068
-4.820663	askerden	-0.30103
-4.996755	askerdeydim	-0.30103
-4.996755	askerdeyken	-0.30103
-4.996755	askere	-0.30103
-4.996755	askeri	-0.30103
-4.996755	askerin	-0.30103
-4.695724	askerler	-0.30103
-4.996755	askerleriyle	-0.30103
-4.996755	askerlik	-0.30103
-4.996755	askerlikle	-0.30103
-4.996755	askıdaki	-0.30103
-3.792634	asla	-0.3157532
-4.297784	aslan	-0.3273589
-4.996755	aslana	-0.30103
-4.996755	aslandan	-0.30103
-4.996755	aslanlar	-0.30103
-4.996755	aslanım	-0.30103
-4.996755	aslen	-0.30103
-4.598814	aslı	-0.30103
-4.996755	aslımız	-0.30103
-4.695724	aslına	-0.30103
-4.151657	aslında	-0.3388186
-4.695724	aslını	-0.30103
-4.996755	asma	-0.30103
-4.996755	asmadıklarına	-0.30103
-4.996755	asmadım	-0.30103
-4.820663	asmış	-0.4771213
-4.996755	aspirasyon	-0.30103
-4.996755	aspirinin	-0.30103
-4.820663	assendan	-0.4771213
-4.996755	astar	-0.30103
-4.996755	astragan	-0.30103
-4.996755	astronotları	-0.30103
-4.996755	asyanın	-0.30103
-4.996755	asıktı	-0.30103
-3.820663	asıl	-0.3168243
-4.996755	asılan	-0.30103
-4.996755	asıldı	-0.30103
-4.996755	asılmaz	-0.30103
-4.820663	asılmış	-0.30103
-4.996755	asılmıştı	-0.30103
-4.996755	asılsız	-0.30103
-4.820663	asılı	-0.30103
-4.820663	asılır	-0.4771213
-4.996755	asırda	-0.30103
-3.557422	at	-0.3533033
-3.936057	ata	-0.3222193
-4.695724	atacak	-0.30103
-4.996755	atacağı	-0.30103
-4.996755	atadan	-0.30103
-4.820663	atakları	-0.4771213
-4.996755	ataktı	-0.30103
-4.996755	atalar	-0.30103
-4.996755	ataların	-0.30103
-4.996755	atalete	-0.30103
-4.996755	atalım	-0.30103
-4.996755	atamamıştı	-0.30103
-4.996755	atamaz	-0.30103
-4.996755	atamazsın	-0.30103
-4.996755	atan	-0.30103
-4.996755	atanan	-0.30103
-4.996755	atanın	-0.30103
-4.996755	atar	-0.30103
-4.519633	atarak	-0.30103
-4.996755	atasını	-0.30103
-4.695724	atelektazik	-0.39794
-4.996755	atelektaziler	-0.30103
-4.820663	aterom	-0.4771213
-3.753716	ateş	-0.3539661
-4.452686	ateşe	-0.3424227
-4.343542	ateşi	-0.30103
-4.996755	ateşin	-0.30103
-4.996755	ateşkes	-0.30103
-4.820663	ateşledi	-0.30103
-4.996755	ateşledim	-0.30103
-4.996755	ateşleme	-0.30103
-4.996755	ateşlenerek	-0.30103
-4.996755	ateşler	-0.30103
-4.996755	ateşleyin	-0.30103
-4.695724	ateşli	-0.30103
-4.996755	ateşliydi	-0.30103
-4.820663	ateşte	-0.30103
-4.598814	ateşçi	-0.30103
-4.996755	ateşçilerine	-0.30103
-4.996755	ateşçinin	-0.30103
-4.996755	ateşçiyi	-0.30103
-4.996755	atfediliyor	-0.30103
-4.996755	atipik	-0.30103
-4.598814	atla	-0.4771212
-4.452686	atladı	-0.845098
-4.996755	atladık	-0.30103
-4.996755	atladığım	-0.30103
-4.996755	atlamak	-0.30103
-4.996755	atlamaktan	-0.30103
-4.996755	atlamaya	-0.30103
-4.996755	atlamayı	-0.30103
-4.996755	atlamazsan	-0.30103
-4.996755	atlamıştı	-0.30103
-4.820663	atlantik	-0.30103
-4.996755	atlantikin	-0.30103
-4.996755	atlantikteki	-0.30103
-4.996755	atlantikten	-0.30103
-4.519633	atlar	-0.3521825
-4.820663	atları	-0.30103
-4.996755	atlarımızı	-0.30103
-4.452686	atlas	-0.3424227
-4.996755	atlatana	-0.30103
-4.996755	atlatma	-0.30103
-4.996755	atlatmak	-0.30103
-4.996755	atlatmaktan	-0.30103
-4.996755	atlattı	-0.30103
-4.996755	atlatırım	-0.30103
-4.820663	atlatıyor	-0.4771212
-4.820663	atlayacak	-0.30103
-4.996755	atlayacağım	-0.30103
-4.519633	atlayarak	-0.3521825
-4.996755	atlayınca	-0.30103
-4.695724	atlayıp	-0.30103
-4.695724	atlı	-0.30103
-4.695724	atlılar	-0.30103
-4.820663	atlıya	-0.30103
-4.996755	atlıyordum	-0.30103
-4.598814	atma	-0.3679768
-4.598814	atmaca	-0.30103
-4.820663	atmacanın	-0.30103
-4.996755	atmaca’ya	-0.30103
-4.996755	atmadan	-0.30103
-4.996755	atmadım	-0.30103
-4.695724	atmak	-0.30103
-4.996755	atmaktan	-0.30103
-4.996755	atmamalı	-0.30103
-4.598814	atmaya	-0.4771212
-4.996755	atmıyoruz	-0.30103
-4.695724	atmış	-0.30103
-4.598814	atmışlar	-0.3679768
-4.695724	atmıştı	-0.39794
-4.996755	atmışız	-0.30103
-4.996755	atrial	-0.30103
-4.297784	atriyum	-0.4471581
-4.996755	atsa	-0.30103
-4.996755	atsan	-0.30103
-4.598814	atta	-0.30103
-4.452686	attan	-0.3424227
-3.835387	attı	-0.69897
-4.996755	attıkları	-0.30103
-4.820663	attıktan	-0.4771212
-4.996755	attılar	-0.30103
-4.394694	attım	-0.5228788
-4.996755	attırmak	-0.30103
-4.996755	attığım	-0.30103
-4.695724	attığın	-0.39794
-4.996755	atölyeleri	-0.30103
-4.151657	atı	-0.3388186
-4.996755	atıcı	-0.30103
-4.996755	atıdır	-0.30103
-4.996755	atılacak	-0.30103
-4.996755	atılacaktı	-0.30103
-4.996755	atılacaktım	-0.30103
-4.598814	atılan	-0.30103
-4.996755	atılarak	-0.30103
-4.452686	atıldı	-0.3424227
-4.996755	atıldılar	-0.30103
-4.695724	atıldım	-0.39794
-4.996755	atıldığı	-0.30103
-4.996755	atılmasına	-0.30103
-4.820663	atılmış	-0.30103
-4.996755	atılmıştı	-0.30103
-4.996755	atılmıştım	-0.30103
-4.820663	atılıp	-0.30103
-4.996755	atılıyor	-0.30103
-4.996755	atılıyorlardı	-0.30103
-4.820663	atım	-0.30103
-4.820663	atımı	-0.30103
-4.996755	atımın	-0.30103
-3.996755	atın	-0.3553877
-4.820663	atına	-0.30103
-4.820663	atınca	-0.30103
-4.695724	atıp	-0.30103
-4.519633	atıyor	-0.4259687
-4.519633	atıyordu	-0.7781513
-4.996755	atıyorsun	-0.30103
-4.996755	atış	-0.30103
-4.820663	augmentasyon	-0.4771212
-4.996755	augsburg	-0.30103
-4.996755	authorware	-0.30103
-4.598814	av	-0.30103
-4.598814	ava	-0.30103
-4.996755	avantanın	-0.30103
-4.996755	avantayı	-0.30103
-4.695724	avarya	-0.30103
-4.820663	avasküler	-0.4771213
-4.256392	avaz	-0.4259687
-4.996755	avazları	-0.30103
-4.820663	avazı	-0.4771213
-4.996755	avcumda	-0.30103
-4.996755	avcunun	-0.30103
-4.820663	avcı	-0.30103
-4.996755	avcılar	-0.30103
-4.996755	avcının	-0.30103
-4.996755	avda	-0.30103
-4.996755	avdan	-0.30103
-4.996755	avdettir	-0.30103
-4.996755	avizeler	-0.30103
-4.820663	avlanmaz	-0.4771213
-4.996755	avlanmış	-0.30103
-4.820663	avlanır	-0.4771213
-4.996755	avlar	-0.30103
-4.996755	avlayanın	-0.30103
-4.996755	avluda	-0.30103
-4.996755	avlusunda	-0.30103
-4.996755	avluya	-0.30103
-4.067336	avni	-0.3679768
-4.452686	avninin	-0.30103
-4.996755	avniye	-0.30103
-4.598814	avradı	-0.30103
-4.695724	avradın	-0.39794
-3.850626	avrat	-0.3710679
-4.820663	avratlar	-0.30103
-4.996755	avratta	-0.30103
-4.996755	avrattan	-0.30103
-4.067336	avro	-0.3899711
-4.996755	avroluk	-0.30103
-4.598814	avroya	-0.30103
-4.996755	avroyu	-0.30103
-4.519633	avrupa	-0.30103
-4.820663	avrupada	-0.30103
-4.996755	avrupalı	-0.30103
-4.996755	avuca	-0.30103
-4.598814	avucumun	-0.4771213
-4.820663	avucunda	-0.30103
-4.996755	avucundaki	-0.30103
-4.996755	avucundakini	-0.30103
-4.996755	avucunun	-0.30103
-4.996755	avucuyla	-0.30103
-4.695724	avukat	-0.30103
-4.996755	avukatla	-0.30103
-4.996755	avukatlar	-0.30103
-4.996755	avukatlığını	-0.30103
-4.996755	avukatsın	-0.30103
-4.996755	avukatım	-0.30103
-4.996755	avukatımı	-0.30103
-4.996755	avukatın	-0.30103
-4.996755	avustralya	-0.30103
-4.996755	avustralyadaki	-0.30103
-4.996755	avustralya’daki	-0.30103
-4.996755	avusturyalı	-0.30103
-4.996755	avutan	-0.30103
-4.519633	avuç	-0.3521825
-4.996755	avuçlarıma	-0.30103
-4.820663	avuçlarımın	-0.4771213
-4.996755	avuçlarına	-0.30103
-4.996755	avı	-0.30103
-4.996755	avımı	-0.30103
-4.996755	avına	-0.30103
-4.996755	avından	-0.30103
-4.996755	axillada	-0.30103
-3.590214	ay	-0.3713175
-4.996755	aya	-0.30103
-3.850626	ayak	-0.3710679
-4.695724	ayakkabı	-0.30103
-4.996755	ayakkabılan	-0.30103
-4.820663	ayakkabılarım	-0.30103
-4.996755	ayakkabım	-0.30103
-4.996755	ayakkaplarının	-0.30103
-4.996755	ayaklan	-0.30103
-4.820663	ayaklar	-0.30103
-4.996755	ayaklarda	-0.30103
-4.343542	ayakları	-0.3309932
-4.996755	ayaklarım	-0.30103
-4.695724	ayaklarımı	-0.30103
-4.820663	ayaklarımızın	-0.30103
-4.820663	ayaklarına	-0.30103
-4.996755	ayaklarında	-0.30103
-4.820663	ayaklarından	-0.30103
-4.452686	ayaklarını	-0.30103
-4.519633	ayaklarının	-0.3521825
-4.996755	ayaklarınızın	-0.30103
-4.820663	ayaklarıyla	-0.30103
-4.042512	ayakta	-0.49485
-4.996755	ayaktaydım	-0.30103
-4.996755	ayakucunda	-0.30103
-4.996755	ayakucunu	-0.30103
-4.996755	ayalimi	-0.30103
-4.996755	ayanı	-0.30103
-4.996755	ayardadır	-0.30103
-4.996755	ayarladım	-0.30103
-4.996755	ayarladın	-0.30103
-4.996755	ayarlanarak	-0.30103
-4.820663	ayarlandı	-0.4771213
-4.996755	ayarlarım	-0.30103
-4.996755	ayarlarız	-0.30103
-4.996755	ayarlayabilirim	-0.30103
-4.996755	ayartılmamıza	-0.30103
-4.996755	ayaza	-0.30103
-4.695724	ayazda	-0.30103
-3.866421	ayağa	-0.3744589
-4.343542	ayağı	-0.3309932
-4.996755	ayağım	-0.30103
-4.996755	ayağıma	-0.30103
-4.996755	ayağımda	-0.30103
-4.996755	ayağımla	-0.30103
-4.996755	ayağımın	-0.30103
-4.695724	ayağın	-0.30103
-4.695724	ayağına	-0.30103
-4.695724	ayağında	-0.30103
-4.996755	ayağındaki	-0.30103
-4.695724	ayağından	-0.30103
-4.343542	ayağını	-0.30103
-4.598814	ayağının	-0.30103
-4.996755	ayağınızın	-0.30103
-4.820663	ayağıyla	-0.30103
-4.343542	ayda	-0.4149733
-4.820663	aydan	-0.30103
-4.996755	aydında	-0.30103
-4.996755	aydınlanmak	-0.30103
-4.996755	aydınlanması	-0.30103
-4.820663	aydınlanmaya	-0.30103
-4.996755	aydınlanıyorduk	-0.30103
-4.996755	aydınlatarak	-0.30103
-4.996755	aydınlatayım	-0.30103
-4.820663	aydınlatmıştı	-0.4771213
-4.695724	aydınlattığı	-0.30103
-4.996755	aydınlatıldı	-0.30103
-4.996755	aydınlatılmaya	-0.30103
-4.996755	aydınlatılmış	-0.30103
-4.820663	aydınlatıyordu	-0.4771213
-4.452686	aydınlık	-0.30103
-4.820663	aydınlıktı	-0.4771213
-4.996755	aydınlığa	-0.30103
-4.996755	aydınlığın	-0.30103
-4.695724	aydır	-0.30103
-4.996755	ayin	-0.30103
-4.996755	aykırı	-0.30103
-4.996755	aylakçılığa	-0.30103
-4.996755	aylakçının	-0.30103
-4.452686	aylar	-0.30103
-4.996755	aylarca	-0.30103
-4.695724	aylardan	-0.60206
-4.996755	aylardır	-0.30103
-4.996755	ayların	-0.30103
-4.598814	aylık	-0.3679768
-4.695724	ayna	-0.39794
-4.820663	aynada	-0.30103
-4.820663	aynadaki	-0.30103
-4.996755	aynalı	-0.30103
-4.996755	aynanın	-0.30103
-4.996755	aynası	-0.30103
-4.996755	aynasıdır	-0.30103
-4.996755	aynasında	-0.30103
-4.996755	aynaya	-0.30103
-4.042512	aynen	-0.4313637
-3.284947	aynı	-0.4181434
-4.996755	aynısı	-0.30103
-4.996755	aynısını	-0.30103
-4.820663	aynıyız	-0.4771213
-4.996755	ayol	-0.30103
-4.121693	ayran	-0.3802112
-4.996755	ayrandan	-0.30103
-4.996755	ayrandır	-0.30103
-4.996755	ayranlarına	-0.30103
-4.820663	ayranı	-0.30103
-4.820663	ayranım	-0.30103
-4.996755	ayranın	-0.30103
-4.996755	ayranını	-0.30103
-4.256392	ayrı	-0.3245111
-3.955362	ayrıca	-0.30103
-4.820663	ayrıl	-0.4771213
-4.996755	ayrılacak	-0.30103
-4.996755	ayrılalı	-0.30103
-4.996755	ayrılalım	-0.30103
-4.996755	ayrılamadığı	-0.30103
-4.996755	ayrılamam	-0.30103
-4.695724	ayrılan	-0.30103
-4.996755	ayrılanı	-0.30103
-4.519633	ayrıldı	-0.544068
-4.519633	ayrıldık	-0.7781513
-4.820663	ayrıldılar	-0.30103
-4.519633	ayrıldım	-0.7781513
-4.996755	ayrıldınız	-0.30103
-4.996755	ayrıldığımız	-0.30103
-4.820663	ayrılma	-0.4771213
-4.996755	ayrılmadım	-0.30103
-4.996755	ayrılmadığımız	-0.30103
-4.519633	ayrılmak	-0.30103
-4.996755	ayrılmanı	-0.30103
-4.996755	ayrılmanın	-0.30103
-4.996755	ayrılması	-0.30103
-4.996755	ayrılmasıyla	-0.30103
-4.820663	ayrılmayalım	-0.30103
-4.996755	ayrılmayın	-0.30103
-4.452686	ayrılmış	-0.30103
-4.820663	ayrılık	-0.30103
-4.820663	ayrılın	-0.4771213
-4.996755	ayrılınca	-0.30103
-4.820663	ayrılıp	-0.30103
-4.820663	ayrılır	-0.4771213
-4.996755	ayrılıyor	-0.30103
-4.996755	ayrılıyorlar	-0.30103
-4.996755	ayrılıyorsun	-0.30103
-4.996755	ayrılıyorum	-0.30103
-4.996755	ayrılıyoruz	-0.30103
-4.996755	ayrımcılık	-0.30103
-4.996755	ayrımız	-0.30103
-4.996755	ayrıntılar	-0.30103
-4.598814	ayrıntılı	-0.30103
-4.996755	ayrıydılar	-0.30103
-4.820663	ayva	-0.30103
-4.996755	ayvanın	-0.30103
-4.996755	ayvayı	-0.30103
-4.996755	ayvaz	-0.30103
-4.996755	ayyar	-0.30103
-3.996755	ayı	-0.3553877
-4.996755	ayıbı	-0.30103
-4.996755	ayıbını	-0.30103
-4.996755	ayık	-0.30103
-4.598814	ayılar	-0.3679768
-4.598814	ayın	-0.30103
-4.820663	ayına	-0.4771213
-4.598814	ayında	-0.3679768
-4.820663	ayının	-0.30103
-4.297784	ayıp	-0.60206
-4.996755	ayıpsın	-0.30103
-4.996755	ayıpsız	-0.30103
-4.820663	ayıptır	-0.4771213
-4.996755	ayır	-0.30103
-4.996755	ayırabiliyordu	-0.30103
-4.996755	ayıracağından	-0.30103
-4.996755	ayıramadım	-0.30103
-4.996755	ayıramıyordu	-0.30103
-4.996755	ayıran	-0.30103
-4.820663	ayırana	-0.30103
-4.598814	ayırdedilmemiştir	-0.69897
-4.820663	ayırdığınız	-0.4771213
-4.996755	ayırmadan	-0.30103
-4.598814	ayırmak	-0.30103
-4.996755	ayırmamaya	-0.30103
-4.695724	ayırmaya	-0.30103
-4.996755	ayırmayan	-0.30103
-4.996755	ayırmayarak	-0.30103
-4.996755	ayırmış	-0.30103
-4.093665	ayırt	-0.9294189
-4.996755	ayırıyordu	-0.30103
-4.996755	ayırıyorduk	-0.30103
-4.996755	ayıyı	-0.30103
-4.820663	ayşe	-0.30103
-3.428553	az	-0.4247332
-4.820663	aza	-0.30103
-4.996755	azabı	-0.30103
-4.996755	azabını	-0.30103
-4.996755	azalarının	-0.30103
-4.820663	azaldı	-0.4771213
-4.820663	azaldığını	-0.30103
-4.996755	azalmayan	-0.30103
-4.820663	azalmış	-0.30103
-4.996755	azalsın	-0.30103
-4.996755	azaltacaktım	-0.30103
-4.996755	azalttılar	-0.30103
-4.996755	azaltılacak	-0.30103
-4.996755	azalınca	-0.30103
-4.996755	azalırken	-0.30103
-4.820663	azalıyor	-0.30103
-4.996755	azalıyordu	-0.30103
-4.996755	azameti	-0.30103
-4.996755	azan	-0.30103
-4.519633	azap	-0.30103
-4.996755	azapları	-0.30103
-4.996755	azaptan	-0.30103
-4.996755	azar	-0.30103
-4.996755	azarladı	-0.30103
-4.996755	azarlayarak	-0.30103
-4.996755	azarmış	-0.30103
-4.996755	azasından	-0.30103
-4.996755	azdan	-0.30103
-4.996755	azdır	-0.30103
-4.996755	azgını	-0.30103
-4.820663	azime	-0.30103
-4.996755	azitromisin	-0.30103
-4.996755	aziz	-0.30103
-4.996755	azizdir	-0.30103
-4.996755	azizim	-0.30103
-4.996755	azlıkta	-0.30103
-4.996755	azlıktılar	-0.30103
-4.996755	azmaz	-0.30103
-4.996755	azmetmişti	-0.30103
-4.996755	azmettiniz	-0.30103
-4.996755	azmışlardı	-0.30103
-4.996755	azraili	-0.30103
-4.598814	azı	-0.3679768
-4.218603	azıcık	-0.30103
-4.996755	azık	-0.30103
-4.996755	azılı	-0.30103
-4.996755	azımsayıp	-0.30103
-4.598814	azından	-0.30103
-4.996755	azınlık	-0.30103
-4.820663	azınlıklara	-0.30103
-4.996755	azınlıklardan	-0.30103
-4.996755	azıtıyordu	-0.30103
-3.434462	aç	-0.4272294
-4.820663	aça	-0.30103
-4.996755	açabilecek	-0.30103
-4.695724	açabilir	-0.39794
-4.996755	açabilirsin	-0.30103
-4.996755	açabiliyorlardı	-0.30103
-4.598814	açacak	-0.3679768
-4.996755	açacaksın	-0.30103
-4.996755	açacaktım	-0.30103
-4.996755	açalım	-0.30103
-4.996755	açamadım	-0.30103
-4.452686	açan	-0.39794
-4.218603	açar	-0.50515
-4.452686	açarak	-0.30103
-4.996755	açarlar	-0.30103
-4.996755	açarım	-0.30103
-4.996755	açlardan	-0.30103
-4.598814	açlık	-0.3679768
-4.452686	açlıktan	-0.3424227
-4.996755	açlığı	-0.30103
-4.820663	açma	-0.4771213
-4.996755	açmadan	-0.30103
-4.996755	açmadı	-0.30103
-4.996755	açmadık	-0.30103
-4.996755	açmadım	-0.30103
-4.996755	açmadığını	-0.30103
-4.820663	açmak	-0.30103
-4.996755	açmalısın	-0.30103
-4.996755	açmama	-0.30103
-4.996755	açması	-0.30103
-4.996755	açmaya	-0.30103
-4.996755	açmayı	-0.30103
-4.820663	açmaz	-0.30103
-4.996755	açmıyor	-0.30103
-4.996755	açmıyordu	-0.30103
-4.996755	açmıyorsun	-0.30103
-4.820663	açmış	-0.30103
-4.820663	açmıştı	-0.30103
-3.835387	açtı	-0.6139592
-4.996755	açtıkça	-0.30103
-4.695724	açtılar	-0.39794
-4.256392	açtım	-0.544068
-4.820663	açtın	-0.30103
-4.996755	açtınız	-0.30103
-4.996755	açtırdı	-0.30103
-4.996755	açtırmıyor	-0.30103
-4.820663	açtığı	-0.30103
-4.996755	açtığım	-0.30103
-4.996755	açtığın	-0.30103
-4.996755	açtığını	-0.30103
-4.598814	açı	-0.4771212
-4.598814	açıdan	-0.3679768
-3.534357	açık	-0.4049261
-4.996755	açıkgözlük	-0.30103
-4.996755	açıkla	-0.30103
-4.996755	açıkladı	-0.30103
-4.394694	açıklama	-0.3802113
-4.695724	açıklamak	-0.30103
-4.996755	açıklamama	-0.30103
-4.996755	açıklamana	-0.30103
-4.519633	açıklaması	-0.4259687
-4.996755	açıklamaya	-0.30103
-4.598814	açıklanacak	-0.69897
-4.996755	açıklanmamışlar	-0.30103
-4.996755	açıklayabilir	-0.30103
-4.996755	açıklayabilirim	-0.30103
-4.996755	açıklayacak	-0.30103
-4.996755	açıklayacaksın	-0.30103
-4.996755	açıklayacağım	-0.30103
-4.695724	açıklayayım	-0.60206
-4.996755	açıklayın	-0.30103
-4.996755	açıklıkla	-0.30103
-4.996755	açıklığa	-0.30103
-4.996755	açıkmış	-0.30103
-4.695724	açıkta	-0.30103
-4.996755	açıktan	-0.30103
-4.996755	açıktayım	-0.30103
-4.695724	açıktı	-0.39794
-3.936057	açıktır	-1.361728
-4.343542	açıkça	-0.30103
-4.820663	açıkçası	-0.30103
-4.996755	açılacak	-0.30103
-4.996755	açılacağı	-0.30103
-4.297784	açılan	-0.30103
-4.996755	açılar	-0.30103
-4.820663	açılarak	-0.30103
-4.019031	açıldı	-1
-4.996755	açıldıktan	-0.30103
-4.820663	açıldığı	-0.4771212
-4.996755	açıldığını	-0.30103
-4.996755	açılma	-0.30103
-4.996755	açılmamıştı	-0.30103
-4.820663	açılması	-0.30103
-4.996755	açılmasına	-0.30103
-4.996755	açılmasını	-0.30103
-4.695724	açılmaya	-0.30103
-4.820663	açılmaz	-0.30103
-4.996755	açılmıyordu	-0.30103
-4.996755	açılmış	-0.30103
-4.695724	açılmıştı	-0.60206
-4.996755	açılsın	-0.30103
-4.996755	açılı	-0.30103
-4.093665	açılımı	-0.7781512
-4.820663	açılın	-0.4771213
-4.996755	açılınca	-0.30103
-4.519633	açılır	-0.30103
-4.996755	açılırsın	-0.30103
-4.996755	açılırım	-0.30103
-4.820663	açılıyor	-0.4771213
-4.996755	açılıyordu	-0.30103
-4.996755	açılış	-0.30103
-4.996755	açılışında	-0.30103
-4.996755	açılışının	-0.30103
-4.598814	açım	-0.69897
-4.218603	açın	-0.4101745
-4.183841	açıp	-0.3203351
-4.256392	açısından	-0.4259687
-4.695724	açıyor	-0.30103
-4.996755	açıyorlardı	-0.30103
-4.820663	açız	-0.4771213
-4.820663	açığa	-0.30103
-4.996755	açışında	-0.30103
-4.996755	ağ	-0.30103
-3.820663	ağa	-0.3087168
-4.695724	ağabey	-0.30103
-4.343542	ağaca	-0.4149733
-4.297784	ağacı	-0.3590219
-4.695724	ağacın	-0.30103
-4.996755	ağacına	-0.30103
-4.452686	ağacından	-0.30103
-4.996755	ağacını	-0.30103
-4.820663	ağacının	-0.30103
-4.996755	ağacığım	-0.30103
-4.996755	ağada	-0.30103
-4.996755	ağaların	-0.30103
-4.996755	ağalık	-0.30103
-4.996755	ağam	-0.30103
-4.996755	ağan	-0.30103
-4.343542	ağanın	-0.3309932
-4.996755	ağaran	-0.30103
-4.996755	ağarasım	-0.30103
-4.996755	ağartır	-0.30103
-4.996755	ağarınca	-0.30103
-4.996755	ağarırken	-0.30103
-4.996755	ağasının	-0.30103
-4.996755	ağaya	-0.30103
-3.975565	ağaç	-0.3521825
-4.598814	ağaçlar	-0.30103
-4.996755	ağaçlardan	-0.30103
-4.996755	ağaçlarla	-0.30103
-4.820663	ağaçları	-0.30103
-4.996755	ağaçlarımızı	-0.30103
-4.519633	ağaçların	-0.3521825
-4.996755	ağaçlarını	-0.30103
-4.820663	ağaçlarının	-0.30103
-4.820663	ağaçlı	-0.30103
-4.996755	ağaçlık	-0.30103
-4.820663	ağaçsız	-0.30103
-4.996755	ağaçta	-0.30103
-4.598814	ağaçtan	-0.30103
-4.996755	ağla	-0.30103
-4.598814	ağladı	-0.69897
-4.996755	ağladın	-0.30103
-4.820663	ağladığını	-0.30103
-4.452686	ağlama	-0.39794
-4.598814	ağlamak	-0.30103
-4.996755	ağlamakla	-0.30103
-4.996755	ağlamaklı	-0.30103
-4.996755	ağlamaktır	-0.30103
-4.996755	ağlamalar	-0.30103
-4.996755	ağlamaları	-0.30103
-4.996755	ağlamalarım	-0.30103
-4.996755	ağlamamış	-0.30103
-4.996755	ağlamanın	-0.30103
-4.996755	ağlamasınlar	-0.30103
-4.519633	ağlamaya	-0.544068
-4.996755	ağlamayan	-0.30103
-4.820663	ağlamaz	-0.30103
-4.996755	ağlamışsın	-0.30103
-4.996755	ağlanabileceğini	-0.30103
-4.452686	ağlar	-0.3424227
-4.996755	ağlardı	-0.30103
-4.996755	ağlarsa	-0.30103
-4.996755	ağlarsın	-0.30103
-4.996755	ağlarım	-0.30103
-4.820663	ağlasın	-0.30103
-4.996755	ağlatan	-0.30103
-4.996755	ağlatıcı	-0.30103
-4.598814	ağlatır	-0.30103
-4.452686	ağlaya	-0.39794
-4.996755	ağlayacak	-0.30103
-4.996755	ağlayacaktı	-0.30103
-4.519633	ağlayan	-0.30103
-4.820663	ağlayarak	-0.30103
-4.820663	ağlayıp	-0.30103
-4.996755	ağlayış	-0.30103
-4.996755	ağlaşarak	-0.30103
-4.343542	ağlıyor	-0.3309932
-4.256392	ağlıyordu	-1.041393
-4.996755	ağlıyordum	-0.30103
-4.996755	ağlıyordun	-0.30103
-4.996755	ağlıyorsun	-0.30103
-4.996755	ağlıyorum	-0.30103
-4.996755	ağnamış	-0.30103
-4.996755	ağrılar	-0.30103
-4.996755	ağrılarda	-0.30103
-4.996755	ağrıları	-0.30103
-4.598814	ağrımaya	-0.4771213
-4.996755	ağrın	-0.30103
-4.996755	ağrırsa	-0.30103
-4.218603	ağrısı	-0.3467875
-4.820663	ağrısız	-0.4771213
-4.695724	ağrıtır	-0.60206
-4.996755	ağrıtıyordu	-0.30103
-4.996755	ağrıya	-0.30103
-4.996755	ağrıyana	-0.30103
-4.343542	ağrıyor	-0.69897
-4.598814	ağustosta	-0.30103
-4.996755	ağustostan	-0.30103
-4.695724	ağustosun	-0.30103
-4.996755	ağza	-0.30103
-4.183841	ağzı	-0.3424227
-4.820663	ağzım	-0.30103
-4.996755	ağzıma	-0.30103
-4.452686	ağzımdan	-0.30103
-4.695724	ağzımı	-0.30103
-4.820663	ağzımın	-0.30103
-4.996755	ağzımızı	-0.30103
-4.695724	ağzın	-0.30103
-4.121693	ağzına	-0.3174204
-4.695724	ağzında	-0.30103
-4.151657	ağzından	-0.3388186
-3.996755	ağzını	-0.3258536
-4.695724	ağzının	-0.30103
-4.820663	ağzıyla	-0.30103
-4.996755	ağıl	-0.30103
-4.996755	ağılda	-0.30103
-3.320061	ağır	-0.4279032
-4.996755	ağırbaşlı	-0.30103
-4.996755	ağırdan	-0.30103
-4.996755	ağırdı	-0.30103
-4.820663	ağırdır	-0.4771213
-4.996755	ağırlaması	-0.30103
-4.996755	ağırlanmaz	-0.30103
-4.695724	ağırlar	-0.60206
-4.996755	ağırlaşarak	-0.30103
-4.996755	ağırlaşmıştı	-0.30103
-4.996755	ağırlaşıverdi	-0.30103
-4.695724	ağırlık	-0.30103
-4.598814	ağırlıklı	-0.4771213
-4.996755	ağırlıktan	-0.30103
-4.820663	ağırlığı	-0.30103
-4.820663	ağırlığıyla	-0.30103
-4.996755	ağırıma	-0.30103
-4.297784	ağız	-0.30103
-4.996755	ağızda	-0.30103
-4.820663	ağızdan	-0.30103
-4.996755	ağızlarına	-0.30103
-4.996755	ağızlarını	-0.30103
-4.996755	ağızlarıyla	-0.30103
-4.067336	aş	-0.3309932
-4.598814	aşa	-0.30103
-4.996755	aşama	-0.30103
-4.996755	aşamaya	-0.30103
-4.996755	aşan	-0.30103
-4.695724	aşar	-0.39794
-3.695724	aşağı	-0.3537363
-4.183841	aşağıda	-0.30103
-4.996755	aşağıdaki	-0.30103
-4.996755	aşağıdalar	-0.30103
-4.598814	aşağıdan	-0.3679768
-4.996755	aşağılarda	-0.30103
-4.343542	aşağılık	-0.3679768
-4.996755	aşağılıklığını	-0.30103
-4.996755	aşağısı	-0.30103
-4.996755	aşağısındaki	-0.30103
-3.917573	aşağıya	-0.3444957
-4.996755	aşağıyı	-0.30103
-4.996755	aşikârede	-0.30103
-4.042512	aşk	-0.3631779
-4.598814	aşka	-0.30103
-4.820663	aşkla	-0.30103
-4.996755	aşkları	-0.30103
-4.996755	aşkolsun	-0.30103
-4.695724	aşkım	-0.39794
-4.996755	aşkımı	-0.30103
-4.394694	aşkın	-0.3357921
-4.452686	aşkına	-0.4771212
-4.996755	aşkındır	-0.30103
-4.996755	aşkını	-0.30103
-4.996755	aşla	-0.30103
-4.996755	aşmada	-0.30103
-4.996755	aşmayan	-0.30103
-4.996755	aşmış	-0.30103
-4.996755	aştıkları	-0.30103
-4.996755	aştım	-0.30103
-4.996755	aşure	-0.30103
-4.297784	aşı	-0.327359
-4.297784	aşık	-0.30103
-4.695724	aşıktım	-0.60206
-4.820663	aşım	-0.30103
-4.996755	aşıma	-0.30103
-4.820663	aşına	-0.30103
-4.996755	aşından	-0.30103
-4.996755	aşınmaz	-0.30103
-4.820663	aşını	-0.30103
-4.695724	aşıp	-0.30103
-4.695724	aşırı	-0.30103
-4.996755	aşırır	-0.30103
-4.996755	aşıyla	-0.30103
-4.695724	aşığın	-0.30103
-4.996755	aşığız	-0.30103
-3.573509	baba	-0.4885507
-4.297784	babacığım	-0.5118834
-4.820663	babadan	-0.30103
-4.996755	babalarımızın	-0.30103
-3.835387	babam	-0.3458423
-4.996755	babama	-0.30103
-4.820663	babamdan	-0.30103
-4.820663	babamla	-0.30103
-4.519633	babamı	-0.30103
-4.695724	babamın	-0.30103
-4.996755	babamız	-0.30103
-3.917573	baban	-0.4036923
-4.519633	babana	-0.3521825
-4.820663	babanla	-0.30103
-4.695724	babanı	-0.30103
-4.820663	babanım	-0.4771213
-4.820663	babanın	-0.30103
-4.820663	babanız	-0.30103
-3.996755	babası	-0.3553877
-4.598814	babasına	-0.30103
-4.695724	babasından	-0.30103
-4.598814	babasını	-0.30103
-4.598814	babasının	-0.30103
-4.996755	babasısın	-0.30103
-4.996755	babasıyla	-0.30103
-4.695724	babaya	-0.30103
-4.820663	babayiğit	-0.30103
-4.695724	babayı	-0.39794
-4.996755	babayım	-0.30103
-4.996755	baca	-0.30103
-4.695724	bacadan	-0.39794
-4.695724	bacak	-0.39794
-4.996755	bacakları	-0.30103
-4.996755	bacaklarımda	-0.30103
-4.820663	bacaklarımı	-0.30103
-4.996755	bacaklarımın	-0.30103
-4.695724	bacaklarına	-0.30103
-4.996755	bacaklarında	-0.30103
-4.820663	bacaklarını	-0.30103
-4.996755	bacanağından	-0.30103
-4.820663	bacası	-0.30103
-4.820663	bacağı	-0.30103
-4.996755	bacağım	-0.30103
-4.996755	bacağımı	-0.30103
-4.598814	bacağından	-0.3679768
-4.996755	bacısını	-0.30103
-4.996755	badana	-0.30103
-4.996755	badem	-0.30103
-4.996755	badnikte	-0.30103
-4.394694	bahane	-0.3357921
-4.996755	bahaneler	-0.30103
-4.996755	bahanen	-0.30103
-4.996755	bahanesini	-0.30103
-4.996755	bahaneyle	-0.30103
-4.598814	bahar	-0.30103
-4.996755	baharda	-0.30103
-4.996755	bahardan	-0.30103
-4.820663	baharı	-0.30103
-4.996755	bahasına	-0.30103
-4.996755	bahayla	-0.30103
-4.996755	bahislerinizi	-0.30103
-4.598814	bahse	-0.3679768
-4.996755	bahsedebilir	-0.30103
-4.996755	bahsedeceklerdir	-0.30103
-4.996755	bahsedeceksin	-0.30103
-4.820663	bahsedeceğim	-0.4771213
-4.820663	bahseden	-0.30103
-4.996755	bahsederken	-0.30103
-4.996755	bahsederlerdi	-0.30103
-4.996755	bahsederlerken	-0.30103
-4.996755	bahsedildi	-0.30103
-4.996755	bahsedilir	-0.30103
-4.820663	bahsediyor	-0.4771213
-4.996755	bahsediyordu	-0.30103
-4.996755	bahsediyordum	-0.30103
-4.996755	bahsediyorlar	-0.30103
-4.394694	bahsediyorsun	-0.6532125
-4.820663	bahsediyorsunuz	-0.4771213
-4.820663	bahsediyorum	-0.4771213
-4.820663	bahsediyoruz	-0.4771213
-4.820663	bahsetme	-0.4771213
-4.820663	bahsetmek	-0.30103
-4.996755	bahsetmeye	-0.30103
-4.996755	bahsetmezdi	-0.30103
-4.996755	bahsetmiştim	-0.30103
-4.996755	bahsetsenize	-0.30103
-4.820663	bahsetti	-0.4771213
-4.996755	bahsettik	-0.30103
-4.996755	bahsettiler	-0.30103
-4.996755	bahsettiği	-0.30103
-4.996755	bahsettiğim	-0.30103
-4.820663	bahsettiğimi	-0.30103
-4.996755	bahsettiğimiz	-0.30103
-4.820663	bahsettiğini	-0.30103
-4.996755	bahsettiğinizi	-0.30103
-4.820663	baht	-0.30103
-4.996755	bahta	-0.30103
-4.598814	bahtiyar	-0.30103
-4.996755	bahtiyarım	-0.30103
-4.695724	bahtı	-0.30103
-4.996755	bahtına	-0.30103
-4.996755	bahçanın	-0.30103
-4.297784	bahçe	-0.327359
-4.996755	bahçecikte	-0.30103
-4.519633	bahçede	-0.3521825
-4.820663	bahçedeki	-0.30103
-4.996755	bahçeden	-0.30103
-4.996755	bahçeleri	-0.30103
-4.996755	bahçene	-0.30103
-4.598814	bahçenin	-0.30103
-4.820663	bahçesi	-0.30103
-4.996755	bahçesinden	-0.30103
-4.820663	bahçesini	-0.30103
-4.452686	bahçeye	-0.30103
-4.695724	bahçeyi	-0.30103
-4.820663	bahçıvan	-0.30103
-4.996755	bahçıvanmış	-0.30103
-4.996755	bahşetmez	-0.30103
-4.996755	bahşiş	-0.30103
-3.121693	bak	-0.599883
-4.598814	bakabilir	-0.4771213
-4.820663	bakabilirim	-0.4771213
-4.996755	bakabilirsin	-0.30103
-4.695724	bakacak	-0.30103
-4.996755	bakacaklar	-0.30103
-4.996755	bakacağım	-0.30103
-4.996755	bakacağımı	-0.30103
-4.996755	bakacağın	-0.30103
-4.996755	bakacağını	-0.30103
-4.996755	bakacağız	-0.30103
-4.996755	bakakalmıştı	-0.30103
-4.996755	bakalum	-0.30103
-3.368366	bakalım	-0.6139592
-4.996755	bakamam	-0.30103
-4.996755	bakamayacağım	-0.30103
-3.866421	bakan	-0.4030195
-4.996755	bakanlara	-0.30103
-4.996755	bakanların	-0.30103
-4.996755	bakanı	-0.30103
-4.996755	bakanından	-0.30103
-4.067336	bakar	-0.4436975
-4.256392	bakarak	-0.30103
-4.820663	bakardı	-0.4771213
-4.820663	bakarken	-0.30103
-4.996755	bakarlar	-0.30103
-4.820663	bakarsan	-0.30103
-4.996755	bakarsanız	-0.30103
-4.996755	bakarsın	-0.30103
-4.452686	bakarım	-0.845098
-4.695724	bakarız	-0.60206
-3.955362	bakayım	-0.60206
-4.996755	bakir	-0.30103
-4.820663	bakire	-0.30103
-4.256392	bakkal	-0.30103
-4.996755	bakkalı	-0.30103
-4.695724	bakkalın	-0.30103
-4.996755	bakkalına	-0.30103
-4.996755	bakladan	-0.30103
-4.820663	baklava	-0.30103
-4.019031	bakma	-0.5118834
-4.695724	bakmadan	-0.30103
-4.996755	bakmadım	-0.30103
-4.996755	bakmadınız	-0.30103
-4.343542	bakmak	-0.30103
-4.695724	bakmakla	-0.30103
-4.820663	bakmakta	-0.30103
-4.820663	bakmaktan	-0.30103
-4.820663	bakmalı	-0.30103
-4.820663	bakmalıyım	-0.4771213
-4.996755	bakmamıştım	-0.30103
-4.996755	bakmanın	-0.30103
-4.996755	bakmasına	-0.30103
-4.996755	bakmasından	-0.30103
-4.093665	bakmaya	-0.4586378
-4.996755	bakmayacak	-0.30103
-4.996755	bakmayacağım	-0.30103
-4.820663	bakmayı	-0.30103
-4.598814	bakmayın	-0.3679768
-4.695724	bakmaz	-0.30103
-4.996755	bakmazmış	-0.30103
-4.996755	bakmazsan	-0.30103
-4.996755	bakmazsınız	-0.30103
-4.820663	bakmıyor	-0.30103
-4.996755	bakmıyordu	-0.30103
-4.996755	bakmıyordum	-0.30103
-4.996755	bakmıyorum	-0.30103
-4.297784	bakmış	-0.30103
-4.996755	bakmışsın	-0.30103
-4.996755	bakmıştı	-0.30103
-4.256392	baksana	-0.7781513
-4.996755	bakteri	-0.30103
-4.598814	bakterileri	-0.69897
-3.534357	baktı	-0.7596679
-4.820663	baktık	-0.30103
-4.996755	baktıkça	-0.30103
-4.256392	baktılar	-0.544068
-3.590214	baktım	-0.7781512
-4.695724	baktın	-0.30103
-4.996755	baktıracağım	-0.30103
-4.996755	baktırır	-0.30103
-4.820663	baktığı	-0.30103
-4.519633	baktığım	-0.544068
-4.996755	baktığımda	-0.30103
-4.820663	baktığımı	-0.30103
-4.996755	baktığımız	-0.30103
-4.996755	baktığını	-0.30103
-4.996755	baktığınız	-0.30103
-4.996755	bakıcı	-0.30103
-4.996755	bakılmaz	-0.30103
-4.820663	bakılır	-0.30103
-4.996755	bakılırsa	-0.30103
-4.695724	bakım	-0.30103
-4.996755	bakımda	-0.30103
-4.996755	bakımdan	-0.30103
-4.996755	bakımsız	-0.30103
-4.695724	bakımından	-0.30103
-3.616543	bakın	-0.5407903
-4.695724	bakınarak	-0.30103
-4.452686	bakınca	-0.30103
-4.151657	bakındı	-1.146128
-4.519633	bakındım	-0.544068
-4.820663	bakındın	-0.30103
-4.996755	bakınıyordu	-0.30103
-4.996755	bakınıyorlardı	-0.30103
-4.598814	bakınız	-0.30103
-4.343542	bakıp	-0.30103
-4.820663	bakır	-0.30103
-4.996755	bakıver	-0.30103
-4.996755	bakıyon	-0.30103
-4.297784	bakıyor	-0.447158
-3.955362	bakıyordu	-0.9030901
-4.996755	bakıyorduk	-0.30103
-4.343542	bakıyordum	-0.69897
-4.598814	bakıyorlar	-0.30103
-4.343542	bakıyorlardı	-0.9542425
-4.297784	bakıyorsun	-0.7403627
-4.598814	bakıyorsunuz	-0.4771212
-4.394694	bakıyorum	-0.90309
-4.695724	bakış	-0.30103
-4.820663	bakışla	-0.30103
-4.996755	bakışlar	-0.30103
-4.820663	bakışlarda	-0.30103
-4.695724	bakışlarla	-0.30103
-4.598814	bakışları	-0.30103
-4.820663	bakışlarımız	-0.30103
-4.996755	bakışlarına	-0.30103
-4.820663	bakışlarında	-0.30103
-4.598814	bakışlarını	-0.30103
-4.996755	bakışlarınız	-0.30103
-4.996755	bakışlı	-0.30103
-4.695724	bakışta	-0.30103
-4.820663	bakıştık	-0.4771213
-4.598814	bakıştılar	-0.69897
-4.519633	bakışı	-0.30103
-4.996755	bakışından	-0.30103
-4.996755	bakışının	-0.30103
-4.820663	bakışıp	-0.30103
-4.996755	bakışırken	-0.30103
-4.996755	bakışıyor	-0.30103
-3.975565	bal	-0.312311
-4.996755	balayı	-0.30103
-4.996755	balcı	-0.30103
-4.996755	balcının	-0.30103
-4.598814	baldan	-0.3679768
-4.996755	baldırlarına	-0.30103
-4.996755	baldızım	-0.30103
-4.996755	baldızımın	-0.30103
-4.996755	balkan	-0.30103
-4.996755	balkanlarda	-0.30103
-4.996755	balkondan	-0.30103
-4.820663	balmumu	-0.30103
-4.820663	balo	-0.30103
-4.996755	balon	-0.30103
-4.996755	balonu	-0.30103
-4.996755	baloya	-0.30103
-4.452686	balta	-0.3424227
-4.996755	baltacı	-0.30103
-4.996755	baltacıların	-0.30103
-4.996755	baltalar	-0.30103
-4.996755	baltalıklarına	-0.30103
-4.996755	baltalıyor	-0.30103
-4.996755	baltanın	-0.30103
-4.996755	baltası	-0.30103
-4.996755	baltayla	-0.30103
-4.996755	balçıkla	-0.30103
-4.996755	balçıklaşan	-0.30103
-4.598814	balı	-0.30103
-4.297784	balık	-0.3273589
-4.695724	balıkesir	-0.30103
-4.996755	balıkesirden	-0.30103
-4.996755	balıkesire	-0.30103
-4.820663	balıklar	-0.30103
-4.996755	balıkpazarı	-0.30103
-4.996755	balıkçılıktır	-0.30103
-4.996755	balıkçının	-0.30103
-4.996755	balım	-0.30103
-4.996755	balın	-0.30103
-4.996755	balığa	-0.30103
-4.695724	balığı	-0.30103
-4.996755	balığın	-0.30103
-4.996755	bam	-0.30103
-4.996755	bambaşka	-0.30103
-4.996755	ban	-0.30103
-2.637868	bana	-0.453121
-4.996755	bangonot	-0.30103
-4.996755	bangonottan	-0.30103
-4.820663	banka	-0.30103
-4.820663	bankada	-0.30103
-4.996755	bankadan	-0.30103
-4.996755	bankalar	-0.30103
-4.996755	bankalardan	-0.30103
-4.996755	bankası	-0.30103
-4.996755	banker	-0.30103
-4.996755	banknottu	-0.30103
-4.996755	banknotun	-0.30103
-4.996755	banliyö	-0.30103
-4.996755	banyo	-0.30103
-4.820663	bar	-0.30103
-4.820663	bara	-0.30103
-4.996755	barda	-0.30103
-4.297784	bardak	-0.30103
-4.996755	bardaklarıyla	-0.30103
-4.996755	bardan	-0.30103
-4.996755	bardağı	-0.30103
-4.996755	bardağın	-0.30103
-4.343542	bari	-0.5642715
-4.996755	barlardan	-0.30103
-4.996755	barların	-0.30103
-4.996755	barmen	-0.30103
-4.996755	barsak	-0.30103
-4.996755	barsakderesi	-0.30103
-4.695724	barsakların	-0.60206
-4.996755	barselona’ya	-0.30103
-4.598814	barut	-0.3679768
-4.598814	baryum	-0.69897
-4.996755	baryumlu	-0.30103
-4.820663	barın	-0.30103
-4.996755	barındırmaz	-0.30103
-4.996755	barındırır	-0.30103
-4.996755	barındırıyor	-0.30103
-4.996755	barındırıyordu	-0.30103
-4.996755	barının	-0.30103
-4.996755	barış	-0.30103
-4.996755	barışmamıştı	-0.30103
-4.695724	barıştık	-0.30103
-4.996755	barışçıl	-0.30103
-4.452686	bas	-0.3424227
-4.996755	basa	-0.30103
-4.996755	basabileceği	-0.30103
-4.996755	basamak	-0.30103
-4.996755	basamaklarına	-0.30103
-4.996755	basamayacak	-0.30103
-4.820663	basamağa	-0.4771212
-4.996755	basanındır	-0.30103
-4.820663	basarlar	-0.4771212
-4.996755	basarım	-0.30103
-4.996755	basbayağı	-0.30103
-4.996755	basescu	-0.30103
-4.996755	basiretin	-0.30103
-4.067336	basit	-0.3899711
-4.996755	basitlik	-0.30103
-4.996755	basitliği	-0.30103
-4.996755	basitti	-0.30103
-4.996755	baskça’da	-0.30103
-4.820663	baskı	-0.30103
-4.996755	baskıdaki	-0.30103
-4.996755	baskın	-0.30103
-4.996755	baskında	-0.30103
-4.820663	baskısız	-0.30103
-4.820663	basma	-0.30103
-4.996755	basması	-0.30103
-4.996755	basmaz	-0.30103
-4.996755	bassa	-0.30103
-4.996755	baston	-0.30103
-4.996755	bastonuna	-0.30103
-4.996755	bastonunu	-0.30103
-4.820663	bastı	-0.30103
-4.820663	bastım	-0.30103
-4.996755	bastıran	-0.30103
-4.996755	bastırarak	-0.30103
-4.820663	bastırdı	-0.4771213
-4.996755	bastırdığı	-0.30103
-4.996755	bastırmak	-0.30103
-4.996755	bastırıp	-0.30103
-4.519633	bastırır	-0.4259687
-4.996755	bastırıveriyor	-0.30103
-4.695724	bastırıyor	-0.30103
-4.598814	bastığı	-0.30103
-4.820663	bastığın	-0.30103
-4.151657	bası	-1.146128
-4.820663	basık	-0.30103
-4.996755	basıl	-0.30103
-4.996755	basılacak	-0.30103
-4.996755	basıldı	-0.30103
-4.996755	basılmaz	-0.30103
-4.996755	basılıp	-0.30103
-4.820663	basın	-0.30103
-4.820663	basınca	-0.30103
-4.996755	basıncı	-0.30103
-4.996755	basınç	-0.30103
-4.996755	basıp	-0.30103
-4.996755	basıyor	-0.30103
-4.996755	basıyordu	-0.30103
-4.996755	basıyordum	-0.30103
-4.996755	bata	-0.30103
-4.996755	bataklık	-0.30103
-4.996755	bataklıklar	-0.30103
-4.820663	batar	-0.4771213
-4.996755	batarak	-0.30103
-4.996755	batarsın	-0.30103
-4.996755	batmak	-0.30103
-4.695724	batman	-0.30103
-4.820663	batmaz	-0.4771213
-4.820663	batmış	-0.30103
-4.996755	batmışlardı	-0.30103
-4.820663	battaniye	-0.30103
-4.996755	battı	-0.30103
-4.996755	battığını	-0.30103
-4.519633	batı	-0.30103
-3.936057	batın	-0.7323937
-4.343542	batında	-0.9542425
-4.820663	batır	-0.4771212
-4.996755	batırdın	-0.30103
-4.996755	batırır	-0.30103
-4.996755	batıya	-0.30103
-4.996755	bavulları	-0.30103
-4.996755	bavullarımı	-0.30103
-4.996755	bavulumu	-0.30103
-4.820663	bavulunu	-0.30103
-4.695724	bay	-0.30103
-3.996755	bayan	-0.6812413
-4.297784	bayanlar	-0.5118834
-4.996755	bayanı	-0.30103
-4.996755	bayatlama	-0.30103
-4.695724	bayağı	-0.30103
-4.996755	baybay	-0.30103
-4.598814	baygın	-0.30103
-4.996755	baygınlık	-0.30103
-4.996755	baygınlığa	-0.30103
-4.996755	baygınmış	-0.30103
-4.996755	baykuşun	-0.30103
-4.394694	baylar	-0.5228787
-4.996755	baylığı	-0.30103
-4.695724	bayrak	-0.30103
-4.151657	bayram	-0.3617278
-4.598814	bayramda	-0.30103
-4.996755	bayramdan	-0.30103
-4.820663	bayrami	-0.30103
-4.996755	bayrağın	-0.30103
-4.996755	baytar	-0.30103
-4.820663	bayılacak	-0.30103
-4.695724	bayılacaksın	-0.60206
-4.996755	bayılacaksınız	-0.30103
-4.820663	bayıldı	-0.4771213
-4.996755	bayıldıkları	-0.30103
-4.996755	bayıldım	-0.30103
-4.996755	bayıldın	-0.30103
-4.820663	bayılmaya	-0.30103
-4.996755	bayılmış	-0.30103
-4.996755	bayılmıştı	-0.30103
-4.996755	bayılmışım	-0.30103
-4.820663	bayılırım	-0.4771213
-4.996755	bayılıyor	-0.30103
-4.394694	bayım	-0.90309
-4.996755	bayındırdan	-0.30103
-4.996755	bayır	-0.30103
-4.996755	bayıra	-0.30103
-4.695724	bayırda	-0.30103
-4.996755	bayırdan	-0.30103
-4.820663	bayırın	-0.30103
-4.996755	baz	-0.30103
-4.343542	bazal	-0.5642714
-4.996755	bazali	-0.30103
-3.917573	bazan	-0.3107898
-4.343542	bazen	-0.3309932
-4.996755	bazla	-0.30103
-4.820663	bazlama	-0.30103
-3.806423	bazı	-0.308454
-4.598814	bazıları	-0.30103
-4.996755	bazılarında	-0.30103
-4.996755	bazılarının	-0.30103
-4.218603	bağ	-0.3222193
-4.598814	bağa	-0.30103
-4.996755	bağdan	-0.30103
-4.695724	bağdat	-0.39794
-4.996755	bağdata	-0.30103
-4.695724	bağdattan	-0.39794
-4.996755	bağdatı	-0.30103
-4.695724	bağdaş	-0.39794
-4.256392	bağla	-0.3245111
-4.820663	bağladı	-0.4771213
-4.996755	bağladılar	-0.30103
-4.996755	bağladığım	-0.30103
-4.996755	bağladığımız	-0.30103
-4.996755	bağlamakta	-0.30103
-4.996755	bağlamaktır	-0.30103
-4.996755	bağlamaya	-0.30103
-4.996755	bağlamaz	-0.30103
-4.996755	bağlamında	-0.30103
-4.996755	bağlamışlar	-0.30103
-4.996755	bağlamışlardı	-0.30103
-4.695724	bağlamıştı	-0.60206
-4.996755	bağlandı	-0.30103
-4.996755	bağlanmayan	-0.30103
-4.996755	bağlanmayı	-0.30103
-4.996755	bağlanmaz	-0.30103
-4.996755	bağlanmış	-0.30103
-4.996755	bağlantı	-0.30103
-4.996755	bağlantılarının	-0.30103
-4.996755	bağlantılı	-0.30103
-4.996755	bağlantının	-0.30103
-4.820663	bağlanıyor	-0.4771213
-4.695724	bağlar	-0.30103
-4.996755	bağlarda	-0.30103
-4.996755	bağlayalım	-0.30103
-4.996755	bağlayamıyor	-0.30103
-4.695724	bağlayan	-0.30103
-4.996755	bağlayanın	-0.30103
-4.996755	bağlayın	-0.30103
-4.996755	bağlayıp	-0.30103
-4.093665	bağlı	-0.4259687
-4.996755	bağlıdır	-0.30103
-4.996755	bağlılığı	-0.30103
-4.996755	bağlıydı	-0.30103
-4.996755	bağlıydım	-0.30103
-4.996755	bağlıyordu	-0.30103
-4.695724	bağrı	-0.30103
-4.996755	bağrıma	-0.30103
-4.996755	bağrından	-0.30103
-4.996755	bağrışarak	-0.30103
-4.996755	bağrıştığı	-0.30103
-4.996755	bağrışıyordu	-0.30103
-4.996755	bağı	-0.30103
-4.996755	bağım	-0.30103
-4.820663	bağımsız	-0.30103
-4.996755	bağın	-0.30103
-4.996755	bağını	-0.30103
-4.996755	bağır	-0.30103
-4.820663	bağıra	-0.30103
-4.996755	bağıracak	-0.30103
-4.996755	bağıracaktı	-0.30103
-4.695724	bağıran	-0.30103
-4.519633	bağırarak	-0.30103
-3.820663	bağırdı	-0.5910646
-4.996755	bağırdık	-0.30103
-4.996755	bağırdıkça	-0.30103
-4.598814	bağırdılar	-0.69897
-4.695724	bağırdım	-0.39794
-4.820663	bağırdığım	-0.4771213
-4.996755	bağırdığını	-0.30103
-4.996755	bağırgan	-0.30103
-4.996755	bağırlarını	-0.30103
-4.996755	bağırmadı	-0.30103
-4.820663	bağırmak	-0.30103
-4.519633	bağırmaya	-0.544068
-4.820663	bağırmayı	-0.30103
-4.996755	bağırmayın	-0.30103
-4.996755	bağırmaz	-0.30103
-4.996755	bağırmazsa	-0.30103
-4.996755	bağırmıyor	-0.30103
-4.695724	bağırmış	-0.60206
-4.996755	bağırsa	-0.30103
-4.996755	bağırsak	-0.30103
-4.996755	bağırsana	-0.30103
-4.996755	bağırınca	-0.30103
-4.996755	bağırıp	-0.30103
-4.695724	bağırır	-0.30103
-4.996755	bağırırdı	-0.30103
-4.996755	bağırırken	-0.30103
-4.996755	bağırırmış	-0.30103
-4.394694	bağırıyordu	-0.6532125
-4.519633	bağırıyorsun	-0.544068
-4.820663	bağırışları	-0.30103
-4.996755	bağış	-0.30103
-4.820663	bağışla	-0.30103
-4.996755	bağışladım	-0.30103
-4.996755	bağışlamış	-0.30103
-4.996755	bağışlanacak	-0.30103
-4.996755	bağışlar	-0.30103
-4.996755	bağışlasın	-0.30103
-4.695724	bağışlayın	-0.60206
-4.996755	bağışlayınız	-0.30103
-3.54191	baş	-0.3458423
-3.917573	başa	-0.3107898
-4.695724	başak	-0.30103
-4.996755	başarabildiniz	-0.30103
-4.996755	başarabilirim	-0.30103
-4.996755	başarabiliriz	-0.30103
-4.996755	başarabilirsin	-0.30103
-4.996755	başaracaksın	-0.30103
-4.996755	başaracağım	-0.30103
-4.996755	başaracağını	-0.30103
-4.996755	başaracağız	-0.30103
-4.996755	başaramayacağız	-0.30103
-4.996755	başaramayız	-0.30103
-4.996755	başaramazsam	-0.30103
-4.996755	başardı	-0.30103
-4.452686	başardık	-0.60206
-4.996755	başardılar	-0.30103
-4.820663	başardım	-0.4771213
-4.598814	başardın	-0.69897
-4.996755	başarmadaki	-0.30103
-4.996755	başarmış	-0.30103
-4.996755	başarmıştı	-0.30103
-4.996755	başarılar	-0.30103
-4.598814	başarılı	-0.3679768
-4.996755	başarılıydı	-0.30103
-4.996755	başarının	-0.30103
-4.996755	başarır	-0.30103
-4.996755	başarısı	-0.30103
-4.996755	başarısından	-0.30103
-4.996755	başarısız	-0.30103
-4.996755	başarısızlık	-0.30103
-4.996755	başarısızlıklar	-0.30103
-4.996755	başarıyorsun	-0.30103
-4.996755	başasistana	-0.30103
-4.996755	başbakan	-0.30103
-4.996755	başbakanı	-0.30103
-4.996755	başcağızını	-0.30103
-4.996755	başgardiyanın	-0.30103
-4.820663	başhekim	-0.30103
-4.996755	başhekime	-0.30103
-4.996755	başhekimle	-0.30103
-2.977638	başka	-0.5563025
-4.996755	başkaca	-0.30103
-4.820663	başkaları	-0.4771213
-4.820663	başkalarına	-0.30103
-4.996755	başkalarında	-0.30103
-4.996755	başkalarından	-0.30103
-4.996755	başkalarının	-0.30103
-4.598814	başkan	-0.4771212
-4.996755	başkanlığını	-0.30103
-4.820663	başkanı	-0.30103
-4.996755	başkanım	-0.30103
-4.519633	başkası	-0.30103
-4.820663	başkasına	-0.30103
-4.996755	başkasını	-0.30103
-4.996755	başkasının	-0.30103
-4.996755	başkatip	-0.30103
-4.820663	başkaydı	-0.4771213
-4.820663	başkent	-0.30103
-4.996755	başkentinswki	-0.30103
-4.519633	başla	-0.7781513
-3.222238	başladı	-1.10721
-4.093665	başladık	-0.7781512
-4.996755	başladıkları	-0.30103
-4.042512	başladılar	-0.7201593
-3.718001	başladım	-0.9242793
-4.820663	başladın	-0.4771213
-4.820663	başladınız	-0.30103
-4.519633	başladığı	-0.30103
-4.996755	başladığım	-0.30103
-4.996755	başladığımı	-0.30103
-4.996755	başladığımız	-0.30103
-4.996755	başladığın	-0.30103
-4.695724	başladığını	-0.30103
-4.519633	başlama	-0.4259687
-4.996755	başlamadım	-0.30103
-4.598814	başlamak	-0.3679768
-4.996755	başlaması	-0.30103
-4.996755	başlamaz	-0.30103
-4.452686	başlamış	-0.39794
-4.695724	başlamışlar	-0.60206
-4.598814	başlamışlardı	-0.69897
-4.996755	başlamışsındır	-0.30103
-3.664316	başlamıştı	-0.90309
-4.598814	başlamıştım	-0.69897
-4.820663	başlamıştır	-0.4771213
-4.820663	başlandı	-0.30103
-4.996755	başlangıcı	-0.30103
-4.820663	başlangıcında	-0.4771213
-4.996755	başlangıcından	-0.30103
-4.996755	başlangıcıydı	-0.30103
-4.598814	başlangıç	-0.4771212
-4.820663	başlangıçta	-0.30103
-4.820663	başlanması	-0.4771213
-4.452686	başlar	-0.39794
-4.996755	başlarım	-0.30103
-4.996755	başların	-0.30103
-4.695724	başlarına	-0.30103
-4.519633	başlarında	-0.3521825
-4.996755	başlarından	-0.30103
-4.519633	başlarını	-0.30103
-4.996755	başlarıydı	-0.30103
-4.996755	başlasak	-0.30103
-4.996755	başlat	-0.30103
-4.996755	başlatmadım	-0.30103
-4.820663	başlattı	-0.4771213
-4.996755	başlattın	-0.30103
-4.996755	başlattıysa	-0.30103
-4.996755	başlatıldı	-0.30103
-4.820663	başlayabilir	-0.4771212
-4.996755	başlayabiliriz	-0.30103
-4.996755	başlayabilirsiniz	-0.30103
-4.695724	başlayacak	-0.60206
-4.695724	başlayacaktı	-0.60206
-4.996755	başlayacaktım	-0.30103
-4.256392	başlayalım	-0.636822
-4.519633	başlayan	-0.30103
-4.996755	başlayarak	-0.30103
-4.820663	başlayın	-0.4771213
-4.820663	başlayınca	-0.30103
-4.996755	başlayıncaya	-0.30103
-4.820663	başlı	-0.30103
-4.820663	başlıca	-0.30103
-4.996755	başlıklı	-0.30103
-4.996755	başlısı	-0.30103
-4.256392	başlıyor	-0.7781513
-4.519633	başlıyordu	-0.7781513
-4.996755	başlıyorduk	-0.30103
-4.519633	başlıyorum	-0.7781513
-4.151657	başlıyoruz	-1.146128
-4.996755	başmabeyinci	-0.30103
-4.996755	başmakçıdır	-0.30103
-4.996755	başrol	-0.30103
-4.996755	başsız	-0.30103
-4.695724	başta	-0.30103
-4.996755	baştadır	-0.30103
-4.820663	baştaki	-0.30103
-4.093665	baştan	-0.3521825
-4.996755	baştaydı	-0.30103
-4.996755	başucumda	-0.30103
-4.996755	başucumdaki	-0.30103
-4.820663	başucuna	-0.30103
-4.820663	başucunda	-0.30103
-4.996755	başvur	-0.30103
-4.996755	başvurarak	-0.30103
-4.996755	başvurdu	-0.30103
-4.996755	başvurmak	-0.30103
-4.996755	başvuru	-0.30103
-4.695724	başvurusuna	-0.60206
-4.695724	başvurusunda	-0.39794
-4.996755	başvuruyordu	-0.30103
-4.996755	başyapıtı	-0.30103
-4.996755	başçı	-0.30103
-4.996755	başüstüne	-0.30103
-3.674535	başı	-0.3435824
-4.996755	başıboş	-0.30103
-4.996755	başıdır	-0.30103
-4.151657	başım	-0.3617278
-4.067336	başıma	-0.3152705
-4.996755	başımayım	-0.30103
-4.695724	başımda	-0.30103
-4.343542	başımdan	-0.4771213
-4.820663	başımla	-0.30103
-3.899845	başımı	-0.3424227
-4.695724	başımın	-0.30103
-4.820663	başımız	-0.30103
-4.452686	başımıza	-0.3424227
-4.996755	başımızayız	-0.30103
-4.996755	başımızdan	-0.30103
-4.996755	başımızı	-0.30103
-4.151657	başın	-0.30103
-3.478241	başına	-0.3617279
-4.695724	başınasın	-0.60206
-4.996755	başınaydı	-0.30103
-3.866421	başında	-0.3388186
-4.452686	başındaki	-0.30103
-4.042512	başından	-0.3452336
-3.289184	başını	-0.3738064
-4.343542	başının	-0.3309932
-4.820663	başınız	-0.30103
-4.695724	başınıza	-0.30103
-4.996755	başınızı	-0.30103
-4.394694	başıyla	-0.3357922
-4.996755	başşehri	-0.30103
-3.549597	be	-0.6927211
-4.297784	bebek	-0.5118834
-4.996755	bebekleri	-0.30103
-4.996755	bebeklerim	-0.30103
-4.996755	bebeler	-0.30103
-4.820663	bebeği	-0.30103
-3.806423	bebeğim	-0.8450981
-4.996755	bebeğimiz	-0.30103
-4.820663	becerdin	-0.30103
-4.996755	becerebileceği	-0.30103
-4.996755	becerecekti	-0.30103
-4.996755	beceremezsiniz	-0.30103
-4.996755	beceremiyordum	-0.30103
-4.996755	beceremiyorsunuz	-0.30103
-4.996755	beceremiyorum	-0.30103
-4.996755	becerikli	-0.30103
-4.996755	beceriyor	-0.30103
-4.996755	beceriyorsun	-0.30103
-4.996755	bedasıl	-0.30103
-4.598814	bedava	-0.3679768
-4.996755	beddua	-0.30103
-4.820663	bedel	-0.30103
-4.996755	bedeldir	-0.30103
-4.695724	bedeli	-0.30103
-4.996755	bedelinin	-0.30103
-4.996755	bedenimden	-0.30103
-4.996755	bedeninden	-0.30103
-4.996755	bedestende	-0.30103
-4.996755	bedir	-0.30103
-4.256392	bedri	-0.30103
-4.996755	bedrinin	-0.30103
-4.996755	bedri’den	-0.30103
-4.452686	bedri’nin	-0.30103
-4.695724	bedri’ye	-0.30103
-4.820663	bedri’yi	-0.30103
-4.996755	beee	-0.30103
-4.996755	bekaj	-0.30103
-4.820663	bekar	-0.30103
-4.996755	bekardır	-0.30103
-4.820663	bekarlık	-0.30103
-4.820663	bekarın	-0.30103
-4.183841	bekir	-0.30103
-4.996755	bekirceğiz	-0.30103
-4.996755	bekiri	-0.30103
-4.996755	bekirin	-0.30103
-3.741482	bekle	-0.6532125
-4.093665	bekledi	-0.7781512
-4.598814	bekledik	-0.69897
-4.996755	bekledikleri	-0.30103
-4.519633	bekledikten	-0.7781512
-4.820663	beklediler	-0.4771213
-4.121693	bekledim	-0.7533276
-4.996755	bekledin	-0.30103
-4.695724	beklediniz	-0.39794
-4.996755	beklediği	-0.30103
-4.519633	beklediğim	-0.30103
-4.996755	beklediğimi	-0.30103
-4.695724	beklediğini	-0.30103
-4.996755	beklediğiniz	-0.30103
-4.598814	bekleme	-0.3679768
-4.820663	beklemede	-0.30103
-4.598814	beklemeden	-0.30103
-4.996755	beklemedi	-0.30103
-4.820663	beklemediği	-0.4771212
-4.820663	beklemediğim	-0.30103
-4.820663	beklemediğimiz	-0.30103
-4.452686	beklemek	-0.3424226
-4.996755	beklemekte	-0.30103
-4.996755	beklemelerini	-0.30103
-4.996755	beklemeli	-0.30103
-4.996755	beklemenin	-0.30103
-4.996755	beklemesinde	-0.30103
-4.394694	beklemeye	-0.5228788
-4.996755	beklemeyeceğiz	-0.30103
-4.996755	beklemeyi	-0.30103
-4.996755	beklemez	-0.30103
-4.996755	beklemiyordular	-0.30103
-4.695724	beklemiyordum	-0.60206
-4.996755	beklemiyorum	-0.30103
-4.820663	beklemişti	-0.4771213
-4.996755	beklemiştim	-0.30103
-4.996755	beklenilenden	-0.30103
-4.996755	beklenir	-0.30103
-4.218603	bekleniyor	-1.079181
-4.695724	beklenmedik	-0.60206
-4.820663	beklenmeyen	-0.4771213
-4.996755	beklenmiyor	-0.30103
-4.297784	bekler	-0.39794
-4.820663	beklerdi	-0.4771213
-4.598814	beklerim	-0.4771213
-4.996755	bekleriz	-0.30103
-4.820663	beklerken	-0.30103
-4.820663	beklerler	-0.30103
-4.820663	beklersin	-0.30103
-4.996755	beklersiniz	-0.30103
-4.996755	beklesinler	-0.30103
-4.996755	bekletme	-0.30103
-4.996755	bekletmeden	-0.30103
-4.996755	bekletti	-0.30103
-4.820663	beklettiğim	-0.4771213
-4.695724	bekleyebilir	-0.39794
-4.695724	bekleyecek	-0.30103
-4.996755	bekleyeceksiniz	-0.30103
-4.343542	bekleyeceğim	-0.9542425
-4.820663	bekleyeceğiz	-0.4771213
-4.996755	bekleyemedim	-0.30103
-4.820663	bekleyemem	-0.4771213
-4.996755	bekleyemeyecekti	-0.30103
-4.996755	bekleyemeyeceğim	-0.30103
-4.996755	bekleyemeyeceğini	-0.30103
-4.996755	bekleyemez	-0.30103
-4.996755	bekleyemiyorum	-0.30103
-4.218603	bekleyen	-0.30103
-4.996755	bekleyenlerin	-0.30103
-4.820663	bekleyerek	-0.30103
-4.996755	bekleyeyim	-0.30103
-4.121693	bekleyin	-0.6532125
-4.996755	bekleyip	-0.30103
-4.996755	bekleyiş	-0.30103
-4.996755	bekleşen	-0.30103
-4.996755	bekleşmeye	-0.30103
-4.996755	bekleştiler	-0.30103
-4.042512	bekliyor	-0.5835766
-4.343542	bekliyordu	-0.9542425
-4.820663	bekliyorduk	-0.4771213
-4.343542	bekliyordum	-0.9542425
-4.598814	bekliyordun	-0.4771212
-4.996755	bekliyordunuz	-0.30103
-4.452686	bekliyorlar	-0.39794
-4.598814	bekliyorlardı	-0.69897
-4.820663	bekliyormuş	-0.30103
-4.394694	bekliyorsun	-0.5228788
-4.820663	bekliyorsunuz	-0.4771213
-4.394694	bekliyorum	-0.90309
-4.598814	bekliyoruz	-0.69897
-4.996755	bekman	-0.30103
-4.996755	bektaşinin	-0.30103
-4.996755	bekâr	-0.30103
-4.996755	bekâra	-0.30103
-4.996755	bekârdı	-0.30103
-4.996755	bekârlardan	-0.30103
-4.996755	bekçi	-0.30103
-4.598814	bel	-0.30103
-4.695724	bela	-0.39794
-4.820663	belada	-0.30103
-4.996755	beladan	-0.30103
-4.996755	belagat	-0.30103
-4.996755	belanı	-0.30103
-4.820663	belası	-0.4771213
-4.598814	belasını	-0.3679768
-4.996755	belasısın	-0.30103
-4.519633	belediye	-0.3521825
-4.996755	belediyedir	-0.30103
-4.996755	belediyesince	-0.30103
-4.996755	belerivermiş	-0.30103
-4.820663	beleş	-0.30103
-4.820663	belgeli	-0.4771213
-4.996755	belgesi	-0.30103
-4.695724	belgrad	-0.30103
-4.996755	belgrada	-0.30103
-4.996755	belgradlılar	-0.30103
-4.996755	belgradın	-0.30103
-4.695724	beli	-0.30103
-4.996755	belim	-0.30103
-4.996755	belime	-0.30103
-4.996755	belinde	-0.30103
-4.820663	belinden	-0.30103
-4.695724	beline	-0.30103
-4.996755	belini	-0.30103
-4.598814	belirdi	-0.69897
-4.996755	beliren	-0.30103
-3.835387	belirgin	-0.5496719
-4.996755	belirginleşme	-0.30103
-4.996755	belirginleşmesi	-0.30103
-4.996755	belirginleşmeye	-0.30103
-4.996755	belirip	-0.30103
-4.996755	belirlemek	-0.30103
-4.996755	belirlendi	-0.30103
-4.996755	belirlenebilir	-0.30103
-4.996755	belirlenen	-0.30103
-4.996755	belirlenmiş	-0.30103
-4.996755	belirleyici	-0.30103
-4.996755	belirli	-0.30103
-4.996755	belirmişti	-0.30103
-4.598814	belirsiz	-0.30103
-4.598814	belirtildi	-0.69897
-4.996755	belirtilenler	-0.30103
-4.452686	belirtilerek	-0.39794
-4.996755	belirtiliyor	-0.30103
-4.598814	belirtiyor	-0.4771212
-4.820663	belirtti	-0.4771213
-4.996755	belirttiği	-0.30103
-3.248567	belki	-0.4501986
-4.996755	belledim	-0.30103
-3.565391	belli	-0.5062795
-4.695724	bellidir	-0.60206
-4.996755	bellisiz	-0.30103
-4.452686	belliydi	-0.845098
-4.996755	belvedere	-0.30103
-4.996755	belyayev	-0.30103
-4.996755	belâsını	-0.30103
-4.996755	belçika	-0.30103
-4.820663	bembeyaz	-0.30103
-2.397964	ben	-0.4782193
-3.835387	bence	-0.3357921
-4.996755	bencilsin	-0.30103
-3.695724	bende	-0.4191293
-4.996755	bendeki	-0.30103
-3.458935	benden	-0.4057654
-4.996755	bendendir	-0.30103
-4.996755	bendeniz	-0.30103
-4.996755	bendenize	-0.30103
-4.820663	bendim	-0.30103
-4.996755	benedikt	-0.30103
-2.654332	beni	-0.402142
-2.826493	benim	-0.437004
-4.996755	benimdi	-0.30103
-4.598814	benimki	-0.30103
-4.996755	benimkilerin	-0.30103
-4.820663	benimkini	-0.30103
-3.440452	benimle	-0.3943057
-4.820663	benimlesin	-0.4771213
-4.820663	benizli	-0.30103
-4.996755	benle	-0.30103
-4.996755	benlik	-0.30103
-4.519633	bensiz	-0.30103
-4.996755	benzemektedir	-0.30103
-4.996755	benzemeye	-0.30103
-4.695724	benzemeyen	-0.30103
-4.996755	benzemeyenlere	-0.30103
-4.695724	benzemez	-0.60206
-4.695724	benzemiyor	-0.60206
-4.519633	benzemiyordu	-0.7781513
-4.996755	benzemiyorlardı	-0.30103
-4.093665	benzer	-0.39794
-4.996755	benzerdi	-0.30103
-4.820663	benzeri	-0.30103
-4.996755	benzetir	-0.30103
-4.996755	benzetiyordu	-0.30103
-4.996755	benzetti	-0.30103
-4.996755	benzettiğinizi	-0.30103
-4.598814	benzeye	-0.3679768
-4.996755	benzeyeceklerini	-0.30103
-3.975565	benzeyen	-0.4045706
-4.996755	benzeyerek	-0.30103
-4.343542	benzi	-0.3309932
-4.996755	benzimde	-0.30103
-4.695724	benzin	-0.30103
-4.996755	benzinimiz	-0.30103
-4.996755	benzinin	-0.30103
-4.343542	benziyor	-0.69897
-4.093665	benziyordu	-0.60206
-4.996755	benziyorlar	-0.30103
-4.996755	benziyorlardı	-0.30103
-4.996755	benziyorsunuz	-0.30103
-4.996755	benziyorum	-0.30103
-4.996755	benziyoruz	-0.30103
-4.996755	beraat	-0.30103
-3.40569	beraber	-0.3222193
-4.598814	beraberce	-0.30103
-4.820663	beraberdi	-0.4771213
-4.820663	beraberdiler	-0.4771213
-4.996755	beraberinde	-0.30103
-4.695724	beraberlik	-0.30103
-4.996755	berabermiş	-0.30103
-4.067336	berbat	-0.4436975
-4.996755	berbatsın	-0.30103
-4.996755	berbattı	-0.30103
-4.256392	berber	-0.3245111
-4.695724	berbere	-0.39794
-4.996755	berberin	-0.30103
-4.996755	berbermiş	-0.30103
-4.996755	bere	-0.30103
-4.996755	beredir	-0.30103
-4.598814	bereket	-0.3679768
-4.996755	bereketli	-0.30103
-4.996755	berekettir	-0.30103
-4.996755	beresini	-0.30103
-3.3893	beri	-0.318289
-4.519633	beria	-0.3521825
-4.820663	beriayı	-0.30103
-4.996755	beria’nın	-0.30103
-4.996755	beriki	-0.30103
-4.996755	berişa	-0.30103
-4.695724	berk	-0.30103
-4.820663	berlin	-0.30103
-4.695724	berlinde	-0.30103
-4.996755	berlinden	-0.30103
-4.820663	berline	-0.30103
-4.820663	berlinin	-0.30103
-4.996755	bermutat	-0.30103
-4.996755	berrak	-0.30103
-4.996755	besarabyalı	-0.30103
-4.996755	besbelli	-0.30103
-4.820663	besbelliydi	-0.4771213
-4.996755	besle	-0.30103
-4.996755	besledik	-0.30103
-4.996755	beslemeden	-0.30103
-4.598814	beslemek	-0.30103
-4.996755	beslemekten	-0.30103
-4.695724	beslemez	-0.60206
-4.820663	beslenir	-0.4771213
-4.996755	beslenirken	-0.30103
-4.519633	besler	-0.3521825
-4.996755	besmeleli	-0.30103
-4.519633	beter	-0.3521825
-4.996755	beterdi	-0.30103
-4.598814	beterdir	-0.69897
-4.996755	betli	-0.30103
-4.820663	beton	-0.30103
-4.996755	bevliye	-0.30103
-3.484871	bey	-0.4149733
-4.996755	beyan	-0.30103
-3.581781	beyaz	-0.3396594
-4.996755	beyaza	-0.30103
-4.695724	beyazdı	-0.39794
-4.996755	beyazdır	-0.30103
-4.996755	beyazlanmıştı	-0.30103
-4.996755	beyazlığı	-0.30103
-4.996755	beyazın	-0.30103
-4.996755	beyazıt	-0.30103
-4.820663	beyazıt’a	-0.30103
-4.519633	beybaba	-0.30103
-4.996755	beybabanın	-0.30103
-4.996755	beyde	-0.30103
-4.820663	beyden	-0.30103
-4.996755	beydendi	-0.30103
-4.996755	beydi	-0.30103
-4.394694	beyefendi	-0.3802113
-4.996755	beyefendisiyle	-0.30103
-4.996755	beygir	-0.30103
-4.996755	beyhude	-0.30103
-4.820663	beyi	-0.30103
-4.067336	beyim	-0.4771212
-3.779271	beyin	-0.5166298
-4.996755	beyinsiz	-0.30103
-4.695724	beyle	-0.30103
-3.917573	beyler	-0.6842468
-4.820663	beylerin	-0.30103
-4.598814	beylik	-0.30103
-4.996755	beylikten	-0.30103
-4.996755	beyliktir	-0.30103
-4.996755	beyliği	-0.30103
-4.695724	beyni	-0.30103
-4.996755	beynime	-0.30103
-4.996755	beynimi	-0.30103
-4.996755	beynin	-0.30103
-4.996755	beyobasını	-0.30103
-4.996755	beyoğlunda	-0.30103
-4.996755	beysin	-0.30103
-4.820663	beyşehir	-0.30103
-4.996755	beyşehirden	-0.30103
-4.019031	bez	-0.447158
-4.996755	bezeden	-0.30103
-3.820663	bezi	-0.5606673
-4.996755	bezik	-0.30103
-4.996755	bezinden	-0.30103
-4.820663	bezini	-0.4771212
-4.452686	bezinin	-0.8450981
-4.394694	bezler	-0.6532125
-4.452686	bezleri	-0.60206
-4.996755	beğendi	-0.30103
-4.598814	beğendim	-0.69897
-4.519633	beğendin	-0.7781512
-4.996755	beğendiğim	-0.30103
-4.996755	beğendiğine	-0.30103
-4.996755	beğendiğinize	-0.30103
-4.996755	beğeneceksin	-0.30103
-4.996755	beğeneceğini	-0.30103
-4.996755	beğenilmesine	-0.30103
-4.996755	beğenirsin	-0.30103
-4.996755	beğenmedin	-0.30103
-4.996755	beğenmediğin	-0.30103
-4.996755	beğenmediğini	-0.30103
-4.996755	beğenmeyen	-0.30103
-4.996755	beğenmeyenin	-0.30103
-4.996755	beğenmez	-0.30103
-4.820663	beğenmiş	-0.30103
-4.820663	beğensin	-0.30103
-3.047364	beş	-0.5223069
-4.820663	beşe	-0.30103
-4.996755	beşer	-0.30103
-4.996755	beşeriz	-0.30103
-4.695724	beşi	-0.39794
-4.996755	beşik	-0.30103
-4.820663	beşikte	-0.30103
-4.996755	beşikten	-0.30103
-4.996755	beşinci	-0.30103
-4.820663	beşindeki	-0.4771213
-4.820663	beşinden	-0.30103
-4.820663	beşini	-0.30103
-4.598814	beşlik	-0.30103
-4.996755	beşlisi	-0.30103
-4.996755	bg	-0.30103
-4.695724	bi	-0.30103
-4.996755	bianca	-0.30103
-4.996755	biber	-0.30103
-4.996755	bihaber	-0.30103
-4.519633	bil	-0.4259688
-3.512455	bilateral	-0.5081555
-4.695724	bildikleri	-0.39794
-4.996755	bildiklerini	-0.30103
-4.996755	bildiktir	-0.30103
-4.820663	bildim	-0.30103
-4.343542	bildin	-0.69897
-4.820663	bildirdi	-0.4771213
-4.996755	bildirelim	-0.30103
-4.598814	bildirildi	-0.69897
-4.820663	bildirilmedi	-0.4771213
-4.996755	bildirin	-0.30103
-4.996755	bildirirler	-0.30103
-4.996755	bildiriyorlardı	-0.30103
-4.996755	bildirmişler	-0.30103
-4.519633	bildiği	-0.30103
-4.452686	bildiğim	-0.39794
-4.820663	bildiğimiz	-0.30103
-4.598814	bildiğin	-0.30103
-4.820663	bildiğinden	-0.30103
-4.996755	bildiğine	-0.30103
-4.343542	bildiğini	-0.4771212
-4.996755	bildiğiniz	-0.30103
-4.996755	bildiğinizi	-0.30103
-2.988154	bile	-0.3651475
-4.996755	bilebilir	-0.30103
-4.820663	bilebilirdim	-0.30103
-4.996755	bilebilirim	-0.30103
-4.996755	bileceğim	-0.30103
