
\data\
ngram 1=28833
ngram 2=96436
ngram 3=9163

\1-grams:
-4.992779	1	-0.30103
-4.816688	100	-0.4771213
-4.992779	12	-0.30103
-4.992779	13	-0.30103
-4.691749	15	-0.39794
-4.816688	24	-0.4771212
-4.992779	26	-0.30103
-4.992779	28	-0.30103
-4.992779	3	-0.30103
-4.992779	34	-0.30103
-4.992779	35	-0.30103
-4.992779	36	-0.30103
-4.992779	37	-0.30103
-4.816688	4	-0.4771212
-4.992779	40	-0.30103
-4.992779	44	-0.30103
-4.691749	5	-0.39794
-4.992779	5,3	-0.30103
-4.816688	5f	-0.30103
-4.594839	6	-0.3679768
-4.594839	60	-0.4771213
-4.992779	64	-0.30103
-4.992779	7	-0.30103
-4.992779	98	-0.30103
-4.992779	98,1	-0.30103
-0.7995985	</s>
-99	<s>	-0.6828499
-4.117718	a	-0.4074853
-4.691749	a.p	-0.60206
-4.992779	aaa	-0.30103
-4.816688	aaah	-0.30103
-4.816688	aah	-0.4771212
-4.594839	ab	-0.30103
-4.515657	aba	-0.3521825
-4.992779	abanın	-0.30103
-4.992779	abartmaya	-0.30103
-4.992779	abartıyorsun	-0.30103
-4.992779	abaza	-0.30103
-4.515657	abdal	-0.3521825
-4.691749	abdala	-0.30103
-4.691749	abdalın	-0.30103
-4.992779	abdest	-0.30103
-4.992779	abdestle	-0.30103
-4.992779	abdestsiz	-0.30103
-4.179865	abdomen	-0.69897
-4.214628	abdominal	-0.4522977
-4.594839	abdominopelvik	-0.69897
-4.992779	abdullah	-0.30103
-4.992779	abdurrahman	-0.30103
-4.691749	abi	-0.60206
-4.992779	abim	-0.30103
-4.691749	abla	-0.60206
-4.816688	ablacığım	-0.30103
-4.992779	ablası	-0.30103
-4.992779	ablasına	-0.30103
-4.816688	aborjin	-0.30103
-4.992779	aca	-0.30103
-3.749741	acaba	-0.4181434
-4.992779	acar	-0.30103
-4.390719	acayip	-0.4393327
-3.66034	acele	-0.4175355
-4.992779	aceleci	-0.30103
-4.594839	acelem	-0.3679768
-4.992779	acelemiz	-0.30103
-4.992779	acelen	-0.30103
-4.992779	aceleye	-0.30103
-4.594839	acemi	-0.30103
-4.816688	acemilik	-0.30103
-4.992779	acemiydim	-0.30103
-4.816688	acentadan	-0.30103
-4.992779	acentaya	-0.30103
-4.293809	acil	-0.447158
-4.992779	acilen	-0.30103
-4.992779	aciz	-0.30103
-3.681025	acı	-0.3521825
-4.992779	acıdan	-0.30103
-4.992779	acıdılar	-0.30103
-4.816688	acıdır	-0.30103
-4.992779	acıdığı	-0.30103
-4.515657	acıkan	-0.30103
-4.992779	acıklı	-0.30103
-4.992779	acıkmamış	-0.30103
-4.992779	acıkmıyor	-0.30103
-4.816688	acıkmış	-0.30103
-4.992779	acıktı	-0.30103
-4.992779	acıktık	-0.30103
-4.992779	acıktın	-0.30103
-4.992779	acıktınız	-0.30103
-4.992779	acıktırırsan	-0.30103
-4.992779	acıktığımı	-0.30103
-4.992779	acıkır	-0.30103
-4.992779	acılarını	-0.30103
-4.992779	acılıkla	-0.30103
-4.816688	acıman	-0.30103
-4.992779	acımasızsın	-0.30103
-4.992779	acımayacak	-0.30103
-4.992779	acımaz	-0.30103
-4.992779	acımıyor	-0.30103
-4.992779	acımış	-0.30103
-4.992779	acın	-0.30103
-4.992779	acınacak	-0.30103
-4.816688	acınası	-0.4771212
-4.992779	acından	-0.30103
-4.992779	acındırırsan	-0.30103
-4.992779	acını	-0.30103
-4.992779	acır	-0.30103
-4.992779	acırsın	-0.30103
-4.992779	acısı	-0.30103
-4.992779	acısından	-0.30103
-4.992779	acısını	-0.30103
-4.992779	acıt	-0.30103
-4.992779	acıtacak	-0.30103
-4.992779	acıtmayacak	-0.30103
-4.992779	acıtmıştı	-0.30103
-4.816688	acıttı	-0.4771212
-4.816688	acıtıyor	-0.30103
-4.992779	acıtıyordu	-0.30103
-4.594839	acıyan	-0.30103
-4.339566	acıyor	-0.69897
-4.816688	acıyı	-0.30103
-4.992779	acıyınız	-0.30103
-4.691749	ada	-0.30103
-4.992779	adaaam	-0.30103
-4.992779	adalar	-0.30103
-4.992779	adaleleri	-0.30103
-4.816688	adalelerini	-0.30103
-4.691749	adalet	-0.30103
-4.992779	adaletin	-0.30103
-3.169957	adam	-0.3756636
-3.97159	adama	-0.312311
-4.992779	adamak	-0.30103
-4.816688	adamakla	-0.4771213
-3.749741	adamakıllı	-0.30103
-4.816688	adamcağız	-0.30103
-4.992779	adamcağızı	-0.30103
-4.992779	adamcağızın	-0.30103
-4.992779	adamdan	-0.30103
-4.594839	adamdı	-0.69897
-4.515657	adamdır	-0.4259688
-4.992779	adamla	-0.30103
-4.293809	adamlar	-0.30103
-4.992779	adamlara	-0.30103
-4.992779	adamlarla	-0.30103
-4.691749	adamları	-0.30103
-4.691749	adamların	-0.30103
-4.992779	adamlarını	-0.30103
-4.992779	adamlarız	-0.30103
-4.992779	adammışsın	-0.30103
-4.515657	adamsın	-0.544068
-3.951386	adamı	-0.3233064
-4.515657	adamım	-0.544068
-4.992779	adamımız	-0.30103
-3.816688	adamın	-0.3168243
-4.691749	adamına	-0.60206
-4.992779	adamıyım	-0.30103
-4.816688	adana	-0.30103
-4.992779	adanmış	-0.30103
-4.691749	adanın	-0.30103
-4.992779	adası	-0.30103
-4.594839	aday	-0.30103
-4.816688	adaylar	-0.30103
-4.992779	adaylık	-0.30103
-4.992779	adaylığını	-0.30103
-4.992779	adayım	-0.30103
-4.214628	adaşım	-0.3467875
-4.992779	addır	-0.30103
-4.992779	adelphoe	-0.30103
-4.992779	adenomatöz	-0.30103
-4.117718	adet	-0.3565473
-3.846651	adeta	-0.3372421
-4.992779	adetleri	-0.30103
-4.992779	adettir	-0.30103
-4.448711	adi	-0.39794
-4.293809	adil	-0.5118834
-4.992779	adin	-0.30103
-4.992779	adla	-0.30103
-4.992779	adlandırılmıyor	-0.30103
-4.992779	adları	-0.30103
-4.992779	adliyeye	-0.30103
-4.594839	adlı	-0.4771213
-4.594839	adneksiyal	-0.4771212
-4.992779	adrenal	-0.30103
-4.992779	adres	-0.30103
-4.816688	adresi	-0.30103
-4.992779	adresimi	-0.30103
-4.691749	adresini	-0.30103
-4.992779	adreslerini	-0.30103
-4.992779	adresli	-0.30103
-3.895869	adı	-0.3823349
-3.501417	adım	-0.3958163
-4.816688	adıma	-0.4771213
-4.816688	adımda	-0.4771212
-4.992779	adımdan	-0.30103
-4.992779	adımlanın	-0.30103
-4.448711	adımlar	-0.4771213
-4.992779	adımlardan	-0.30103
-4.089689	adımlarla	-0.30103
-4.992779	adımları	-0.30103
-4.992779	adımlarım	-0.30103
-4.992779	adımlarını	-0.30103
-4.992779	adımlarınıza	-0.30103
-4.691749	adımı	-0.30103
-4.816688	adımına	-0.30103
-4.339566	adın	-0.4771213
-4.515657	adına	-0.3521825
-4.117718	adını	-0.30103
-4.594839	adınız	-0.3679768
-4.992779	adınızı	-0.30103
-4.992779	adıyla	-0.30103
-4.992779	aemilianın	-0.30103
-4.816688	aerasyonları	-0.4771213
-4.816688	aerasyonu	-0.30103
-4.594839	af	-0.3679768
-4.992779	afacan	-0.30103
-4.992779	afat	-0.30103
-4.691749	afedersiniz	-0.60206
-4.293809	aferin	-0.39794
-4.992779	afettir	-0.30103
-4.992779	affedebilecek	-0.30103
-4.339566	affedersin	-0.4771213
-4.214628	affedersiniz	-0.4522976
-4.992779	affedilmez	-0.30103
-4.992779	affedin	-0.30103
-4.816688	affediniz	-0.30103
-4.816688	affediyorum	-0.4771212
-4.691749	affet	-0.39794
-4.816688	affetmeyeceğim	-0.4771212
-4.691749	affetsin	-0.60206
-4.992779	affettim	-0.30103
-4.992779	affettin	-0.30103
-4.992779	afili	-0.30103
-4.992779	afiyet	-0.30103
-4.816688	afrika	-0.30103
-4.992779	afrikalı	-0.30103
-3.586239	ah	-0.3462575
-4.816688	ahali	-0.30103
-4.992779	ahalisini	-0.30103
-4.992779	ahbabım	-0.30103
-4.816688	ahbabın	-0.30103
-4.117718	ahbap	-0.4393327
-4.992779	ahbaplara	-0.30103
-4.992779	ahbapları	-0.30103
-4.992779	ahbapların	-0.30103
-4.992779	ahbaplarına	-0.30103
-4.992779	ahbaplık	-0.30103
-4.992779	ahbaplığa	-0.30103
-4.816688	ahbaplığı	-0.30103
-4.992779	ahbaplığımız	-0.30103
-4.992779	ahbapça	-0.30103
-4.816688	ahenge	-0.30103
-4.992779	ahengini	-0.30103
-4.816688	ahenk	-0.30103
-4.992779	ahenkler	-0.30103
-4.992779	ahenkli	-0.30103
-4.992779	ahenktardılar	-0.30103
-4.594839	aheste	-0.4771213
-4.992779	ahh	-0.30103
-4.992779	ahha	-0.30103
-4.691749	ahhh	-0.39794
-4.691749	ahlak	-0.30103
-4.992779	ahlakı	-0.30103
-4.992779	ahlatın	-0.30103
-4.594839	ahmak	-0.30103
-4.992779	ahmaklıktır	-0.30103
-4.992779	ahmağa	-0.30103
-4.691749	ahmağı	-0.30103
-4.992779	ahmed	-0.30103
-4.691749	ahmet	-0.39794
-4.992779	ahreni	-0.30103
-4.992779	ahtisaari	-0.30103
-4.992779	ahçıya	-0.30103
-4.816688	ahı	-0.30103
-4.594839	ahını	-0.3679768
-4.992779	ahır	-0.30103
-4.992779	ahıra	-0.30103
-4.992779	ahırda	-0.30103
-4.992779	ahırını	-0.30103
-4.691749	ahşap	-0.30103
-4.992779	ai	-0.30103
-4.992779	aidim	-0.30103
-4.214628	aile	-0.3222193
-4.992779	ailedensin	-0.30103
-4.691749	aileler	-0.30103
-4.992779	aileleri	-0.30103
-4.252416	ailem	-0.4771212
-4.992779	aileme	-0.30103
-4.992779	ailemize	-0.30103
-4.691749	ailen	-0.30103
-4.992779	ailene	-0.30103
-4.992779	ailenin	-0.30103
-4.816688	ailesi	-0.30103
-4.992779	ailesinden	-0.30103
-4.992779	ailesinin	-0.30103
-4.992779	aileye	-0.30103
-4.992779	aircomb	-0.30103
-4.992779	aishihik	-0.30103
-4.038536	ait	-0.3290587
-4.992779	aitsin	-0.30103
-4.992779	aitti	-0.30103
-4.992779	aittir	-0.30103
-4.992779	ajans	-0.30103
-3.951386	ak	-0.3233064
-4.992779	akacak	-0.30103
-4.992779	akademisi	-0.30103
-4.594839	akan	-0.3679768
-4.992779	akanı	-0.30103
-4.992779	akanından	-0.30103
-4.594839	akar	-0.4771212
-4.992779	akara	-0.30103
-4.992779	akarak	-0.30103
-4.816688	akarken	-0.30103
-4.691749	akarsu	-0.30103
-4.992779	akarsuya	-0.30103
-4.992779	akash	-0.30103
-4.691749	akbulut	-0.30103
-4.992779	akbulutun	-0.30103
-3.537934	akciğer	-0.6532125
-4.816688	akciğerde	-0.30103
-4.992779	akciğerin	-0.30103
-4.594839	akciğerlerde	-0.30103
-4.816688	akdeniz	-0.30103
-4.992779	akisler	-0.30103
-4.992779	akisleri	-0.30103
-4.691749	akla	-0.30103
-4.992779	aklarını	-0.30103
-4.089689	aklı	-0.3735807
-4.691749	aklım	-0.39794
-3.895869	aklıma	-0.4336556
-4.390719	aklımdan	-0.3802112
-4.992779	aklımdasın	-0.30103
-4.515657	aklımı	-0.30103
-4.691749	aklımız	-0.30103
-4.992779	aklımıza	-0.30103
-4.992779	aklımızdan	-0.30103
-4.515657	aklın	-0.30103
-4.147681	aklına	-0.3617278
-4.594839	aklında	-0.3679768
-4.448711	aklından	-0.39794
-4.038536	aklını	-0.4313638
-4.992779	aklınızda	-0.30103
-4.992779	aklınızı	-0.30103
-4.992779	aklığı	-0.30103
-4.992779	akmasa	-0.30103
-4.992779	akmayınca	-0.30103
-4.992779	akmazsa	-0.30103
-4.992779	akmıyor	-0.30103
-4.992779	akmıyordu	-0.30103
-4.992779	akraba	-0.30103
-4.992779	akrabadan	-0.30103
-4.816688	akrabaları	-0.30103
-4.691749	akrabalarından	-0.30103
-4.992779	akrabam	-0.30103
-4.992779	akrabamdır	-0.30103
-4.992779	akrabamın	-0.30103
-4.992779	akrabanın	-0.30103
-4.992779	akrabanız	-0.30103
-4.816688	akrabası	-0.30103
-4.816688	akrabaya	-0.30103
-4.992779	akratılan	-0.30103
-4.816688	akrep	-0.30103
-4.992779	aksak	-0.30103
-4.992779	aksamak	-0.30103
-4.816688	aksaraya	-0.30103
-4.992779	aksediyordu	-0.30103
-4.515657	aksi	-0.3521825
-4.816688	aksiel	-0.30103
-4.992779	aksilla	-0.30103
-4.594839	aksiller	-0.69897
-4.594839	aksine	-0.4771213
-4.515657	aksiyel	-0.5440681
-4.992779	aksı	-0.30103
-4.992779	aktan	-0.30103
-4.992779	aktarma	-0.30103
-4.992779	aktif	-0.30103
-4.992779	aktivite	-0.30103
-4.816688	aktris	-0.30103
-4.992779	aktrislerin	-0.30103
-4.992779	aktör	-0.30103
-4.992779	aktörlerle	-0.30103
-4.992779	aktörüm	-0.30103
-4.992779	aktı	-0.30103
-4.992779	aktır	-0.30103
-4.992779	aktığı	-0.30103
-4.816688	akustik	-0.4771213
-4.691749	akut	-0.60206
-4.594839	akça	-0.30103
-4.992779	akçadır	-0.30103
-4.992779	akçanın	-0.30103
-4.992779	akçay	-0.30103
-4.816688	akçe	-0.30103
-4.992779	akçesine	-0.30103
-4.992779	akçesiyle	-0.30103
-4.816688	akçeye	-0.30103
-4.992779	akı	-0.30103
-4.816688	akıbet	-0.30103
-4.992779	akıbete	-0.30103
-4.992779	akıbeti	-0.30103
-3.816688	akıl	-0.3344538
-4.992779	akılcağızımı	-0.30103
-4.594839	akıldan	-0.3679768
-4.992779	akılları	-0.30103
-3.846651	akıllı	-0.3180633
-4.594839	akıllıca	-0.4771212
-4.992779	akıllıların	-0.30103
-4.816688	akıllısı	-0.30103
-4.339566	akılsız	-0.30103
-4.992779	akılsızın	-0.30103
-3.816688	akım	-0.4673614
-4.992779	akına	-0.30103
-4.992779	akıtacak	-0.30103
-4.691749	akıyor	-0.30103
-4.816688	akıyordu	-0.4771212
-4.992779	akışa	-0.30103
-4.816688	akışı	-0.30103
-4.992779	akışını	-0.30103
-3.412995	akşam	-0.3296752
-4.015055	akşama	-0.60206
-4.816688	akşamacak	-0.4771213
-4.992779	akşamda	-0.30103
-4.293809	akşamdan	-0.39794
-4.992779	akşamdı	-0.30103
-4.448711	akşamki	-0.3424226
-4.992779	akşamkine	-0.30103
-4.992779	akşamkinin	-0.30103
-4.992779	akşamla	-0.30103
-4.390719	akşamlar	-0.3357921
-4.515657	akşamları	-0.30103
-4.992779	akşamlı	-0.30103
-4.816688	akşamüstü	-0.30103
-4.390719	akşamüzeri	-0.3357921
-4.816688	akşamüzerleri	-0.30103
-4.448711	akşamı	-0.30103
-4.515657	akşamın	-0.30103
-4.992779	akşamına	-0.30103
-3.293809	al	-0.5118834
-4.448711	ala	-0.30103
-4.992779	alabama’daki	-0.30103
-4.992779	alabildiği	-0.30103
-4.816688	alabildiğine	-0.30103
-4.179865	alabilir	-0.845098
-4.992779	alabilirim	-0.30103
-4.816688	alabilirsin	-0.4771212
-4.992779	alabilirsiniz	-0.30103
-4.293809	alacak	-0.39794
-4.816688	alacakaranlık	-0.30103
-4.691749	alacakaranlıkta	-0.30103
-4.992779	alacakaranlığına	-0.30103
-4.816688	alacakaranlığında	-0.30103
-4.992779	alacaklıdır	-0.30103
-4.992779	alacaklıydım	-0.30103
-4.992779	alacaksın	-0.30103
-4.816688	alacalı	-0.30103
-4.992779	alacalısından	-0.30103
-4.992779	alacağı	-0.30103
-4.214628	alacağım	-1.079181
-4.992779	alacağımı	-0.30103
-4.992779	alacağın	-0.30103
-4.992779	alacağını	-0.30103
-4.816688	alacağız	-0.4771212
-4.339566	alaka	-0.3679768
-4.214628	alakadar	-0.30103
-4.992779	alakadarları	-0.30103
-4.992779	alakadarsın	-0.30103
-4.992779	alakalan	-0.30103
-4.691749	alakalandı	-0.60206
-4.992779	alakalandırdığı	-0.30103
-4.992779	alakaları	-0.30103
-4.992779	alakalarına	-0.30103
-4.594839	alakam	-0.30103
-4.992779	alakamı	-0.30103
-4.992779	alakamın	-0.30103
-4.339566	alakası	-0.4771213
-4.992779	alakasız	-0.30103
-4.992779	alakayı	-0.30103
-4.992779	alalım	-0.30103
-4.992779	alamadı	-0.30103
-4.992779	alamadılar	-0.30103
-4.816688	alamadım	-0.30103
-4.816688	alamamıştı	-0.4771212
-4.992779	alamayacaktı	-0.30103
-4.992779	alamayacağın	-0.30103
-4.992779	alamayan	-0.30103
-4.992779	alamayınca	-0.30103
-4.992779	alamaz	-0.30103
-4.992779	alamazdı	-0.30103
-4.691749	alamazsın	-0.60206
-4.992779	alamet	-0.30103
-4.992779	alameti	-0.30103
-4.816688	alamıyordum	-0.4771212
-4.691749	alamıyorum	-0.60206
-3.895869	alan	-0.4149733
-4.816688	alana	-0.30103
-4.390719	alanda	-0.3802113
-4.992779	alandan	-0.30103
-4.816688	alanlar	-0.30103
-4.515657	alanlarda	-0.30103
-4.816688	alanları	-0.30103
-4.992779	alanlarına	-0.30103
-4.390719	alanlarında	-0.4393327
-4.992779	alanlı	-0.30103
-4.448711	alanı	-0.39794
-4.816688	alanın	-0.30103
-4.515657	alanına	-0.7781512
-4.816688	alanında	-0.30103
-3.913598	alarak	-0.30103
-4.816688	alarm	-0.4771212
-4.992779	alasın	-0.30103
-4.252416	alay	-0.30103
-4.992779	alaya	-0.30103
-4.594839	alaycı	-0.3679768
-4.992779	alaylan	-0.30103
-4.992779	alayı	-0.30103
-4.293809	alayım	-0.7403626
-4.992779	alayına	-0.30103
-4.691749	albay	-0.60206
-4.992779	albümin	-0.30103
-4.992779	albümün	-0.30103
-4.992779	albümünü	-0.30103
-4.992779	albümünün	-0.30103
-4.992779	aldanma	-0.30103
-4.992779	aldanmadığıma	-0.30103
-4.992779	aldanmamış	-0.30103
-4.992779	aldanmayın	-0.30103
-4.992779	aldanmaz	-0.30103
-4.992779	aldanmış	-0.30103
-4.992779	aldanır	-0.30103
-4.992779	aldatma	-0.30103
-4.992779	aldatmak	-0.30103
-4.992779	aldatıldım	-0.30103
-4.992779	aldatılmış	-0.30103
-4.992779	aldatıyor	-0.30103
-4.992779	aldude	-0.30103
-3.545621	aldı	-0.6268836
-4.594839	aldık	-0.69897
-4.691749	aldıkları	-0.30103
-4.992779	aldıklarının	-0.30103
-4.816688	aldıktan	-0.4771213
-4.594839	aldılar	-0.30103
-3.788659	aldım	-0.5818566
-4.252416	aldın	-0.6368221
-4.515657	aldınız	-0.4259687
-4.992779	aldır	-0.30103
-4.992779	aldırdım	-0.30103
-4.691749	aldırma	-0.39794
-4.992779	aldırmadı	-0.30103
-4.992779	aldırmadılar	-0.30103
-4.992779	aldırmadım	-0.30103
-4.992779	aldırmalısınız	-0.30103
-4.992779	aldırmaya	-0.30103
-4.691749	aldırmayın	-0.60206
-4.992779	aldırırım	-0.30103
-4.992779	aldırırız	-0.30103
-4.691749	aldırış	-0.30103
-4.293809	aldığı	-0.359022
-4.816688	aldığım	-0.30103
-4.816688	aldığımız	-0.30103
-4.992779	aldığın	-0.30103
-4.992779	aldığını	-0.30103
-4.992779	alegorisidir	-0.30103
-4.992779	alelacayip	-0.30103
-4.691749	alelade	-0.39794
-4.992779	alelumum	-0.30103
-4.816688	alem	-0.30103
-4.992779	aleme	-0.30103
-4.992779	alemi	-0.30103
-4.992779	alemlerinden	-0.30103
-4.992779	alenileşen	-0.30103
-4.816688	aleniyet	-0.4771213
-4.992779	alerjim	-0.30103
-4.816688	alet	-0.4771213
-4.992779	aletlerini	-0.30103
-4.992779	aletlerle	-0.30103
-4.594839	alev	-0.30103
-4.992779	alevden	-0.30103
-4.992779	alevle	-0.30103
-4.992779	alevler	-0.30103
-4.992779	alevlerin	-0.30103
-4.992779	alevlerle	-0.30103
-4.992779	aleyhime	-0.30103
-4.816688	aleyhinde	-0.30103
-4.992779	aleyhindesiniz	-0.30103
-4.992779	aleykümselam	-0.30103
-4.992779	alfabesindeki	-0.30103
-4.992779	alfandaki	-0.30103
-4.992779	algı	-0.30103
-4.992779	algılama	-0.30103
-4.992779	algınlıklarıydı	-0.30103
-4.179865	ali	-0.3203351
-4.992779	alice	-0.30103
-4.992779	alide	-0.30103
-4.515657	alim	-0.30103
-4.992779	alimallah	-0.30103
-4.992779	alimdi	-0.30103
-4.992779	alimin	-0.30103
-4.992779	alimle	-0.30103
-4.691749	alinin	-0.30103
-4.252416	aliye	-0.3245111
-4.816688	aliyenin	-0.30103
-4.816688	aliyeyi	-0.30103
-4.992779	alkol	-0.30103
-4.816688	alkış	-0.30103
-4.992779	alkışlandı	-0.30103
-4.992779	alkışlandılar	-0.30103
-4.992779	alkışlar	-0.30103
-3.474265	allah	-0.3521825
-4.339566	allaha	-0.3679768
-4.515657	allahaısmarladık	-0.3521825
-4.992779	allahdır	-0.30103
-4.594839	allahtan	-0.3679768
-4.992779	allahuekber	-0.30103
-4.992779	allahı	-0.30103
-4.252416	allahım	-0.3853509
-4.214628	allahın	-0.30103
-4.691749	allahını	-0.39794
-4.992779	allah’ın	-0.30103
-4.992779	allak	-0.30103
-4.992779	allen	-0.30103
-4.816688	allı	-0.4771213
-4.992779	allık	-0.30103
-4.992779	allıkları	-0.30103
-4.06336	alma	-0.4149733
-4.515657	almadan	-0.3521825
-4.992779	almadık	-0.30103
-4.992779	almadılar	-0.30103
-4.594839	almadım	-0.4771212
-4.992779	almadığı	-0.30103
-4.992779	almadığın	-0.30103
-4.06336	almak	-0.3899711
-4.992779	almakta	-0.30103
-4.992779	almaktadır	-0.30103
-4.992779	almaktan	-0.30103
-4.992779	almalarına	-0.30103
-4.992779	almalarını	-0.30103
-4.992779	almalısın	-0.30103
-4.992779	almam	-0.30103
-4.992779	almama	-0.30103
-4.992779	almamıştı	-0.30103
-4.992779	almamıştım	-0.30103
-4.339566	alman	-0.30103
-4.339566	almanca	-0.30103
-4.992779	almandır	-0.30103
-4.992779	almanlarından	-0.30103
-4.992779	almanya	-0.30103
-4.992779	almanyadan	-0.30103
-4.691749	almanyaya	-0.30103
-4.816688	almanyayı	-0.30103
-4.992779	almanya’daki	-0.30103
-4.816688	almanı	-0.30103
-4.992779	almasın	-0.30103
-4.594839	almaya	-0.30103
-4.992779	almayarak	-0.30103
-4.515657	almayayım	-0.544068
-4.691749	almayı	-0.30103
-4.339566	almaz	-0.4771213
-4.992779	almazsa	-0.30103
-4.992779	almıyor	-0.30103
-4.992779	almıyordu	-0.30103
-4.816688	almıyorum	-0.4771212
-4.06336	almış	-0.4436975
-4.816688	almışlar	-0.30103
-4.594839	almışlardı	-0.69897
-4.992779	almışsın	-0.30103
-4.293809	almıştı	-0.7403627
-4.816688	almıştım	-0.4771212
-4.992779	almıştın	-0.30103
-4.816688	almıştır	-0.4771212
-4.992779	alna	-0.30103
-4.992779	alnı	-0.30103
-4.992779	alnıma	-0.30103
-4.515657	alnına	-0.30103
-4.992779	alnından	-0.30103
-4.816688	alnını	-0.30103
-4.816688	alnının	-0.30103
-4.816688	alo	-0.4771212
-4.992779	alpha	-0.30103
-4.992779	alsam	-0.30103
-4.816688	alsın	-0.4771212
-3.670559	alt	-0.4701724
-4.992779	altları	-0.30103
-3.97159	altmış	-0.3679768
-4.992779	altmışar	-0.30103
-4.816688	altmışlık	-0.30103
-4.992779	altmıştan	-0.30103
-4.691749	altta	-0.60206
-4.992779	alttakileri	-0.30103
-4.992779	alttan	-0.30103
-4.992779	altyazı	-0.30103
-4.992779	altüst	-0.30103
-3.396182	altı	-0.4429072
-4.992779	altıda	-0.30103
-4.992779	altımda	-0.30103
-4.992779	altımdaki	-0.30103
-3.846651	altın	-0.3180633
-3.862445	altına	-0.3617278
-3.802447	altında	-0.3332147
-4.691749	altındaki	-0.30103
-4.214628	altından	-0.30103
-4.992779	altındaydım	-0.30103
-4.992779	altındır	-0.30103
-4.992779	altınları	-0.30103
-4.515657	altını	-0.30103
-4.594839	altının	-0.3679768
-4.992779	altısı	-0.30103
-4.691749	alçacık	-0.30103
-4.089689	alçak	-0.3735807
-4.992779	alçaklara	-0.30103
-4.992779	alçal	-0.30103
-4.992779	alçalan	-0.30103
-4.992779	alçalmış	-0.30103
-4.992779	alçaltın	-0.30103
-4.992779	alçaltıp	-0.30103
-4.816688	alı	-0.30103
-4.816688	alıcı	-0.30103
-4.992779	alıkoyacak	-0.30103
-4.992779	alıkoyamayacaktı	-0.30103
-4.992779	alıkoyan	-0.30103
-4.992779	alıkoydum	-0.30103
-4.992779	alıkoyuyor	-0.30103
-4.992779	alımı	-0.30103
-4.089689	alın	-0.4973246
-4.816688	alınacak	-0.30103
-4.992779	alınamazdı	-0.30103
-4.252416	alınan	-0.4771213
-4.691749	alınca	-0.30103
-4.089689	alındı	-1.20412
-4.992779	alınma	-0.30103
-4.594839	alınmadı	-0.69897
-4.339566	alınmaz	-0.9542425
-4.816688	alınmış	-0.30103
-4.992779	alınmıştır	-0.30103
-4.992779	alınır	-0.30103
-4.992779	alınırdı	-0.30103
-3.737506	alıp	-0.3209248
-3.788659	alır	-0.5070845
-4.816688	alırdı	-0.30103
-4.992779	alırdım	-0.30103
-4.816688	alırken	-0.30103
-4.816688	alırsa	-0.30103
-4.992779	alırsam	-0.30103
-4.515657	alırsan	-0.30103
-4.594839	alırsın	-0.4771212
-4.339566	alırım	-0.69897
-4.816688	alıver	-0.30103
-3.992779	alıyor	-0.6812412
-4.293809	alıyordu	-1
-4.992779	alıyorduk	-0.30103
-4.992779	alıyordum	-0.30103
-4.992779	alıyorlar	-0.30103
-4.992779	alıyorlarsa	-0.30103
-4.992779	alıyorsun	-0.30103
-4.293809	alıyorum	-1
-4.992779	alışkanlıkla	-0.30103
-4.992779	alışkanlığı	-0.30103
-4.594839	alışkın	-0.30103
-4.992779	alışkındı	-0.30103
-4.992779	alışkınız	-0.30103
-4.992779	alışmadık	-0.30103
-4.992779	alışmamıştım	-0.30103
-4.992779	alışmayan	-0.30103
-4.691749	alışmış	-0.39794
-4.992779	alışmışa	-0.30103
-4.992779	alışmıştım	-0.30103
-4.816688	alışsan	-0.4771212
-4.992779	alıştılar	-0.30103
-4.691749	alıştım	-0.39794
-4.992779	alıştıracaksın	-0.30103
-4.992779	alıştırır	-0.30103
-4.992779	alıştığı	-0.30103
-4.816688	alışveriş	-0.30103
-4.816688	alışverişi	-0.30103
-4.691749	alışverişte	-0.30103
-4.992779	alışık	-0.30103
-4.992779	alışınca	-0.30103
-4.992779	alışını	-0.30103
-4.992779	alışının	-0.30103
-4.816688	alışır	-0.30103
-4.992779	alışığım	-0.30103
-2.80385	ama	-0.4213238
-4.992779	amacı	-0.30103
-4.816688	amacım	-0.30103
-4.691749	amacın	-0.39794
-3.603613	aman	-0.4062654
-4.339566	amanın	-0.30103
-4.816688	aması	-0.30103
-4.816688	amaç	-0.30103
-4.992779	amaçlanan	-0.30103
-4.992779	amaçlanıyor	-0.30103
-4.816688	amaçlı	-0.4771213
-4.816688	ambar	-0.30103
-4.992779	ambara	-0.30103
-4.992779	ambarcı	-0.30103
-4.992779	ambardan	-0.30103
-4.992779	ambarları	-0.30103
-4.992779	ambarı	-0.30103
-4.992779	ambarın	-0.30103
-4.594839	ambarında	-0.3679768
-4.992779	ambarındaki	-0.30103
-4.992779	amberidir	-0.30103
-4.448711	ambulans	-0.30103
-4.515657	amca	-0.3521825
-4.992779	amcam	-0.30103
-4.992779	amcamı	-0.30103
-4.992779	amcası	-0.30103
-4.691749	amele	-0.30103
-4.816688	amelelik	-0.30103
-4.691749	amelenin	-0.30103
-4.816688	amelesi	-0.30103
-4.992779	ameleye	-0.30103
-4.117718	ameliyat	-0.3565473
-4.992779	ameliyata	-0.30103
-4.992779	ameliyatsız	-0.30103
-4.691749	ameliyatta	-0.39794
-4.816688	ameliyattan	-0.30103
-4.992779	ameliyatı	-0.30103
-4.816688	ameliyatın	-0.30103
-4.691749	ameliyatında	-0.30103
-4.992779	amerika	-0.30103
-4.816688	amerikada	-0.30103
-4.816688	amerikalı	-0.30103
-4.816688	amerikalıdır	-0.4771212
-4.816688	amerikalılar	-0.30103
-4.816688	amerikan	-0.30103
-4.992779	amfibi	-0.30103
-4.992779	amfizematöz	-0.30103
-4.816688	amin	-0.30103
-4.992779	amir	-0.30103
-4.515657	amma	-0.30103
-4.992779	amnion	-0.30103
-4.992779	amniotik	-0.30103
-4.992779	ampisilin	-0.30103
-4.992779	ampulü	-0.30103
-4.992779	amuca	-0.30103
-4.992779	amına	-0.30103
-3.650356	an	-0.3550118
-3.508479	ana	-0.4676797
-4.594839	anacığım	-0.30103
-4.816688	anadan	-0.30103
-4.816688	anadolu	-0.30103
-4.992779	anadoluyu	-0.30103
-4.816688	anafor	-0.30103
-4.992779	anaforlamadığımız	-0.30103
-4.252416	anahtar	-0.3853509
-4.992779	anahtarla	-0.30103
-4.691749	anahtarlar	-0.39794
-4.816688	anahtarları	-0.30103
-4.992779	anahtarların	-0.30103
-4.816688	anahtarlarını	-0.4771213
-4.252416	anahtarı	-0.3245111
-4.992779	anahtarın	-0.30103
-4.992779	analist	-0.30103
-4.992779	analistler	-0.30103
-4.992779	analizi	-0.30103
-4.992779	analı	-0.30103
-4.992779	analık	-0.30103
-4.594839	anam	-0.3679768
-4.992779	anama	-0.30103
-4.992779	anamdan	-0.30103
-4.992779	anamla	-0.30103
-4.992779	anamı	-0.30103
-4.816688	anamın	-0.30103
-4.992779	anamızdan	-0.30103
-4.515657	anan	-0.30103
-4.992779	anana	-0.30103
-4.992779	anansa	-0.30103
-4.992779	ananı	-0.30103
-4.515657	ananın	-0.3521825
-4.992779	anaoğul	-0.30103
-4.06336	anası	-0.3152704
-4.594839	anasına	-0.3679768
-4.691749	anasından	-0.30103
-4.594839	anasını	-0.3679768
-4.992779	anasının	-0.30103
-4.816688	anasıyla	-0.30103
-4.992779	anasız	-0.30103
-4.448711	anatomi	-0.845098
-4.293809	anatomik	-0.60206
-4.992779	anayasayı	-0.30103
-4.691749	anayı	-0.30103
-4.992779	anaç	-0.30103
-3.45496	ancak	-0.3539661
-3.621711	anda	-0.3159216
-4.992779	andaki	-0.30103
-4.515657	andan	-0.544068
-4.992779	andrea	-0.30103
-4.992779	andy	-0.30103
-4.992779	andıran	-0.30103
-4.992779	andırıyor	-0.30103
-4.816688	andırıyordu	-0.4771212
-4.992779	anekoik	-0.30103
-4.992779	anevrizmatik	-0.30103
-4.992779	angeles	-0.30103
-4.992779	angın	-0.30103
-4.594839	ani	-0.3679768
-4.816688	aniden	-0.30103
-4.691749	anjina	-0.60206
-4.691749	anjiyografi	-0.60206
-4.992779	ankara	-0.30103
-4.816688	ankarada	-0.30103
-4.816688	ankaradan	-0.30103
-4.992779	ankaranın	-0.30103
-4.448711	ankaraya	-0.30103
-4.992779	ankete	-0.30103
-4.816688	anki	-0.30103
-4.992779	anla	-0.30103
-4.390719	anladı	-0.5228788
-4.816688	anladık	-0.30103
-4.992779	anladıkça	-0.30103
-4.816688	anladılar	-0.4771212
-3.76233	anladım	-0.8129133
-4.015055	anladın	-0.8450982
-4.390719	anladınız	-0.6532125
-4.992779	anladığımı	-0.30103
-4.992779	anladığına	-0.30103
-4.992779	anlam	-0.30103
-4.252416	anlama	-0.7781513
-4.816688	anlamadan	-0.30103
-4.992779	anlamadı	-0.30103
-4.816688	anlamadık	-0.30103
-4.179865	anlamadım	-0.69897
-4.816688	anlamadın	-0.4771213
-4.816688	anlamadınız	-0.4771213
-4.992779	anlamadığı	-0.30103
-4.691749	anlamadığım	-0.60206
-4.515657	anlamak	-0.30103
-4.816688	anlamakta	-0.30103
-4.992779	anlamaktan	-0.30103
-4.992779	anlamalarına	-0.30103
-4.816688	anlamalısın	-0.4771212
-4.992779	anlamam	-0.30103
-4.992779	anlamama	-0.30103
-4.992779	anlamamış	-0.30103
-4.992779	anlamamıştım	-0.30103
-4.992779	anlamanı	-0.30103
-4.691749	anlamaya	-0.30103
-4.816688	anlamayacak	-0.30103
-4.992779	anlamayan	-0.30103
-4.992779	anlamayana	-0.30103
-4.691749	anlamayarak	-0.30103
-4.992779	anlamayın	-0.30103
-4.691749	anlamaz	-0.39794
-4.691749	anlamda	-0.39794
-4.06336	anlamlı	-0.4771213
-4.448711	anlamı	-0.3424227
-4.448711	anlamını	-0.4771213
-4.594839	anlamıyor	-0.3679768
-4.992779	anlamıyordu	-0.30103
-4.816688	anlamıyordum	-0.30103
-4.992779	anlamıyormuş	-0.30103
-4.691749	anlamıyorsun	-0.60206
-4.992779	anlamıyorsunuz	-0.30103
-4.117718	anlamıyorum	-0.90309
-4.448711	anlamış	-0.39794
-4.992779	anlamışlar	-0.30103
-4.515657	anlamıştı	-0.7781512
-4.515657	anlamıştım	-0.544068
-4.293809	anlar	-0.39794
-4.992779	anlarda	-0.30103
-4.992779	anlarlar	-0.30103
-4.992779	anlarmış	-0.30103
-4.691749	anlarsın	-0.39794
-4.992779	anlarsınız	-0.30103
-4.691749	anlarım	-0.39794
-4.992779	anlarız	-0.30103
-4.992779	anlasınlar	-0.30103
-3.932081	anlat	-0.6690068
-4.992779	anlatabildim	-0.30103
-4.992779	anlatabilecek	-0.30103
-4.992779	anlatabiliyor	-0.30103
-4.691749	anlatacak	-0.30103
-4.992779	anlatacaksın	-0.30103
-4.992779	anlatacaktım	-0.30103
-4.992779	anlatacaktın	-0.30103
-4.992779	anlatacağım	-0.30103
-4.992779	anlatacağız	-0.30103
-4.992779	anlatalım	-0.30103
-4.992779	anlatamadım	-0.30103
-4.992779	anlatamam	-0.30103
-4.992779	anlatamamışsın	-0.30103
-4.992779	anlatamazsam	-0.30103
-4.992779	anlatamıyordum	-0.30103
-4.992779	anlatamıyoruz	-0.30103
-4.992779	anlatan	-0.30103
-4.992779	anlatana	-0.30103
-4.339566	anlatayım	-0.69897
-4.992779	anlatma	-0.30103
-4.992779	anlatmadı	-0.30103
-4.992779	anlatmadım	-0.30103
-4.816688	anlatmadın	-0.4771212
-4.293809	anlatmak	-0.30103
-4.992779	anlatmakla	-0.30103
-4.992779	anlatmaktansa	-0.30103
-4.992779	anlatmama	-0.30103
-4.992779	anlatması	-0.30103
-4.448711	anlatmaya	-0.39794
-4.816688	anlatmış	-0.30103
-4.691749	anlatmıştım	-0.60206
-4.691749	anlatsana	-0.39794
-4.992779	anlatsın	-0.30103
-4.06336	anlattı	-0.8016324
-4.992779	anlattıkları	-0.30103
-4.992779	anlattıktan	-0.30103
-4.992779	anlattılar	-0.30103
-4.992779	anlattım	-0.30103
-4.816688	anlattın	-0.30103
-4.992779	anlattıran	-0.30103
-4.992779	anlattığım	-0.30103
-4.691749	anlattığına	-0.60206
-4.992779	anlatılanlar	-0.30103
-4.691749	anlatın	-0.30103
-4.992779	anlatıncaya	-0.30103
-4.992779	anlatıp	-0.30103
-4.992779	anlatır	-0.30103
-4.992779	anlatırsın	-0.30103
-4.515657	anlatırım	-0.4259687
-4.594839	anlatıyordu	-0.69897
-4.992779	anlatıyorlardı	-0.30103
-4.390719	anlatıyorsun	-0.6532125
-4.992779	anlayabileceğiniz	-0.30103
-4.992779	anlayabilirim	-0.30103
-4.992779	anlayabiliyorum	-0.30103
-4.992779	anlayacak	-0.30103
-4.816688	anlayacaksın	-0.4771212
-4.992779	anlayacaksınız	-0.30103
-4.992779	anlayacaktır	-0.30103
-4.992779	anlayacağımdan	-0.30103
-4.816688	anlayacağın	-0.30103
-4.992779	anlayacağınız	-0.30103
-4.816688	anlayamadı	-0.30103
-4.594839	anlayamadım	-0.69897
-4.992779	anlayamadın	-0.30103
-4.691749	anlayamadığı	-0.39794
-4.594839	anlayamadığım	-0.4771213
-4.992779	anlayamayarak	-0.30103
-4.992779	anlayamazsın	-0.30103
-4.691749	anlayamıyordum	-0.60206
-4.816688	anlayamıyorum	-0.4771212
-4.515657	anlayan	-0.544068
-4.992779	anlayana	-0.30103
-4.992779	anlayanların	-0.30103
-4.816688	anlayarak	-0.30103
-4.515657	anlayınca	-0.30103
-4.691749	anlayışlı	-0.39794
-4.992779	anlayışı	-0.30103
-4.992779	anlayışınız	-0.30103
-4.992779	anlaşabiliriz	-0.30103
-4.992779	anlaşalım	-0.30103
-4.214628	anlaşma	-0.3756636
-4.992779	anlaşmadan	-0.30103
-4.691749	anlaşmamız	-0.30103
-4.992779	anlaşmamıştık	-0.30103
-4.691749	anlaşması	-0.30103
-4.992779	anlaşmazlık	-0.30103
-4.992779	anlaşmazlığın	-0.30103
-4.992779	anlaşmazsak	-0.30103
-4.992779	anlaşmışlardı	-0.30103
-4.992779	anlaşmışlardır	-0.30103
-4.594839	anlaştık	-0.3679768
-4.992779	anlaşılabilir	-0.30103
-4.816688	anlaşılacak	-0.30103
-4.992779	anlaşılacağını	-0.30103
-4.816688	anlaşılan	-0.30103
-4.448711	anlaşıldı	-0.3424227
-4.992779	anlaşılmak	-0.30103
-4.594839	anlaşılmaktadır	-0.69897
-4.992779	anlaşılmasına	-0.30103
-4.252416	anlaşılmaz	-0.3521825
-4.992779	anlaşılmıyordu	-0.30103
-4.691749	anlaşılır	-0.60206
-4.992779	anlaşılırdı	-0.30103
-4.992779	anlaşılıyor	-0.30103
-4.515657	anlaşılıyordu	-0.7781512
-4.992779	anliyor	-0.30103
-4.992779	anlı	-0.30103
-4.117718	anlıyor	-0.6532125
-4.992779	anlıyordu	-0.30103
-4.214628	anlıyordum	-1.079181
-4.992779	anlıyorlardı	-0.30103
-4.515657	anlıyorsun	-0.4259687
-4.992779	anlıyorsunuz	-0.30103
-3.816688	anlıyorum	-0.7659168
-3.816688	anne	-0.5910646
-4.816688	anneciğim	-0.4771212
-4.992779	annelerinin	-0.30103
-4.06336	annem	-0.3484547
-4.992779	annemdi	-0.30103
-4.992779	anneme	-0.30103
-4.691749	annemi	-0.30103
-4.816688	annemin	-0.30103
-4.992779	annemle	-0.30103
-4.992779	annemsin	-0.30103
-4.214628	annen	-0.3467875
-4.992779	anneni	-0.30103
-4.691749	anneniz	-0.39794
-4.992779	annenizin	-0.30103
-4.992779	annenle	-0.30103
-4.390719	annesi	-0.30103
-4.992779	annesine	-0.30103
-4.691749	annesinin	-0.30103
-4.992779	annesisin	-0.30103
-4.816688	annesiyim	-0.4771212
-4.816688	annesiyle	-0.30103
-4.816688	anomalisi	-0.4771212
-4.816688	anormal	-0.30103
-4.594839	anormallik	-0.3679768
-4.992779	anormammo	-0.30103
-4.992779	ans	-0.30103
-4.992779	ant	-0.30103
-4.992779	antep	-0.30103
-4.992779	antepsin	-0.30103
-4.816688	anterior	-0.4771213
-4.992779	anterobazal	-0.30103
-4.992779	anteromedial	-0.30103
-4.992779	antevert	-0.30103
-4.992779	anteverttir	-0.30103
-4.992779	anthony	-0.30103
-4.816688	antiaritmik	-0.30103
-4.992779	antibiyoterapisine	-0.30103
-4.816688	antibiyotik	-0.30103
-4.691749	antidiyabetik	-0.30103
-4.594839	antihipertansif	-0.30103
-4.691749	antika	-0.30103
-4.816688	antikoagulan	-0.30103
-4.992779	antonio	-0.30103
-4.992779	antrenör	-0.30103
-4.992779	antropoloji	-0.30103
-4.816688	anzavur	-0.30103
-4.816688	anı	-0.30103
-4.992779	anılmaz	-0.30103
-4.816688	anılır	-0.4771212
-4.992779	anıtın	-0.30103
-4.038536	aort	-0.6434527
-4.339566	aorta	-0.30103
-4.816688	aortada	-0.30103
-4.992779	aortopulmoner	-0.30103
-4.179865	ap	-0.60206
-4.816688	aparey	-0.4771213
-4.816688	apartman	-0.30103
-4.816688	apartmanda	-0.30103
-4.594839	apartmanın	-0.30103
-4.691749	apaçık	-0.30103
-4.992779	apeks	-0.30103
-4.816688	apeksine	-0.4771213
-4.816688	apikal	-0.4771213
-4.691749	apikoposterior	-0.60206
-4.816688	apne	-0.4771213
-4.816688	appendiks	-0.4771213
-3.788659	aptal	-0.3601514
-4.691749	aptala	-0.30103
-4.390719	aptalca	-0.5228788
-4.992779	aptalcaydı	-0.30103
-4.816688	aptallar	-0.4771212
-4.992779	aptalları	-0.30103
-4.992779	aptallaşma	-0.30103
-4.992779	aptallık	-0.30103
-4.992779	aptallıktır	-0.30103
-4.992779	aptallığa	-0.30103
-4.594839	aptalım	-0.69897
-4.816688	aptalın	-0.30103
-4.992779	aptes	-0.30103
-4.992779	apteshaneleri	-0.30103
-4.992779	aptesliğin	-0.30103
-4.448711	ar	-0.30103
-3.530381	ara	-0.7911162
-3.846651	araba	-0.3273589
-4.816688	arabacı	-0.30103
-4.992779	arabacılık	-0.30103
-4.390719	arabada	-0.30103
-4.816688	arabadan	-0.4771212
-4.816688	arabadayım	-0.4771212
-4.448711	arabalar	-0.39794
-4.816688	arabalara	-0.30103
-4.992779	arabalarda	-0.30103
-4.992779	arabalardan	-0.30103
-4.594839	arabaların	-0.30103
-4.992779	arabalarının	-0.30103
-4.992779	arabalı	-0.30103
-4.691749	arabam	-0.30103
-4.992779	arabama	-0.30103
-4.992779	arabamız	-0.30103
-4.594839	araban	-0.30103
-4.992779	arabana	-0.30103
-4.390719	arabanı	-0.3802112
-4.448711	arabanın	-0.30103
-4.691749	arabası	-0.60206
-4.992779	arabasına	-0.30103
-4.992779	arabasını	-0.30103
-4.992779	arabasının	-0.30103
-4.339566	arabaya	-0.3309932
-4.390719	arabayı	-0.30103
-4.992779	aracılığıyla	-0.30103
-4.992779	aracıyım	-0.30103
-4.147681	arada	-0.3187588
-4.691749	aradaki	-0.30103
-4.390719	aradan	-0.3802113
-4.515657	aradı	-0.5440681
-4.816688	aradılar	-0.4771212
-4.252416	aradım	-0.544068
-4.691749	aradın	-0.39794
-4.992779	aradınız	-0.30103
-4.816688	aradığı	-0.30103
-4.992779	aradığım	-0.30103
-4.992779	aradığımı	-0.30103
-4.691749	aradığın	-0.39794
-4.992779	aradığına	-0.30103
-4.816688	aradığını	-0.30103
-4.816688	aradığınız	-0.30103
-4.992779	arafattan	-0.30103
-4.691749	araladı	-0.39794
-4.691749	aralandı	-0.30103
-4.992779	araları	-0.30103
-4.992779	aralarına	-0.30103
-4.117718	aralarında	-0.30103
-4.816688	aralarından	-0.30103
-4.992779	aralarındaydı	-0.30103
-4.992779	aralayarak	-0.30103
-4.992779	aralnormal	-0.30103
-3.749741	aralık	-0.3215517
-4.992779	aralıka	-0.30103
-4.992779	aralıkla	-0.30103
-4.816688	aralıklarla	-0.30103
-4.147681	aralıkları	-0.5006024
-4.691749	aralıklarının	-0.60206
-4.515657	aralıkta	-0.4259687
-4.992779	aralıktan	-0.30103
-4.992779	aralıktı	-0.30103
-4.992779	aralığa	-0.30103
-4.390719	aralığı	-0.5228788
-4.691749	aralığına	-0.30103
-4.816688	aralığında	-0.4771213
-4.992779	aralığından	-0.30103
-4.691749	arama	-0.30103
-4.992779	aramadı	-0.30103
-4.816688	aramadın	-0.4771212
-4.691749	aramak	-0.30103
-4.992779	aramakla	-0.30103
-4.992779	aramakta	-0.30103
-4.992779	aramaktan	-0.30103
-4.992779	aramalıydın	-0.30103
-4.992779	aramalıyım	-0.30103
-4.992779	aramamak	-0.30103
-4.992779	aramamı	-0.30103
-4.992779	aramanı	-0.30103
-4.992779	araması	-0.30103
-4.252416	aramaya	-0.4259688
-4.992779	aramayı	-0.30103
-4.816688	aramda	-0.30103
-4.992779	aramıyor	-0.30103
-4.992779	aramız	-0.30103
-4.252416	aramızda	-0.30103
-4.691749	aramızdaki	-0.39794
-4.992779	aramızı	-0.30103
-4.691749	aramış	-0.39794
-4.992779	aramışlar	-0.30103
-4.992779	aramıştınız	-0.30103
-4.992779	arandı	-0.30103
-4.992779	arandıktan	-0.30103
-4.816688	arandığı	-0.30103
-4.992779	aranırken	-0.30103
-4.992779	aranıyor	-0.30103
-4.992779	aranıza	-0.30103
-4.691749	arap	-0.30103
-4.691749	araplar	-0.30103
-4.992779	arapça	-0.30103
-4.992779	arapın	-0.30103
-4.390719	arar	-0.5228788
-4.816688	ararken	-0.30103
-4.992779	ararmış	-0.30103
-4.992779	ararsan	-0.30103
-4.691749	ararsın	-0.60206
-4.252416	ararım	-0.7781512
-4.691749	ararız	-0.60206
-4.992779	arasam	-0.30103
-4.339566	arası	-0.3309932
-4.214628	arasına	-0.30103
-3.537934	arasında	-0.3458423
-4.339566	arasındaki	-0.3309932
-4.117718	arasından	-0.3174204
-4.992779	arasındaydı	-0.30103
-4.992779	arattıracaktı	-0.30103
-4.992779	aratır	-0.30103
-4.992779	aravurgunun	-0.30103
-4.147681	araya	-0.3617278
-4.816688	arayacak	-0.30103
-4.816688	arayacaksın	-0.4771212
-4.992779	arayacaktı	-0.30103
-4.515657	arayacaktım	-0.7781512
-4.992779	arayacaktır	-0.30103
-4.448711	arayacağım	-0.845098
-4.992779	arayacağız	-0.30103
-4.691749	arayalım	-0.39794
-4.992779	arayamadık	-0.30103
-4.448711	arayan	-0.30103
-4.992779	arayanlar	-0.30103
-4.594839	arayın	-0.4771212
-4.992779	arayıncaya	-0.30103
-4.816688	arayıp	-0.30103
-4.992779	arazi	-0.30103
-4.816688	araç	-0.30103
-4.992779	araçlar	-0.30103
-4.992779	araçlarının	-0.30103
-4.992779	araştır	-0.30103
-4.992779	araştıracağım	-0.30103
-4.992779	araştırdım	-0.30103
-4.992779	araştırma	-0.30103
-4.992779	araştırmacılardan	-0.30103
-4.992779	araştırmak	-0.30103
-4.992779	araştırması	-0.30103
-4.816688	araştırmaya	-0.30103
-4.992779	araştırmışlar	-0.30103
-4.992779	araştırıcı	-0.30103
-4.992779	araştırınca	-0.30103
-4.992779	araştırır	-0.30103
-4.992779	araştırıyordum	-0.30103
-4.992779	araştırıyorum	-0.30103
-4.992779	araştırıyoruz	-0.30103
-4.992779	archie	-0.30103
-4.992779	arda	-0.30103
-4.992779	ardıcın	-0.30103
-4.992779	ardımdan	-0.30103
-4.515657	ardına	-0.30103
-4.992779	ardınca	-0.30103
-4.594839	ardında	-0.30103
-4.147681	ardından	-0.30103
-4.992779	ardıç	-0.30103
-4.992779	arefe	-0.30103
-4.992779	arenstorf	-0.30103
-4.992779	arif	-0.30103
-4.691749	arife	-0.39794
-4.992779	ario	-0.30103
-4.992779	aritmetikten	-0.30103
-4.691749	aritmi	-0.60206
-4.117718	arka	-0.3174204
-4.515657	arkada	-0.30103
-4.992779	arkadaki	-0.30103
-4.816688	arkadan	-0.30103
-3.831411	arkadaş	-0.3458423
-4.293809	arkadaşlar	-0.39794
-4.691749	arkadaşlardan	-0.30103
-4.992779	arkadaşlarla	-0.30103
-4.816688	arkadaşları	-0.30103
-4.390719	arkadaşlarım	-0.3802113
-4.992779	arkadaşlarımdan	-0.30103
-4.992779	arkadaşlarımın	-0.30103
-4.691749	arkadaşların	-0.30103
-4.691749	arkadaşlarına	-0.30103
-4.992779	arkadaşlarını	-0.30103
-4.816688	arkadaşlarının	-0.30103
-4.448711	arkadaşlık	-0.30103
-4.992779	arkadaşlığa	-0.30103
-4.992779	arkadaşlığından	-0.30103
-4.691749	arkadaştan	-0.39794
-4.992779	arkadaştı	-0.30103
-4.992779	arkadaştık	-0.30103
-4.992779	arkadaştılar	-0.30103
-4.992779	arkadaşça	-0.30103
-4.293809	arkadaşı	-0.3273589
-3.831411	arkadaşım	-0.3933443
-4.992779	arkadaşımdan	-0.30103
-4.992779	arkadaşımdı	-0.30103
-4.816688	arkadaşımla	-0.30103
-4.992779	arkadaşımı	-0.30103
-4.515657	arkadaşımın	-0.30103
-4.252416	arkadaşın	-0.3853509
-4.515657	arkadaşına	-0.30103
-4.992779	arkadaşından	-0.30103
-4.594839	arkadaşını	-0.3679768
-4.816688	arkadaşınım	-0.4771212
-4.293809	arkadaşının	-0.30103
-4.992779	arkadaşınız	-0.30103
-4.992779	arkadaşıyla	-0.30103
-4.816688	arkadaşıyım	-0.4771212
-4.515657	arkadaşız	-0.544068
-4.992779	arkalarına	-0.30103
-4.691749	arkalarından	-0.30103
-4.992779	arkalı	-0.30103
-4.992779	arkam	-0.30103
-4.992779	arkama	-0.30103
-4.816688	arkamda	-0.30103
-4.293809	arkamdan	-0.30103
-4.992779	arkamı	-0.30103
-4.992779	arkamıza	-0.30103
-4.691749	arkamızda	-0.39794
-4.816688	arkamızdan	-0.30103
-4.691749	arkana	-0.30103
-4.992779	arkanda	-0.30103
-4.816688	arkandayım	-0.4771212
-4.448711	arkanı	-0.39794
-4.992779	arkanız	-0.30103
-4.992779	arkanıza	-0.30103
-4.691749	arkası	-0.30103
-3.895869	arkasına	-0.31037
-3.992779	arkasında	-0.3258536
-4.515657	arkasındaki	-0.30103
-4.992779	arkasındakilere	-0.30103
-3.846651	arkasından	-0.3180633
-4.992779	arkasındaydı	-0.30103
-4.117718	arkasını	-0.4074853
-4.252416	arkaya	-0.3245111
-4.992779	arkbaşında	-0.30103
-4.992779	arkus	-0.30103
-4.992779	arlanmaz	-0.30103
-4.816688	arlanır	-0.30103
-4.992779	armağanı	-0.30103
-4.691749	armudu	-0.30103
-4.515657	armudun	-0.3521825
-4.992779	armudunu	-0.30103
-4.992779	armut	-0.30103
-4.992779	arnavutlar	-0.30103
-4.691749	arnavutluk	-0.30103
-4.816688	arnavutlukta	-0.4771213
-4.992779	arnavuttur	-0.30103
-4.147681	arpa	-0.3617278
-4.992779	arpacıya	-0.30103
-4.992779	arpadan	-0.30103
-4.992779	arpaya	-0.30103
-4.992779	arsadaki	-0.30103
-4.992779	arsaya	-0.30103
-4.293809	arslan	-0.3273589
-4.992779	arslana	-0.30103
-4.992779	arslandan	-0.30103
-4.594839	arsız	-0.30103
-4.992779	arsızın	-0.30103
-4.691749	art	-0.30103
-4.992779	artabilir	-0.30103
-4.594839	artan	-0.3679768
-4.816688	artar	-0.30103
-4.992779	artarak	-0.30103
-3.831411	arter	-0.5228788
-4.992779	artere	-0.30103
-4.992779	arterial	-0.30103
-4.992779	arteriografi	-0.30103
-4.992779	arteriovenöz	-0.30103
-4.816688	arteriyal	-0.4771213
-4.691749	arteriyel	-0.39794
-4.515657	arterlerde	-0.3521825
-4.816688	arterleri	-0.30103
-4.992779	arterlerinde	-0.30103
-4.992779	arthur	-0.30103
-4.816688	artiküler	-0.4771213
-4.992779	artistleri	-0.30103
-4.691749	artması	-0.30103
-4.992779	artmaz	-0.30103
-4.691749	artmış	-0.30103
-4.992779	artmıştır	-0.30103
-4.390719	arttı	-0.6532125
-4.691749	arttıkça	-0.30103
-4.992779	arttırdı	-0.30103
-4.992779	artı	-0.30103
-3.003774	artık	-0.3740509
-4.816688	artımı	-0.4771213
-4.992779	artırarak	-0.30103
-4.691749	artırdı	-0.60206
-4.691749	artırır	-0.60206
-4.992779	artırıyordu	-0.30103
-4.691749	artıyor	-0.39794
-4.339566	artıyordu	-0.9542425
-4.992779	artığını	-0.30103
-4.448711	artış	-0.39794
-4.816688	artışları	-0.30103
-4.594839	artışı	-0.3679768
-4.992779	arz	-0.30103
-4.691749	arzu	-0.30103
-4.816688	arzular	-0.30103
-4.992779	arzuları	-0.30103
-4.992779	arzuların	-0.30103
-4.992779	arzularına	-0.30103
-4.992779	arzunuz	-0.30103
-4.691749	arzusu	-0.30103
-4.992779	arzusuna	-0.30103
-4.992779	arzusunda	-0.30103
-4.992779	arzusunu	-0.30103
-4.448711	arı	-0.3424227
-4.992779	arıca	-0.30103
-4.992779	arıdan	-0.30103
-4.515657	arık	-0.30103
-4.992779	arıklıkta	-0.30103
-4.992779	arılar	-0.30103
-4.179865	arıyor	-0.5314789
-4.992779	arıyordu	-0.30103
-4.390719	arıyordum	-0.90309
-4.691749	arıyordun	-0.60206
-4.816688	arıyorlar	-0.4771212
-4.992779	arıyormuş	-0.30103
-4.179865	arıyorsun	-0.69897
-4.515657	arıyorsunuz	-0.544068
-4.448711	arıyorum	-0.845098
-4.594839	arıyoruz	-0.69897
-4.992779	arşın	-0.30103
-4.691749	arşınına	-0.60206
-4.992779	asabidir	-0.30103
-4.992779	asabileşme	-0.30103
-4.992779	asalaklara	-0.30103
-4.992779	asansör	-0.30103
-4.992779	asansörde	-0.30103
-4.992779	asansörü	-0.30103
-4.992779	asarız	-0.30103
-4.992779	asayişten	-0.30103
-4.992779	asayım	-0.30103
-4.992779	asendan	-0.30103
-4.992779	asetabuler	-0.30103
-4.390719	asfalt	-0.30103
-4.992779	asfalta	-0.30103
-4.992779	asfaltı	-0.30103
-4.992779	asgari	-0.30103
-4.992779	ashdownun	-0.30103
-4.594839	asil	-0.30103
-4.992779	asilden	-0.30103
-4.992779	asildi	-0.30103
-4.992779	asildir	-0.30103
-4.992779	asimetrik	-0.30103
-4.691749	asistan	-0.30103
-4.992779	asistanlar	-0.30103
-4.992779	asistanımız	-0.30103
-4.992779	asistanıyla	-0.30103
-4.691749	asiye	-0.30103
-4.992779	asiyede	-0.30103
-4.390719	asiyenin	-0.30103
-4.992779	asiyeye	-0.30103
-4.515657	asiyeyi	-0.30103
-4.515657	asker	-0.544068
-4.816688	askerden	-0.30103
-4.992779	askerdeydim	-0.30103
-4.992779	askerdeyken	-0.30103
-4.992779	askere	-0.30103
-4.992779	askeri	-0.30103
-4.992779	askerin	-0.30103
-4.691749	askerler	-0.30103
-4.992779	askerleriyle	-0.30103
-4.992779	askerlik	-0.30103
-4.992779	askerlikle	-0.30103
-4.992779	askıdaki	-0.30103
-3.788659	asla	-0.3157533
-4.293809	aslan	-0.3273589
-4.992779	aslana	-0.30103
-4.992779	aslandan	-0.30103
-4.992779	aslanlar	-0.30103
-4.992779	aslanım	-0.30103
-4.992779	aslen	-0.30103
-4.594839	aslı	-0.30103
-4.992779	aslımız	-0.30103
-4.691749	aslına	-0.30103
-4.147681	aslında	-0.3388185
-4.691749	aslını	-0.30103
-4.992779	asma	-0.30103
-4.992779	asmadıklarına	-0.30103
-4.992779	asmadım	-0.30103
-4.816688	asmış	-0.4771212
-4.992779	aspirinin	-0.30103
-4.816688	assendan	-0.4771212
-4.992779	astar	-0.30103
-4.992779	astragan	-0.30103
-4.992779	astronotları	-0.30103
-4.992779	asyanın	-0.30103
-4.992779	asıktı	-0.30103
-3.816688	asıl	-0.3168243
-4.992779	asılan	-0.30103
-4.992779	asıldı	-0.30103
-4.992779	asılmaz	-0.30103
-4.816688	asılmış	-0.30103
-4.992779	asılmıştı	-0.30103
-4.992779	asılsız	-0.30103
-4.816688	asılı	-0.30103
-4.816688	asılır	-0.4771212
-4.992779	asırda	-0.30103
-3.553446	at	-0.3533033
-3.932081	ata	-0.3222193
-4.691749	atacak	-0.30103
-4.992779	atacağı	-0.30103
-4.992779	atadan	-0.30103
-4.992779	ataktı	-0.30103
-4.992779	atalar	-0.30103
-4.992779	ataların	-0.30103
-4.992779	atalete	-0.30103
-4.992779	atalım	-0.30103
-4.992779	atamamıştı	-0.30103
-4.992779	atamaz	-0.30103
-4.992779	atamazsın	-0.30103
-4.992779	atan	-0.30103
-4.992779	atanan	-0.30103
-4.992779	atanın	-0.30103
-4.992779	atar	-0.30103
-4.515657	atarak	-0.30103
-4.992779	atasını	-0.30103
-4.691749	atelektazik	-0.39794
-4.992779	atelektaziler	-0.30103
-4.816688	aterom	-0.4771213
-3.749741	ateş	-0.3539661
-4.448711	ateşe	-0.3424227
-4.339566	ateşi	-0.30103
-4.992779	ateşin	-0.30103
-4.992779	ateşkes	-0.30103
-4.816688	ateşledi	-0.30103
-4.992779	ateşledim	-0.30103
-4.992779	ateşleme	-0.30103
-4.992779	ateşlenerek	-0.30103
-4.992779	ateşler	-0.30103
-4.992779	ateşleyin	-0.30103
-4.691749	ateşli	-0.30103
-4.992779	ateşliydi	-0.30103
-4.816688	ateşte	-0.30103
-4.594839	ateşçi	-0.30103
-4.992779	ateşçilerine	-0.30103
-4.992779	ateşçinin	-0.30103
-4.992779	ateşçiyi	-0.30103
-4.992779	atfediliyor	-0.30103
-4.992779	atipik	-0.30103
-4.816688	atla	-0.30103
-4.448711	atladı	-0.845098
-4.992779	atladık	-0.30103
-4.992779	atladığım	-0.30103
-4.992779	atlamak	-0.30103
-4.992779	atlamaktan	-0.30103
-4.992779	atlamaya	-0.30103
-4.992779	atlamayı	-0.30103
-4.992779	atlamazsan	-0.30103
-4.992779	atlamıştı	-0.30103
-4.816688	atlantik	-0.30103
-4.992779	atlantikin	-0.30103
-4.992779	atlantikteki	-0.30103
-4.992779	atlantikten	-0.30103
-4.515657	atlar	-0.3521825
-4.816688	atları	-0.30103
-4.992779	atlarımızı	-0.30103
-4.448711	atlas	-0.3424227
-4.992779	atlatana	-0.30103
-4.992779	atlatma	-0.30103
-4.992779	atlatmak	-0.30103
-4.992779	atlatmaktan	-0.30103
-4.992779	atlattı	-0.30103
-4.992779	atlatırım	-0.30103
-4.816688	atlatıyor	-0.4771213
-4.816688	atlayacak	-0.30103
-4.992779	atlayacağım	-0.30103
-4.515657	atlayarak	-0.3521825
-4.992779	atlayınca	-0.30103
-4.691749	atlayıp	-0.30103
-4.691749	atlı	-0.30103
-4.691749	atlılar	-0.30103
-4.816688	atlıya	-0.30103
-4.992779	atlıyordum	-0.30103
-4.594839	atma	-0.3679768
-4.594839	atmaca	-0.30103
-4.816688	atmacanın	-0.30103
-4.992779	atmaca’ya	-0.30103
-4.992779	atmadan	-0.30103
-4.992779	atmadım	-0.30103
-4.691749	atmak	-0.30103
-4.992779	atmaktan	-0.30103
-4.992779	atmamalı	-0.30103
-4.594839	atmaya	-0.4771213
-4.992779	atmıyoruz	-0.30103
-4.691749	atmış	-0.30103
-4.594839	atmışlar	-0.3679768
-4.691749	atmıştı	-0.39794
-4.992779	atmışız	-0.30103
-4.992779	atrial	-0.30103
-4.339566	atriyum	-0.4771213
-4.992779	atsa	-0.30103
-4.992779	atsan	-0.30103
-4.594839	atta	-0.30103
-4.448711	attan	-0.3424227
-3.831411	attı	-0.69897
-4.992779	attıkları	-0.30103
-4.816688	attıktan	-0.4771213
-4.992779	attılar	-0.30103
-4.390719	attım	-0.5228788
-4.992779	attırmak	-0.30103
-4.992779	attığım	-0.30103
-4.691749	attığın	-0.39794
-4.992779	atölyeleri	-0.30103
-4.147681	atı	-0.3388186
-4.992779	atıcı	-0.30103
-4.992779	atıdır	-0.30103
-4.992779	atılacak	-0.30103
-4.992779	atılacaktı	-0.30103
-4.992779	atılacaktım	-0.30103
-4.594839	atılan	-0.30103
-4.992779	atılarak	-0.30103
-4.448711	atıldı	-0.3424227
-4.992779	atıldılar	-0.30103
-4.691749	atıldım	-0.39794
-4.992779	atıldığı	-0.30103
-4.992779	atılmasına	-0.30103
-4.816688	atılmış	-0.30103
-4.992779	atılmıştı	-0.30103
-4.992779	atılmıştım	-0.30103
-4.816688	atılıp	-0.30103
-4.992779	atılıyor	-0.30103
-4.992779	atılıyorlardı	-0.30103
-4.992779	atım	-0.30103
-4.816688	atımı	-0.30103
-4.992779	atımın	-0.30103
-3.992779	atın	-0.3553876
-4.816688	atına	-0.30103
-4.816688	atınca	-0.30103
-4.691749	atıp	-0.30103
-4.515657	atıyor	-0.4259687
-4.515657	atıyordu	-0.7781512
-4.992779	atıyorsun	-0.30103
-4.992779	atış	-0.30103
-4.816688	augmentasyon	-0.4771213
-4.992779	augsburg	-0.30103
-4.992779	authorware	-0.30103
-4.594839	av	-0.30103
-4.594839	ava	-0.30103
-4.992779	avantanın	-0.30103
-4.992779	avantayı	-0.30103
-4.691749	avarya	-0.30103
-4.816688	avasküler	-0.4771213
-4.252416	avaz	-0.4259688
-4.992779	avazları	-0.30103
-4.816688	avazı	-0.4771213
-4.992779	avcumda	-0.30103
-4.992779	avcunun	-0.30103
-4.816688	avcı	-0.30103
-4.992779	avcılar	-0.30103
-4.992779	avcının	-0.30103
-4.992779	avda	-0.30103
-4.992779	avdan	-0.30103
-4.992779	avdettir	-0.30103
-4.992779	avizeler	-0.30103
-4.816688	avlanmaz	-0.4771212
-4.992779	avlanmış	-0.30103
-4.816688	avlanır	-0.4771212
-4.992779	avlar	-0.30103
-4.992779	avlayanın	-0.30103
-4.992779	avluda	-0.30103
-4.992779	avlusunda	-0.30103
-4.992779	avluya	-0.30103
-4.06336	avni	-0.3679768
-4.448711	avninin	-0.30103
-4.992779	avniye	-0.30103
-4.594839	avradı	-0.30103
-4.691749	avradın	-0.39794
-3.846651	avrat	-0.3710678
-4.816688	avratlar	-0.30103
-4.992779	avratta	-0.30103
-4.992779	avrattan	-0.30103
-4.06336	avro	-0.3899711
-4.992779	avroluk	-0.30103
-4.594839	avroya	-0.30103
-4.992779	avroyu	-0.30103
-4.515657	avrupa	-0.30103
-4.816688	avrupada	-0.30103
-4.992779	avrupalı	-0.30103
-4.992779	avuca	-0.30103
-4.594839	avucumun	-0.4771213
-4.816688	avucunda	-0.30103
-4.992779	avucundaki	-0.30103
-4.992779	avucundakini	-0.30103
-4.992779	avucunun	-0.30103
-4.992779	avucuyla	-0.30103
-4.691749	avukat	-0.30103
-4.992779	avukatla	-0.30103
-4.992779	avukatlar	-0.30103
-4.992779	avukatlığını	-0.30103
-4.992779	avukatsın	-0.30103
-4.992779	avukatım	-0.30103
-4.992779	avukatımı	-0.30103
-4.992779	avukatın	-0.30103
-4.992779	avustralya	-0.30103
-4.992779	avustralyadaki	-0.30103
-4.992779	avustralya’daki	-0.30103
-4.992779	avusturyalı	-0.30103
-4.992779	avutan	-0.30103
-4.515657	avuç	-0.3521825
-4.992779	avuçlarıma	-0.30103
-4.816688	avuçlarımın	-0.4771213
-4.992779	avuçlarına	-0.30103
-4.992779	avı	-0.30103
-4.992779	avımı	-0.30103
-4.992779	avına	-0.30103
-4.992779	avından	-0.30103
-4.992779	axillada	-0.30103
-3.586239	ay	-0.3713175
-4.992779	aya	-0.30103
-3.846651	ayak	-0.3710679
-4.691749	ayakkabı	-0.30103
-4.992779	ayakkabılan	-0.30103
-4.816688	ayakkabılarım	-0.30103
-4.992779	ayakkabım	-0.30103
-4.992779	ayakkaplarının	-0.30103
-4.992779	ayaklan	-0.30103
-4.816688	ayaklar	-0.30103
-4.992779	ayaklarda	-0.30103
-4.339566	ayakları	-0.3309932
-4.992779	ayaklarım	-0.30103
-4.691749	ayaklarımı	-0.30103
-4.816688	ayaklarımızın	-0.30103
-4.816688	ayaklarına	-0.30103
-4.992779	ayaklarında	-0.30103
-4.816688	ayaklarından	-0.30103
-4.448711	ayaklarını	-0.30103
-4.515657	ayaklarının	-0.3521825
-4.992779	ayaklarınızın	-0.30103
-4.816688	ayaklarıyla	-0.30103
-4.038536	ayakta	-0.49485
-4.992779	ayaktaydım	-0.30103
-4.992779	ayakucunda	-0.30103
-4.992779	ayakucunu	-0.30103
-4.992779	ayalimi	-0.30103
-4.992779	ayanı	-0.30103
-4.992779	ayardadır	-0.30103
-4.992779	ayarladım	-0.30103
-4.992779	ayarladın	-0.30103
-4.992779	ayarlanarak	-0.30103
-4.816688	ayarlandı	-0.4771212
-4.992779	ayarlarım	-0.30103
-4.992779	ayarlarız	-0.30103
-4.992779	ayarlayabilirim	-0.30103
-4.992779	ayartılmamıza	-0.30103
-4.992779	ayaza	-0.30103
-4.691749	ayazda	-0.30103
-3.862445	ayağa	-0.3744589
-4.339566	ayağı	-0.3309932
-4.992779	ayağım	-0.30103
-4.992779	ayağıma	-0.30103
-4.992779	ayağımda	-0.30103
-4.992779	ayağımla	-0.30103
-4.992779	ayağımın	-0.30103
-4.691749	ayağın	-0.30103
-4.691749	ayağına	-0.30103
-4.691749	ayağında	-0.30103
-4.992779	ayağındaki	-0.30103
-4.691749	ayağından	-0.30103
-4.339566	ayağını	-0.30103
-4.594839	ayağının	-0.30103
-4.992779	ayağınızın	-0.30103
-4.816688	ayağıyla	-0.30103
-4.339566	ayda	-0.4149733
-4.816688	aydan	-0.30103
-4.992779	aydında	-0.30103
-4.992779	aydınlanmak	-0.30103
-4.992779	aydınlanması	-0.30103
-4.816688	aydınlanmaya	-0.30103
-4.992779	aydınlanıyorduk	-0.30103
-4.992779	aydınlatarak	-0.30103
-4.992779	aydınlatayım	-0.30103
-4.816688	aydınlatmıştı	-0.4771212
-4.691749	aydınlattığı	-0.30103
-4.992779	aydınlatıldı	-0.30103
-4.992779	aydınlatılmaya	-0.30103
-4.992779	aydınlatılmış	-0.30103
-4.816688	aydınlatıyordu	-0.4771212
-4.448711	aydınlık	-0.30103
-4.816688	aydınlıktı	-0.4771212
-4.992779	aydınlığa	-0.30103
-4.992779	aydınlığın	-0.30103
-4.691749	aydır	-0.30103
-4.992779	ayin	-0.30103
-4.992779	aykırı	-0.30103
-4.992779	aylakçılığa	-0.30103
-4.992779	aylakçının	-0.30103
-4.448711	aylar	-0.30103
-4.992779	aylarca	-0.30103
-4.691749	aylardan	-0.60206
-4.992779	aylardır	-0.30103
-4.992779	ayların	-0.30103
-4.594839	aylık	-0.3679768
-4.691749	ayna	-0.39794
-4.816688	aynada	-0.30103
-4.816688	aynadaki	-0.30103
-4.992779	aynalı	-0.30103
-4.992779	aynanın	-0.30103
-4.992779	aynası	-0.30103
-4.992779	aynasıdır	-0.30103
-4.992779	aynasında	-0.30103
-4.992779	aynaya	-0.30103
-4.038536	aynen	-0.4313637
-3.280972	aynı	-0.4181435
-4.992779	aynısı	-0.30103
-4.992779	aynısını	-0.30103
-4.816688	aynıyız	-0.4771212
-4.992779	ayol	-0.30103
-4.117718	ayran	-0.3802113
-4.992779	ayrandan	-0.30103
-4.992779	ayrandır	-0.30103
-4.992779	ayranlarına	-0.30103
-4.816688	ayranı	-0.30103
-4.816688	ayranım	-0.30103
-4.992779	ayranın	-0.30103
-4.992779	ayranını	-0.30103
-4.252416	ayrı	-0.3245111
-3.951386	ayrıca	-0.30103
-4.816688	ayrıl	-0.4771212
-4.992779	ayrılacak	-0.30103
-4.992779	ayrılalı	-0.30103
-4.992779	ayrılalım	-0.30103
-4.992779	ayrılamadığı	-0.30103
-4.992779	ayrılamam	-0.30103
-4.691749	ayrılan	-0.30103
-4.992779	ayrılanı	-0.30103
-4.515657	ayrıldı	-0.544068
-4.515657	ayrıldık	-0.7781512
-4.816688	ayrıldılar	-0.30103
-4.515657	ayrıldım	-0.7781512
-4.992779	ayrıldınız	-0.30103
-4.992779	ayrıldığımız	-0.30103
-4.816688	ayrılma	-0.4771212
-4.992779	ayrılmadım	-0.30103
-4.992779	ayrılmadığımız	-0.30103
-4.515657	ayrılmak	-0.30103
-4.992779	ayrılmanı	-0.30103
-4.992779	ayrılmanın	-0.30103
-4.992779	ayrılması	-0.30103
-4.992779	ayrılmasıyla	-0.30103
-4.816688	ayrılmayalım	-0.30103
-4.992779	ayrılmayın	-0.30103
-4.448711	ayrılmış	-0.30103
-4.816688	ayrılık	-0.30103
-4.816688	ayrılın	-0.4771212
-4.992779	ayrılınca	-0.30103
-4.816688	ayrılıp	-0.30103
-4.816688	ayrılır	-0.4771212
-4.992779	ayrılıyor	-0.30103
-4.992779	ayrılıyorlar	-0.30103
-4.992779	ayrılıyorsun	-0.30103
-4.992779	ayrılıyorum	-0.30103
-4.992779	ayrılıyoruz	-0.30103
-4.992779	ayrımcılık	-0.30103
-4.992779	ayrımız	-0.30103
-4.992779	ayrıntılar	-0.30103
-4.594839	ayrıntılı	-0.30103
-4.992779	ayrıydılar	-0.30103
-4.816688	ayva	-0.30103
-4.992779	ayvanın	-0.30103
-4.992779	ayvayı	-0.30103
-4.992779	ayvaz	-0.30103
-4.992779	ayyar	-0.30103
-3.992779	ayı	-0.3553877
-4.992779	ayıbı	-0.30103
-4.992779	ayıbını	-0.30103
-4.992779	ayık	-0.30103
-4.594839	ayılar	-0.3679768
-4.594839	ayın	-0.30103
-4.816688	ayına	-0.4771213
-4.594839	ayında	-0.3679768
-4.816688	ayının	-0.30103
-4.293809	ayıp	-0.60206
-4.992779	ayıpsın	-0.30103
-4.992779	ayıpsız	-0.30103
-4.816688	ayıptır	-0.4771212
-4.992779	ayır	-0.30103
-4.992779	ayırabiliyordu	-0.30103
-4.992779	ayıracağından	-0.30103
-4.992779	ayıramadım	-0.30103
-4.992779	ayıramıyordu	-0.30103
-4.992779	ayıran	-0.30103
-4.816688	ayırana	-0.30103
-4.594839	ayırdedilmemiştir	-0.69897
-4.816688	ayırdığınız	-0.4771213
-4.992779	ayırmadan	-0.30103
-4.594839	ayırmak	-0.30103
-4.992779	ayırmamaya	-0.30103
-4.691749	ayırmaya	-0.30103
-4.992779	ayırmayan	-0.30103
-4.992779	ayırmayarak	-0.30103
-4.992779	ayırmış	-0.30103
-4.089689	ayırt	-0.9294189
-4.992779	ayırıyordu	-0.30103
-4.992779	ayırıyorduk	-0.30103
-4.992779	ayıyı	-0.30103
-4.816688	ayşe	-0.30103
-3.424577	az	-0.4247332
-4.816688	aza	-0.30103
-4.992779	azabı	-0.30103
-4.992779	azabını	-0.30103
-4.992779	azalarının	-0.30103
-4.816688	azaldı	-0.4771212
-4.816688	azaldığını	-0.30103
-4.992779	azalmayan	-0.30103
-4.816688	azalmış	-0.30103
-4.992779	azalsın	-0.30103
-4.992779	azaltacaktım	-0.30103
-4.992779	azalttılar	-0.30103
-4.992779	azaltılacak	-0.30103
-4.992779	azalınca	-0.30103
-4.992779	azalırken	-0.30103
-4.816688	azalıyor	-0.30103
-4.992779	azalıyordu	-0.30103
-4.992779	azameti	-0.30103
-4.992779	azan	-0.30103
-4.515657	azap	-0.30103
-4.992779	azapları	-0.30103
-4.992779	azaptan	-0.30103
-4.992779	azar	-0.30103
-4.992779	azarladı	-0.30103
-4.992779	azarlayarak	-0.30103
-4.992779	azarmış	-0.30103
-4.992779	azasından	-0.30103
-4.992779	azdan	-0.30103
-4.992779	azdır	-0.30103
-4.992779	azgını	-0.30103
-4.816688	azime	-0.30103
-4.992779	azitromisin	-0.30103
-4.992779	aziz	-0.30103
-4.992779	azizdir	-0.30103
-4.992779	azizim	-0.30103
-4.992779	azlıkta	-0.30103
-4.992779	azlıktılar	-0.30103
-4.992779	azmaz	-0.30103
-4.992779	azmetmişti	-0.30103
-4.992779	azmettiniz	-0.30103
-4.992779	azmışlardı	-0.30103
-4.992779	azraili	-0.30103
-4.594839	azı	-0.3679768
-4.214628	azıcık	-0.30103
-4.992779	azık	-0.30103
-4.992779	azılı	-0.30103
-4.992779	azımsayıp	-0.30103
-4.594839	azından	-0.30103
-4.992779	azınlık	-0.30103
-4.816688	azınlıklara	-0.30103
-4.992779	azınlıklardan	-0.30103
-4.992779	azıtıyordu	-0.30103
-3.430486	aç	-0.4272293
-4.816688	aça	-0.30103
-4.992779	açabilecek	-0.30103
-4.691749	açabilir	-0.39794
-4.992779	açabilirsin	-0.30103
-4.992779	açabiliyorlardı	-0.30103
-4.594839	açacak	-0.3679768
-4.992779	açacaksın	-0.30103
-4.992779	açacaktım	-0.30103
-4.992779	açalım	-0.30103
-4.992779	açamadım	-0.30103
-4.448711	açan	-0.39794
-4.214628	açar	-0.50515
-4.448711	açarak	-0.30103
-4.992779	açarlar	-0.30103
-4.992779	açarım	-0.30103
-4.992779	açlardan	-0.30103
-4.594839	açlık	-0.3679768
-4.448711	açlıktan	-0.3424227
-4.992779	açlığı	-0.30103
-4.816688	açma	-0.4771212
-4.992779	açmadan	-0.30103
-4.992779	açmadı	-0.30103
-4.992779	açmadık	-0.30103
-4.992779	açmadım	-0.30103
-4.992779	açmadığını	-0.30103
-4.816688	açmak	-0.30103
-4.992779	açmalısın	-0.30103
-4.992779	açmama	-0.30103
-4.992779	açması	-0.30103
-4.992779	açmaya	-0.30103
-4.992779	açmayı	-0.30103
-4.816688	açmaz	-0.30103
-4.992779	açmıyor	-0.30103
-4.992779	açmıyordu	-0.30103
-4.992779	açmıyorsun	-0.30103
-4.816688	açmış	-0.30103
-4.816688	açmıştı	-0.30103
-3.831411	açtı	-0.6139593
-4.992779	açtıkça	-0.30103
-4.691749	açtılar	-0.39794
-4.252416	açtım	-0.544068
-4.816688	açtın	-0.30103
-4.992779	açtınız	-0.30103
-4.992779	açtırdı	-0.30103
-4.992779	açtırmıyor	-0.30103
-4.816688	açtığı	-0.30103
-4.992779	açtığım	-0.30103
-4.992779	açtığın	-0.30103
-4.992779	açtığını	-0.30103
-4.594839	açı	-0.4771213
-4.594839	açıdan	-0.3679768
-3.545621	açık	-0.3955861
-4.992779	açıkgözlük	-0.30103
-4.992779	açıkla	-0.30103
-4.992779	açıkladı	-0.30103
-4.448711	açıklama	-0.3424227
-4.691749	açıklamak	-0.30103
-4.992779	açıklamama	-0.30103
-4.992779	açıklamana	-0.30103
-4.594839	açıklaması	-0.3679768
-4.992779	açıklamaya	-0.30103
-4.594839	açıklanacak	-0.69897
-4.992779	açıklanmamışlar	-0.30103
-4.992779	açıklayabilir	-0.30103
-4.992779	açıklayabilirim	-0.30103
-4.992779	açıklayacak	-0.30103
-4.992779	açıklayacaksın	-0.30103
-4.992779	açıklayacağım	-0.30103
-4.691749	açıklayayım	-0.60206
-4.992779	açıklayın	-0.30103
-4.992779	açıklıkla	-0.30103
-4.992779	açıklığa	-0.30103
-4.992779	açıkmış	-0.30103
-4.691749	açıkta	-0.30103
-4.992779	açıktan	-0.30103
-4.992779	açıktayım	-0.30103
-4.691749	açıktı	-0.39794
-3.992779	açıktır	-1.30103
-4.339566	açıkça	-0.30103
-4.816688	açıkçası	-0.30103
-4.992779	açılacak	-0.30103
-4.992779	açılacağı	-0.30103
-4.293809	açılan	-0.30103
-4.992779	açılar	-0.30103
-4.816688	açılarak	-0.30103
-4.038536	açıldı	-0.9777237
-4.992779	açıldıktan	-0.30103
-4.816688	açıldığı	-0.4771213
-4.992779	açıldığını	-0.30103
-4.992779	açılma	-0.30103
-4.992779	açılmamıştı	-0.30103
-4.816688	açılması	-0.30103
-4.992779	açılmasına	-0.30103
-4.992779	açılmasını	-0.30103
-4.691749	açılmaya	-0.30103
-4.816688	açılmaz	-0.30103
-4.992779	açılmıyordu	-0.30103
-4.992779	açılmış	-0.30103
-4.691749	açılmıştı	-0.60206
-4.992779	açılsın	-0.30103
-4.992779	açılı	-0.30103
-4.214628	açılımı	-0.8129134
-4.816688	açılın	-0.4771212
-4.992779	açılınca	-0.30103
-4.515657	açılır	-0.30103
-4.992779	açılırsın	-0.30103
-4.992779	açılırım	-0.30103
-4.816688	açılıyor	-0.4771212
-4.992779	açılıyordu	-0.30103
-4.992779	açılış	-0.30103
-4.992779	açılışında	-0.30103
-4.992779	açılışının	-0.30103
-4.594839	açım	-0.69897
-4.214628	açın	-0.4101745
-4.179865	açıp	-0.3203351
-4.293809	açısından	-0.39794
-4.691749	açıyor	-0.30103
-4.992779	açıyorlardı	-0.30103
-4.816688	açız	-0.4771212
-4.816688	açığa	-0.30103
-4.992779	açışında	-0.30103
-4.992779	ağ	-0.30103
-3.816688	ağa	-0.3087168
-4.691749	ağabey	-0.30103
-4.339566	ağaca	-0.4149734
-4.339566	ağacı	-0.3309932
-4.691749	ağacın	-0.30103
-4.992779	ağacına	-0.30103
-4.448711	ağacından	-0.30103
-4.992779	ağacını	-0.30103
-4.816688	ağacının	-0.30103
-4.992779	ağacığım	-0.30103
-4.992779	ağada	-0.30103
-4.992779	ağaların	-0.30103
-4.992779	ağalık	-0.30103
-4.992779	ağam	-0.30103
-4.992779	ağan	-0.30103
-4.339566	ağanın	-0.3309932
-4.992779	ağaran	-0.30103
-4.992779	ağarasım	-0.30103
-4.992779	ağartır	-0.30103
-4.992779	ağarınca	-0.30103
-4.992779	ağarırken	-0.30103
-4.992779	ağasının	-0.30103
-4.992779	ağaya	-0.30103
-3.97159	ağaç	-0.3521825
-4.594839	ağaçlar	-0.30103
-4.992779	ağaçlardan	-0.30103
-4.992779	ağaçlarla	-0.30103
-4.816688	ağaçları	-0.30103
-4.992779	ağaçlarımızı	-0.30103
-4.515657	ağaçların	-0.3521825
-4.992779	ağaçlarını	-0.30103
-4.816688	ağaçlarının	-0.30103
-4.816688	ağaçlı	-0.30103
-4.992779	ağaçlık	-0.30103
-4.816688	ağaçsız	-0.30103
-4.992779	ağaçta	-0.30103
-4.594839	ağaçtan	-0.30103
-4.992779	ağla	-0.30103
-4.594839	ağladı	-0.69897
-4.992779	ağladın	-0.30103
-4.816688	ağladığını	-0.30103
-4.448711	ağlama	-0.39794
-4.594839	ağlamak	-0.30103
-4.992779	ağlamakla	-0.30103
-4.992779	ağlamaklı	-0.30103
-4.992779	ağlamaktır	-0.30103
-4.992779	ağlamalar	-0.30103
-4.992779	ağlamaları	-0.30103
-4.992779	ağlamalarım	-0.30103
-4.992779	ağlamamış	-0.30103
-4.992779	ağlamanın	-0.30103
-4.992779	ağlamasınlar	-0.30103
-4.515657	ağlamaya	-0.544068
-4.992779	ağlamayan	-0.30103
-4.816688	ağlamaz	-0.30103
-4.992779	ağlamışsın	-0.30103
-4.992779	ağlanabileceğini	-0.30103
-4.448711	ağlar	-0.3424227
-4.992779	ağlardı	-0.30103
-4.992779	ağlarsa	-0.30103
-4.992779	ağlarsın	-0.30103
-4.992779	ağlarım	-0.30103
-4.816688	ağlasın	-0.30103
-4.992779	ağlatan	-0.30103
-4.992779	ağlatıcı	-0.30103
-4.594839	ağlatır	-0.30103
-4.448711	ağlaya	-0.39794
-4.992779	ağlayacak	-0.30103
-4.992779	ağlayacaktı	-0.30103
-4.515657	ağlayan	-0.30103
-4.816688	ağlayarak	-0.30103
-4.816688	ağlayıp	-0.30103
-4.992779	ağlayış	-0.30103
-4.992779	ağlaşarak	-0.30103
-4.339566	ağlıyor	-0.3309932
-4.252416	ağlıyordu	-1.041393
-4.992779	ağlıyordum	-0.30103
-4.992779	ağlıyordun	-0.30103
-4.992779	ağlıyorsun	-0.30103
-4.992779	ağlıyorum	-0.30103
-4.992779	ağnamış	-0.30103
-4.992779	ağrılar	-0.30103
-4.992779	ağrılarda	-0.30103
-4.992779	ağrıları	-0.30103
-4.594839	ağrımaya	-0.4771213
-4.992779	ağrın	-0.30103
-4.992779	ağrırsa	-0.30103
-4.214628	ağrısı	-0.3467875
-4.816688	ağrısız	-0.4771213
-4.691749	ağrıtır	-0.60206
-4.992779	ağrıtıyordu	-0.30103
-4.992779	ağrıya	-0.30103
-4.992779	ağrıyana	-0.30103
-4.339566	ağrıyor	-0.69897
-4.594839	ağustosta	-0.30103
-4.992779	ağustostan	-0.30103
-4.691749	ağustosun	-0.30103
-4.992779	ağza	-0.30103
-4.179865	ağzı	-0.3424227
-4.816688	ağzım	-0.30103
-4.992779	ağzıma	-0.30103
-4.448711	ağzımdan	-0.30103
-4.691749	ağzımı	-0.30103
-4.816688	ağzımın	-0.30103
-4.992779	ağzımızı	-0.30103
-4.691749	ağzın	-0.30103
-4.117718	ağzına	-0.3174204
-4.691749	ağzında	-0.30103
-4.147681	ağzından	-0.3388186
-3.992779	ağzını	-0.3258536
-4.691749	ağzının	-0.30103
-4.816688	ağzıyla	-0.30103
-4.992779	ağıl	-0.30103
-4.992779	ağılda	-0.30103
-3.316085	ağır	-0.4279033
-4.992779	ağırbaşlı	-0.30103
-4.992779	ağırdan	-0.30103
-4.992779	ağırdı	-0.30103
-4.816688	ağırdır	-0.4771212
-4.992779	ağırlaması	-0.30103
-4.992779	ağırlanmaz	-0.30103
-4.691749	ağırlar	-0.60206
-4.992779	ağırlaşarak	-0.30103
-4.992779	ağırlaşmıştı	-0.30103
-4.992779	ağırlaşıverdi	-0.30103
-4.691749	ağırlık	-0.30103
-4.594839	ağırlıklı	-0.4771213
-4.992779	ağırlıktan	-0.30103
-4.816688	ağırlığı	-0.30103
-4.816688	ağırlığıyla	-0.30103
-4.992779	ağırıma	-0.30103
-4.293809	ağız	-0.30103
-4.992779	ağızda	-0.30103
-4.816688	ağızdan	-0.30103
-4.992779	ağızlarına	-0.30103
-4.992779	ağızlarını	-0.30103
-4.992779	ağızlarıyla	-0.30103
-4.06336	aş	-0.3309932
-4.594839	aşa	-0.30103
-4.992779	aşama	-0.30103
-4.992779	aşamaya	-0.30103
-4.992779	aşan	-0.30103
-4.691749	aşar	-0.39794
-3.691749	aşağı	-0.3537363
-4.179865	aşağıda	-0.30103
-4.992779	aşağıdaki	-0.30103
-4.992779	aşağıdalar	-0.30103
-4.594839	aşağıdan	-0.3679768
-4.992779	aşağılarda	-0.30103
-4.339566	aşağılık	-0.3679768
-4.992779	aşağılıklığını	-0.30103
-4.992779	aşağısı	-0.30103
-4.992779	aşağısındaki	-0.30103
-3.913598	aşağıya	-0.3444957
-4.992779	aşağıyı	-0.30103
-4.992779	aşikârede	-0.30103
-4.038536	aşk	-0.3631779
-4.594839	aşka	-0.30103
-4.816688	aşkla	-0.30103
-4.992779	aşkları	-0.30103
-4.992779	aşkolsun	-0.30103
-4.691749	aşkım	-0.39794
-4.992779	aşkımı	-0.30103
-4.390719	aşkın	-0.3357921
-4.448711	aşkına	-0.4771212
-4.992779	aşkındır	-0.30103
-4.992779	aşkını	-0.30103
-4.992779	aşla	-0.30103
-4.992779	aşmada	-0.30103
-4.992779	aşmayan	-0.30103
-4.992779	aşmış	-0.30103
-4.992779	aştıkları	-0.30103
-4.992779	aştım	-0.30103
-4.992779	aşure	-0.30103
-4.293809	aşı	-0.3273589
-4.293809	aşık	-0.30103
-4.691749	aşıktım	-0.60206
-4.816688	aşım	-0.30103
-4.992779	aşıma	-0.30103
-4.816688	aşına	-0.30103
-4.992779	aşından	-0.30103
-4.992779	aşınmaz	-0.30103
-4.816688	aşını	-0.30103
-4.691749	aşıp	-0.30103
-4.691749	aşırı	-0.30103
-4.992779	aşırır	-0.30103
-4.992779	aşıyla	-0.30103
-4.691749	aşığın	-0.30103
-4.992779	aşığız	-0.30103
-3.569533	baba	-0.4885507
-4.293809	babacığım	-0.5118833
-4.816688	babadan	-0.30103
-4.992779	babalarımızın	-0.30103
-3.831411	babam	-0.3458423
-4.992779	babama	-0.30103
-4.816688	babamdan	-0.30103
-4.816688	babamla	-0.30103
-4.515657	babamı	-0.30103
-4.691749	babamın	-0.30103
-4.992779	babamız	-0.30103
-3.913598	baban	-0.4036923
-4.515657	babana	-0.3521826
-4.816688	babanla	-0.30103
-4.691749	babanı	-0.30103
-4.816688	babanım	-0.4771212
-4.816688	babanın	-0.30103
-4.816688	babanız	-0.30103
-3.992779	babası	-0.3553877
-4.594839	babasına	-0.30103
-4.691749	babasından	-0.30103
-4.594839	babasını	-0.30103
-4.594839	babasının	-0.30103
-4.992779	babasısın	-0.30103
-4.992779	babasıyla	-0.30103
-4.691749	babaya	-0.30103
-4.816688	babayiğit	-0.30103
-4.691749	babayı	-0.39794
-4.992779	babayım	-0.30103
-4.992779	baca	-0.30103
-4.691749	bacadan	-0.39794
-4.691749	bacak	-0.39794
-4.992779	bacakları	-0.30103
-4.992779	bacaklarımda	-0.30103
-4.816688	bacaklarımı	-0.30103
-4.992779	bacaklarımın	-0.30103
-4.691749	bacaklarına	-0.30103
-4.992779	bacaklarında	-0.30103
-4.816688	bacaklarını	-0.30103
-4.992779	bacanağından	-0.30103
-4.816688	bacası	-0.30103
-4.992779	bacağı	-0.30103
-4.992779	bacağım	-0.30103
-4.992779	bacağımı	-0.30103
-4.594839	bacağından	-0.3679768
-4.992779	bacısını	-0.30103
-4.992779	badana	-0.30103
-4.992779	badem	-0.30103
-4.992779	badnikte	-0.30103
-4.390719	bahane	-0.3357921
-4.992779	bahaneler	-0.30103
-4.992779	bahanen	-0.30103
-4.992779	bahanesini	-0.30103
-4.992779	bahaneyle	-0.30103
-4.594839	bahar	-0.30103
-4.992779	baharda	-0.30103
-4.992779	bahardan	-0.30103
-4.816688	baharı	-0.30103
-4.992779	bahasına	-0.30103
-4.992779	bahayla	-0.30103
-4.992779	bahislerinizi	-0.30103
-4.594839	bahse	-0.3679768
-4.992779	bahsedebilir	-0.30103
-4.992779	bahsedeceklerdir	-0.30103
-4.992779	bahsedeceksin	-0.30103
-4.816688	bahsedeceğim	-0.4771212
-4.816688	bahseden	-0.30103
-4.992779	bahsederken	-0.30103
-4.992779	bahsederlerdi	-0.30103
-4.992779	bahsederlerken	-0.30103
-4.992779	bahsedildi	-0.30103
-4.992779	bahsedilir	-0.30103
-4.816688	bahsediyor	-0.4771212
-4.992779	bahsediyordu	-0.30103
-4.992779	bahsediyordum	-0.30103
-4.992779	bahsediyorlar	-0.30103
-4.390719	bahsediyorsun	-0.6532125
-4.816688	bahsediyorsunuz	-0.4771212
-4.816688	bahsediyorum	-0.4771212
-4.816688	bahsediyoruz	-0.4771212
-4.816688	bahsetme	-0.4771212
-4.816688	bahsetmek	-0.30103
-4.992779	bahsetmeye	-0.30103
-4.992779	bahsetmezdi	-0.30103
-4.992779	bahsetmiştim	-0.30103
-4.992779	bahsetsenize	-0.30103
-4.816688	bahsetti	-0.4771212
-4.992779	bahsettik	-0.30103
-4.992779	bahsettiler	-0.30103
-4.992779	bahsettiği	-0.30103
-4.992779	bahsettiğim	-0.30103
-4.816688	bahsettiğimi	-0.30103
-4.992779	bahsettiğimiz	-0.30103
-4.816688	bahsettiğini	-0.30103
-4.992779	bahsettiğinizi	-0.30103
-4.816688	baht	-0.30103
-4.992779	bahta	-0.30103
-4.594839	bahtiyar	-0.30103
-4.992779	bahtiyarım	-0.30103
-4.691749	bahtı	-0.30103
-4.992779	bahtına	-0.30103
-4.992779	bahçanın	-0.30103
-4.293809	bahçe	-0.327359
-4.992779	bahçecikte	-0.30103
-4.515657	bahçede	-0.3521825
-4.816688	bahçedeki	-0.30103
-4.992779	bahçeden	-0.30103
-4.992779	bahçeleri	-0.30103
-4.992779	bahçene	-0.30103
-4.594839	bahçenin	-0.30103
-4.816688	bahçesi	-0.30103
-4.992779	bahçesinden	-0.30103
-4.816688	bahçesini	-0.30103
-4.448711	bahçeye	-0.30103
-4.691749	bahçeyi	-0.30103
-4.816688	bahçıvan	-0.30103
-4.992779	bahçıvanmış	-0.30103
-4.992779	bahşetmez	-0.30103
-4.992779	bahşiş	-0.30103
-3.117718	bak	-0.5998831
-4.594839	bakabilir	-0.4771212
-4.816688	bakabilirim	-0.4771212
-4.992779	bakabilirsin	-0.30103
-4.691749	bakacak	-0.30103
-4.992779	bakacaklar	-0.30103
-4.992779	bakacağım	-0.30103
-4.992779	bakacağımı	-0.30103
-4.992779	bakacağın	-0.30103
-4.992779	bakacağını	-0.30103
-4.992779	bakacağız	-0.30103
-4.992779	bakakalmıştı	-0.30103
-4.992779	bakalum	-0.30103
-3.36439	bakalım	-0.6139593
-4.992779	bakamam	-0.30103
-4.992779	bakamayacağım	-0.30103
-3.862445	bakan	-0.4030195
-4.992779	bakanlara	-0.30103
-4.992779	bakanların	-0.30103
-4.992779	bakanı	-0.30103
-4.992779	bakanından	-0.30103
-4.06336	bakar	-0.4436975
-4.252416	bakarak	-0.30103
-4.816688	bakardı	-0.4771212
-4.816688	bakarken	-0.30103
-4.992779	bakarlar	-0.30103
-4.816688	bakarsan	-0.30103
-4.992779	bakarsanız	-0.30103
-4.992779	bakarsın	-0.30103
-4.448711	bakarım	-0.845098
-4.691749	bakarız	-0.60206
-3.951386	bakayım	-0.60206
-4.992779	bakir	-0.30103
-4.816688	bakire	-0.30103
-4.252416	bakkal	-0.30103
-4.992779	bakkalı	-0.30103
-4.691749	bakkalın	-0.30103
-4.992779	bakkalına	-0.30103
-4.992779	bakladan	-0.30103
-4.816688	baklava	-0.30103
-4.015055	bakma	-0.5118834
-4.691749	bakmadan	-0.30103
-4.992779	bakmadım	-0.30103
-4.992779	bakmadınız	-0.30103
-4.339566	bakmak	-0.30103
-4.691749	bakmakla	-0.30103
-4.816688	bakmakta	-0.30103
-4.816688	bakmaktan	-0.30103
-4.816688	bakmalı	-0.30103
-4.816688	bakmalıyım	-0.4771212
-4.992779	bakmamıştım	-0.30103
-4.992779	bakmanın	-0.30103
-4.992779	bakmasına	-0.30103
-4.992779	bakmasından	-0.30103
-4.089689	bakmaya	-0.4586378
-4.992779	bakmayacak	-0.30103
-4.992779	bakmayacağım	-0.30103
-4.816688	bakmayı	-0.30103
-4.594839	bakmayın	-0.3679768
-4.691749	bakmaz	-0.30103
-4.992779	bakmazmış	-0.30103
-4.992779	bakmazsan	-0.30103
-4.992779	bakmazsınız	-0.30103
-4.816688	bakmıyor	-0.30103
-4.992779	bakmıyordu	-0.30103
-4.992779	bakmıyordum	-0.30103
-4.992779	bakmıyorum	-0.30103
-4.293809	bakmış	-0.30103
-4.992779	bakmışsın	-0.30103
-4.992779	bakmıştı	-0.30103
-4.252416	baksana	-0.7781512
-4.992779	bakteri	-0.30103
-4.594839	bakterileri	-0.69897
-3.530381	baktı	-0.7596678
-4.816688	baktık	-0.30103
-4.992779	baktıkça	-0.30103
-4.252416	baktılar	-0.544068
-3.586239	baktım	-0.7781513
-4.691749	baktın	-0.30103
-4.992779	baktıracağım	-0.30103
-4.992779	baktırır	-0.30103
-4.816688	baktığı	-0.30103
-4.515657	baktığım	-0.544068
-4.992779	baktığımda	-0.30103
-4.816688	baktığımı	-0.30103
-4.992779	baktığımız	-0.30103
-4.992779	baktığını	-0.30103
-4.992779	baktığınız	-0.30103
-4.992779	bakıcı	-0.30103
-4.992779	bakılmaz	-0.30103
-4.816688	bakılır	-0.30103
-4.992779	bakılırsa	-0.30103
-4.691749	bakım	-0.30103
-4.992779	bakımda	-0.30103
-4.992779	bakımdan	-0.30103
-4.992779	bakımsız	-0.30103
-4.691749	bakımından	-0.30103
-3.612567	bakın	-0.5407903
-4.691749	bakınarak	-0.30103
-4.448711	bakınca	-0.30103
-4.147681	bakındı	-1.146128
-4.515657	bakındım	-0.544068
-4.816688	bakındın	-0.30103
-4.992779	bakınıyordu	-0.30103
-4.992779	bakınıyorlardı	-0.30103
-4.594839	bakınız	-0.30103
-4.339566	bakıp	-0.30103
-4.816688	bakır	-0.30103
-4.992779	bakıver	-0.30103
-4.992779	bakıyon	-0.30103
-4.293809	bakıyor	-0.447158
-3.951386	bakıyordu	-0.90309
-4.992779	bakıyorduk	-0.30103
-4.339566	bakıyordum	-0.69897
-4.594839	bakıyorlar	-0.30103
-4.339566	bakıyorlardı	-0.9542425
-4.293809	bakıyorsun	-0.7403627
-4.594839	bakıyorsunuz	-0.4771212
-4.390719	bakıyorum	-0.90309
-4.691749	bakış	-0.30103
-4.816688	bakışla	-0.30103
-4.992779	bakışlar	-0.30103
-4.816688	bakışlarda	-0.30103
-4.691749	bakışlarla	-0.30103
-4.594839	bakışları	-0.30103
-4.816688	bakışlarımız	-0.30103
-4.992779	bakışlarına	-0.30103
-4.816688	bakışlarında	-0.30103
-4.594839	bakışlarını	-0.30103
-4.992779	bakışlarınız	-0.30103
-4.992779	bakışlı	-0.30103
-4.691749	bakışta	-0.30103
-4.816688	bakıştık	-0.4771212
-4.594839	bakıştılar	-0.69897
-4.515657	bakışı	-0.30103
-4.992779	bakışından	-0.30103
-4.992779	bakışının	-0.30103
-4.816688	bakışıp	-0.30103
-4.992779	bakışırken	-0.30103
-4.992779	bakışıyor	-0.30103
-3.97159	bal	-0.312311
-4.992779	balayı	-0.30103
-4.992779	balcı	-0.30103
-4.992779	balcının	-0.30103
-4.594839	baldan	-0.3679768
-4.992779	baldırlarına	-0.30103
-4.992779	baldızım	-0.30103
-4.992779	baldızımın	-0.30103
-4.992779	balkan	-0.30103
-4.992779	balkanlarda	-0.30103
-4.992779	balkondan	-0.30103
-4.816688	balmumu	-0.30103
-4.816688	balo	-0.30103
-4.992779	balon	-0.30103
-4.992779	balonu	-0.30103
-4.992779	baloya	-0.30103
-4.448711	balta	-0.3424227
-4.992779	baltacı	-0.30103
-4.992779	baltacıların	-0.30103
-4.992779	baltalar	-0.30103
-4.992779	baltalıklarına	-0.30103
-4.992779	baltalıyor	-0.30103
-4.992779	baltanın	-0.30103
-4.992779	baltası	-0.30103
-4.992779	baltayla	-0.30103
-4.992779	balçıkla	-0.30103
-4.992779	balçıklaşan	-0.30103
-4.594839	balı	-0.30103
-4.293809	balık	-0.3273589
-4.691749	balıkesir	-0.30103
-4.992779	balıkesirden	-0.30103
-4.992779	balıkesire	-0.30103
-4.816688	balıklar	-0.30103
-4.992779	balıkpazarı	-0.30103
-4.992779	balıkçılıktır	-0.30103
-4.992779	balıkçının	-0.30103
-4.992779	balım	-0.30103
-4.992779	balın	-0.30103
-4.992779	balığa	-0.30103
-4.691749	balığı	-0.30103
-4.992779	balığın	-0.30103
-4.992779	bam	-0.30103
-4.992779	bambaşka	-0.30103
-4.992779	ban	-0.30103
-2.633893	bana	-0.4531209
-4.992779	bangonot	-0.30103
-4.992779	bangonottan	-0.30103
-4.816688	banka	-0.30103
-4.816688	bankada	-0.30103
-4.992779	bankadan	-0.30103
-4.992779	bankalar	-0.30103
-4.992779	bankalardan	-0.30103
-4.992779	bankası	-0.30103
-4.992779	banker	-0.30103
-4.992779	banknottu	-0.30103
-4.992779	banknotun	-0.30103
-4.992779	banliyö	-0.30103
-4.992779	banyo	-0.30103
-4.816688	bar	-0.30103
-4.816688	bara	-0.30103
-4.992779	barda	-0.30103
-4.293809	bardak	-0.30103
-4.992779	bardaklarıyla	-0.30103
-4.992779	bardan	-0.30103
-4.992779	bardağı	-0.30103
-4.992779	bardağın	-0.30103
-4.339566	bari	-0.5642714
-4.992779	barlardan	-0.30103
-4.992779	barların	-0.30103
-4.992779	barmen	-0.30103
-4.992779	barsak	-0.30103
-4.992779	barsakderesi	-0.30103
-4.691749	barsakların	-0.60206
-4.992779	barselona’ya	-0.30103
-4.594839	barut	-0.3679768
-4.594839	baryum	-0.69897
-4.992779	baryumlu	-0.30103
-4.816688	barın	-0.30103
-4.992779	barındırmaz	-0.30103
-4.992779	barındırır	-0.30103
-4.992779	barındırıyor	-0.30103
-4.992779	barındırıyordu	-0.30103
-4.992779	barının	-0.30103
-4.992779	barış	-0.30103
-4.992779	barışmamıştı	-0.30103
-4.691749	barıştık	-0.30103
-4.992779	barışçıl	-0.30103
-4.448711	bas	-0.3424227
-4.992779	basa	-0.30103
-4.992779	basabileceği	-0.30103
-4.992779	basamak	-0.30103
-4.992779	basamaklarına	-0.30103
-4.992779	basamayacak	-0.30103
-4.816688	basamağa	-0.4771212
-4.992779	basanındır	-0.30103
-4.816688	basarlar	-0.4771213
-4.992779	basarım	-0.30103
-4.992779	basbayağı	-0.30103
-4.992779	basescu	-0.30103
-4.992779	basiretin	-0.30103
-4.06336	basit	-0.3899711
-4.992779	basitlik	-0.30103
-4.992779	basitliği	-0.30103
-4.992779	basitti	-0.30103
-4.992779	baskça’da	-0.30103
-4.816688	baskı	-0.30103
-4.992779	baskıdaki	-0.30103
-4.992779	baskın	-0.30103
-4.992779	baskında	-0.30103
-4.816688	baskısız	-0.30103
-4.816688	basma	-0.30103
-4.992779	basması	-0.30103
-4.992779	basmaz	-0.30103
-4.992779	bassa	-0.30103
-4.992779	baston	-0.30103
-4.992779	bastonuna	-0.30103
-4.992779	bastonunu	-0.30103
-4.816688	bastı	-0.30103
-4.816688	bastım	-0.30103
-4.992779	bastıran	-0.30103
-4.992779	bastırarak	-0.30103
-4.816688	bastırdı	-0.4771212
-4.992779	bastırdığı	-0.30103
-4.992779	bastırmak	-0.30103
-4.992779	bastırıp	-0.30103
-4.515657	bastırır	-0.4259687
-4.992779	bastırıveriyor	-0.30103
-4.691749	bastırıyor	-0.30103
-4.594839	bastığı	-0.30103
-4.816688	bastığın	-0.30103
-4.179865	bası	-1.113943
-4.816688	basık	-0.30103
-4.992779	basıl	-0.30103
-4.992779	basılacak	-0.30103
-4.992779	basıldı	-0.30103
-4.992779	basılmaz	-0.30103
-4.992779	basılıp	-0.30103
-4.816688	basın	-0.30103
-4.816688	basınca	-0.30103
-4.992779	basıncı	-0.30103
-4.992779	basınç	-0.30103
-4.992779	basıp	-0.30103
-4.992779	basıyor	-0.30103
-4.992779	basıyordu	-0.30103
-4.992779	basıyordum	-0.30103
-4.992779	bata	-0.30103
-4.992779	bataklık	-0.30103
-4.992779	bataklıklar	-0.30103
-4.816688	batar	-0.4771212
-4.992779	batarak	-0.30103
-4.992779	batarsın	-0.30103
-4.992779	batmak	-0.30103
-4.691749	batman	-0.30103
-4.816688	batmaz	-0.4771212
-4.816688	batmış	-0.30103
-4.992779	batmışlardı	-0.30103
-4.816688	battaniye	-0.30103
-4.992779	battı	-0.30103
-4.992779	battığını	-0.30103
-4.515657	batı	-0.30103
-3.97159	batın	-0.69897
-4.339566	batında	-0.9542425
-4.816688	batır	-0.4771213
-4.992779	batırdın	-0.30103
-4.992779	batırır	-0.30103
-4.992779	batıya	-0.30103
-4.992779	bavulları	-0.30103
-4.992779	bavullarımı	-0.30103
-4.992779	bavulumu	-0.30103
-4.816688	bavulunu	-0.30103
-4.691749	bay	-0.30103
-4.015055	bayan	-0.6627578
-4.293809	bayanlar	-0.5118834
-4.992779	bayanı	-0.30103
-4.992779	bayatlama	-0.30103
-4.691749	bayağı	-0.30103
-4.992779	baybay	-0.30103
-4.594839	baygın	-0.30103
-4.992779	baygınlık	-0.30103
-4.992779	baygınlığa	-0.30103
-4.992779	baygınmış	-0.30103
-4.992779	baykuşun	-0.30103
-4.390719	baylar	-0.5228788
-4.992779	baylığı	-0.30103
-4.691749	bayrak	-0.30103
-4.147681	bayram	-0.3617278
-4.594839	bayramda	-0.30103
-4.992779	bayramdan	-0.30103
-4.816688	bayrami	-0.30103
-4.992779	bayrağın	-0.30103
-4.992779	baytar	-0.30103
-4.816688	bayılacak	-0.30103
-4.691749	bayılacaksın	-0.60206
-4.992779	bayılacaksınız	-0.30103
-4.816688	bayıldı	-0.4771212
-4.992779	bayıldıkları	-0.30103
-4.992779	bayıldım	-0.30103
-4.992779	bayıldın	-0.30103
-4.816688	bayılmaya	-0.30103
-4.992779	bayılmış	-0.30103
-4.992779	bayılmıştı	-0.30103
-4.992779	bayılmışım	-0.30103
-4.816688	bayılırım	-0.4771212
-4.992779	bayılıyor	-0.30103
-4.390719	bayım	-0.90309
-4.992779	bayındırdan	-0.30103
-4.992779	bayır	-0.30103
-4.992779	bayıra	-0.30103
-4.691749	bayırda	-0.30103
-4.992779	bayırdan	-0.30103
-4.816688	bayırın	-0.30103
-4.992779	baz	-0.30103
-4.448711	bazal	-0.60206
-4.992779	bazali	-0.30103
-3.913598	bazan	-0.3107898
-4.339566	bazen	-0.3309932
-4.992779	bazla	-0.30103
-4.816688	bazlama	-0.30103
-3.802447	bazı	-0.308454
-4.594839	bazıları	-0.30103
-4.992779	bazılarında	-0.30103
-4.992779	bazılarının	-0.30103
-4.214628	bağ	-0.3222193
-4.594839	bağa	-0.30103
-4.992779	bağdan	-0.30103
-4.691749	bağdat	-0.39794
-4.992779	bağdata	-0.30103
-4.691749	bağdattan	-0.39794
-4.992779	bağdatı	-0.30103
-4.691749	bağdaş	-0.39794
-4.252416	bağla	-0.3245111
-4.816688	bağladı	-0.4771212
-4.992779	bağladılar	-0.30103
-4.992779	bağladığım	-0.30103
-4.992779	bağladığımız	-0.30103
-4.992779	bağlamakta	-0.30103
-4.992779	bağlamaktır	-0.30103
-4.992779	bağlamaya	-0.30103
-4.992779	bağlamaz	-0.30103
-4.992779	bağlamında	-0.30103
-4.992779	bağlamışlar	-0.30103
-4.992779	bağlamışlardı	-0.30103
-4.691749	bağlamıştı	-0.60206
-4.992779	bağlandı	-0.30103
-4.992779	bağlanmayan	-0.30103
-4.992779	bağlanmayı	-0.30103
-4.992779	bağlanmaz	-0.30103
-4.992779	bağlanmış	-0.30103
-4.992779	bağlantı	-0.30103
-4.992779	bağlantılarının	-0.30103
-4.992779	bağlantılı	-0.30103
-4.992779	bağlantının	-0.30103
-4.816688	bağlanıyor	-0.4771212
-4.691749	bağlar	-0.30103
-4.992779	bağlarda	-0.30103
-4.992779	bağlayalım	-0.30103
-4.992779	bağlayamıyor	-0.30103
-4.691749	bağlayan	-0.30103
-4.992779	bağlayanın	-0.30103
-4.992779	bağlayın	-0.30103
-4.992779	bağlayıp	-0.30103
-4.089689	bağlı	-0.4259687
-4.992779	bağlıdır	-0.30103
-4.992779	bağlılığı	-0.30103
-4.992779	bağlıydı	-0.30103
-4.992779	bağlıydım	-0.30103
-4.992779	bağlıyordu	-0.30103
-4.691749	bağrı	-0.30103
-4.992779	bağrıma	-0.30103
-4.992779	bağrından	-0.30103
-4.992779	bağrışarak	-0.30103
-4.992779	bağrıştığı	-0.30103
-4.992779	bağrışıyordu	-0.30103
-4.992779	bağı	-0.30103
-4.992779	bağım	-0.30103
-4.816688	bağımsız	-0.30103
-4.992779	bağın	-0.30103
-4.992779	bağını	-0.30103
-4.992779	bağır	-0.30103
-4.816688	bağıra	-0.30103
-4.992779	bağıracak	-0.30103
-4.992779	bağıracaktı	-0.30103
-4.691749	bağıran	-0.30103
-4.515657	bağırarak	-0.30103
-3.816688	bağırdı	-0.5910646
-4.992779	bağırdık	-0.30103
-4.992779	bağırdıkça	-0.30103
-4.594839	bağırdılar	-0.69897
-4.691749	bağırdım	-0.39794
-4.816688	bağırdığım	-0.4771213
-4.992779	bağırdığını	-0.30103
-4.992779	bağırgan	-0.30103
-4.992779	bağırlarını	-0.30103
-4.992779	bağırmadı	-0.30103
-4.816688	bağırmak	-0.30103
-4.515657	bağırmaya	-0.544068
-4.816688	bağırmayı	-0.30103
-4.992779	bağırmayın	-0.30103
-4.992779	bağırmaz	-0.30103
-4.992779	bağırmazsa	-0.30103
-4.992779	bağırmıyor	-0.30103
-4.691749	bağırmış	-0.60206
-4.992779	bağırsa	-0.30103
-4.992779	bağırsak	-0.30103
-4.992779	bağırsana	-0.30103
-4.992779	bağırınca	-0.30103
-4.992779	bağırıp	-0.30103
-4.691749	bağırır	-0.30103
-4.992779	bağırırdı	-0.30103
-4.992779	bağırırken	-0.30103
-4.992779	bağırırmış	-0.30103
-4.390719	bağırıyordu	-0.6532125
-4.515657	bağırıyorsun	-0.544068
-4.816688	bağırışları	-0.30103
-4.992779	bağış	-0.30103
-4.816688	bağışla	-0.30103
-4.992779	bağışladım	-0.30103
-4.992779	bağışlamış	-0.30103
-4.992779	bağışlanacak	-0.30103
-4.992779	bağışlar	-0.30103
-4.992779	bağışlasın	-0.30103
-4.691749	bağışlayın	-0.60206
-4.992779	bağışlayınız	-0.30103
-3.537934	baş	-0.3458423
-3.913598	başa	-0.3107898
-4.691749	başak	-0.30103
-4.992779	başarabildiniz	-0.30103
-4.992779	başarabilirim	-0.30103
-4.992779	başarabiliriz	-0.30103
-4.992779	başarabilirsin	-0.30103
-4.992779	başaracaksın	-0.30103
-4.992779	başaracağım	-0.30103
-4.992779	başaracağını	-0.30103
-4.992779	başaracağız	-0.30103
-4.992779	başaramayacağız	-0.30103
-4.992779	başaramayız	-0.30103
-4.992779	başaramazsam	-0.30103
-4.992779	başardı	-0.30103
-4.448711	başardık	-0.60206
-4.992779	başardılar	-0.30103
-4.816688	başardım	-0.4771212
-4.594839	başardın	-0.69897
-4.992779	başarmadaki	-0.30103
-4.992779	başarmış	-0.30103
-4.992779	başarmıştı	-0.30103
-4.992779	başarılar	-0.30103
-4.691749	başarılı	-0.39794
-4.992779	başarılıydı	-0.30103
-4.992779	başarının	-0.30103
-4.992779	başarır	-0.30103
-4.992779	başarısı	-0.30103
-4.992779	başarısından	-0.30103
-4.992779	başarısız	-0.30103
-4.992779	başarısızlık	-0.30103
-4.992779	başarısızlıklar	-0.30103
-4.992779	başarıyorsun	-0.30103
-4.992779	başasistana	-0.30103
-4.992779	başbakan	-0.30103
-4.992779	başbakanı	-0.30103
-4.992779	başcağızını	-0.30103
-4.992779	başgardiyanın	-0.30103
-4.816688	başhekim	-0.30103
-4.992779	başhekime	-0.30103
-4.992779	başhekimle	-0.30103
-2.973662	başka	-0.5563025
-4.992779	başkaca	-0.30103
-4.816688	başkaları	-0.4771212
-4.816688	başkalarına	-0.30103
-4.992779	başkalarında	-0.30103
-4.992779	başkalarından	-0.30103
-4.992779	başkalarının	-0.30103
-4.594839	başkan	-0.4771212
-4.992779	başkanlığını	-0.30103
-4.816688	başkanı	-0.30103
-4.992779	başkanım	-0.30103
-4.515657	başkası	-0.30103
-4.816688	başkasına	-0.30103
-4.992779	başkasını	-0.30103
-4.992779	başkasının	-0.30103
-4.992779	başkatip	-0.30103
-4.816688	başkaydı	-0.4771212
-4.816688	başkent	-0.30103
-4.992779	başkentinswki	-0.30103
-4.515657	başla	-0.7781512
-3.218262	başladı	-1.10721
-4.089689	başladık	-0.7781512
-4.992779	başladıkları	-0.30103
-4.038536	başladılar	-0.7201593
-3.714025	başladım	-0.9242793
-4.816688	başladın	-0.4771212
-4.816688	başladınız	-0.30103
-4.515657	başladığı	-0.30103
-4.992779	başladığım	-0.30103
-4.992779	başladığımı	-0.30103
-4.992779	başladığımız	-0.30103
-4.992779	başladığın	-0.30103
-4.691749	başladığını	-0.30103
-4.515657	başlama	-0.4259687
-4.992779	başlamadım	-0.30103
-4.594839	başlamak	-0.3679768
-4.992779	başlaması	-0.30103
-4.992779	başlamaz	-0.30103
-4.448711	başlamış	-0.39794
-4.691749	başlamışlar	-0.60206
-4.594839	başlamışlardı	-0.69897
-4.992779	başlamışsındır	-0.30103
-3.66034	başlamıştı	-0.9030899
-4.594839	başlamıştım	-0.69897
-4.816688	başlamıştır	-0.4771212
-4.816688	başlandı	-0.30103
-4.992779	başlangıcı	-0.30103
-4.816688	başlangıcında	-0.4771212
-4.992779	başlangıcından	-0.30103
-4.992779	başlangıcıydı	-0.30103
-4.594839	başlangıç	-0.4771212
-4.816688	başlangıçta	-0.30103
-4.816688	başlanması	-0.4771213
-4.448711	başlar	-0.39794
-4.992779	başlarım	-0.30103
-4.992779	başların	-0.30103
-4.691749	başlarına	-0.30103
-4.515657	başlarında	-0.3521825
-4.992779	başlarından	-0.30103
-4.515657	başlarını	-0.30103
-4.992779	başlarıydı	-0.30103
-4.992779	başlasak	-0.30103
-4.992779	başlat	-0.30103
-4.992779	başlatmadım	-0.30103
-4.816688	başlattı	-0.4771212
-4.992779	başlattın	-0.30103
-4.992779	başlattıysa	-0.30103
-4.992779	başlatıldı	-0.30103
-4.816688	başlayabilir	-0.4771213
-4.992779	başlayabiliriz	-0.30103
-4.992779	başlayabilirsiniz	-0.30103
-4.691749	başlayacak	-0.60206
-4.691749	başlayacaktı	-0.60206
-4.992779	başlayacaktım	-0.30103
-4.252416	başlayalım	-0.6368221
-4.515657	başlayan	-0.30103
-4.992779	başlayarak	-0.30103
-4.816688	başlayın	-0.4771212
-4.816688	başlayınca	-0.30103
-4.992779	başlayıncaya	-0.30103
-4.816688	başlı	-0.30103
-4.816688	başlıca	-0.30103
-4.992779	başlıklı	-0.30103
-4.992779	başlısı	-0.30103
-4.252416	başlıyor	-0.7781513
-4.515657	başlıyordu	-0.7781512
-4.992779	başlıyorduk	-0.30103
-4.515657	başlıyorum	-0.7781512
-4.147681	başlıyoruz	-1.146128
-4.992779	başmabeyinci	-0.30103
-4.992779	başmakçıdır	-0.30103
-4.992779	başrol	-0.30103
-4.992779	başsız	-0.30103
-4.691749	başta	-0.30103
-4.992779	baştadır	-0.30103
-4.816688	baştaki	-0.30103
-4.089689	baştan	-0.3521825
-4.992779	baştaydı	-0.30103
-4.992779	başucumda	-0.30103
-4.992779	başucumdaki	-0.30103
-4.816688	başucuna	-0.30103
-4.816688	başucunda	-0.30103
-4.992779	başvur	-0.30103
-4.992779	başvurarak	-0.30103
-4.992779	başvurdu	-0.30103
-4.992779	başvurmak	-0.30103
-4.992779	başvuru	-0.30103
-4.691749	başvurusuna	-0.60206
-4.691749	başvurusunda	-0.39794
-4.992779	başvuruyordu	-0.30103
-4.992779	başyapıtı	-0.30103
-4.992779	başçı	-0.30103
-4.992779	başüstüne	-0.30103
-3.702744	başı	-0.3258536
-4.992779	başıboş	-0.30103
-4.992779	başıdır	-0.30103
-4.147681	başım	-0.3617279
-4.06336	başıma	-0.3152705
-4.992779	başımayım	-0.30103
-4.691749	başımda	-0.30103
-4.339566	başımdan	-0.4771212
-4.816688	başımla	-0.30103
-3.895869	başımı	-0.3424227
-4.691749	başımın	-0.30103
-4.816688	başımız	-0.30103
-4.448711	başımıza	-0.3424227
-4.992779	başımızayız	-0.30103
-4.992779	başımızdan	-0.30103
-4.992779	başımızı	-0.30103
-4.147681	başın	-0.30103
-3.474265	başına	-0.3617278
-4.691749	başınasın	-0.60206
-4.992779	başınaydı	-0.30103
-3.862445	başında	-0.3388186
-4.448711	başındaki	-0.30103
-4.038536	başından	-0.3452336
-3.285209	başını	-0.3738064
-4.339566	başının	-0.3309932
-4.816688	başınız	-0.30103
-4.691749	başınıza	-0.30103
-4.992779	başınızı	-0.30103
-4.390719	başıyla	-0.3357921
-4.992779	başşehri	-0.30103
-3.545621	be	-0.692721
-4.293809	bebek	-0.5118834
-4.992779	bebekleri	-0.30103
-4.992779	bebeklerim	-0.30103
-4.992779	bebeler	-0.30103
-4.816688	bebeği	-0.30103
-3.802447	bebeğim	-0.845098
-4.992779	bebeğimiz	-0.30103
-4.816688	becerdin	-0.30103
-4.992779	becerebileceği	-0.30103
-4.992779	becerecekti	-0.30103
-4.992779	beceremezsiniz	-0.30103
-4.992779	beceremiyordum	-0.30103
-4.992779	beceremiyorsunuz	-0.30103
-4.992779	beceremiyorum	-0.30103
-4.992779	becerikli	-0.30103
-4.992779	beceriyor	-0.30103
-4.992779	beceriyorsun	-0.30103
-4.992779	bedasıl	-0.30103
-4.594839	bedava	-0.3679768
-4.992779	beddua	-0.30103
-4.816688	bedel	-0.30103
-4.992779	bedeldir	-0.30103
-4.691749	bedeli	-0.30103
-4.992779	bedelinin	-0.30103
-4.992779	bedenimden	-0.30103
-4.992779	bedeninden	-0.30103
-4.992779	bedestende	-0.30103
-4.992779	bedir	-0.30103
-4.252416	bedri	-0.30103
-4.992779	bedrinin	-0.30103
-4.992779	bedri’den	-0.30103
-4.448711	bedri’nin	-0.30103
-4.691749	bedri’ye	-0.30103
-4.816688	bedri’yi	-0.30103
-4.992779	beee	-0.30103
-4.992779	bekaj	-0.30103
-4.816688	bekar	-0.30103
-4.992779	bekardır	-0.30103
-4.816688	bekarlık	-0.30103
-4.816688	bekarın	-0.30103
-4.179865	bekir	-0.30103
-4.992779	bekirceğiz	-0.30103
-4.992779	bekiri	-0.30103
-4.992779	bekirin	-0.30103
-3.737506	bekle	-0.6532125
-4.089689	bekledi	-0.7781513
-4.594839	bekledik	-0.69897
-4.992779	bekledikleri	-0.30103
-4.515657	bekledikten	-0.7781513
-4.816688	beklediler	-0.4771212
-4.117718	bekledim	-0.7533277
-4.992779	bekledin	-0.30103
-4.691749	beklediniz	-0.39794
-4.992779	beklediği	-0.30103
-4.515657	beklediğim	-0.30103
-4.992779	beklediğimi	-0.30103
-4.691749	beklediğini	-0.30103
-4.992779	beklediğiniz	-0.30103
-4.594839	bekleme	-0.3679768
-4.816688	beklemede	-0.30103
-4.594839	beklemeden	-0.30103
-4.992779	beklemedi	-0.30103
-4.816688	beklemediği	-0.4771212
-4.816688	beklemediğim	-0.30103
-4.816688	beklemediğimiz	-0.30103
-4.448711	beklemek	-0.3424227
-4.992779	beklemekte	-0.30103
-4.992779	beklemelerini	-0.30103
-4.992779	beklemeli	-0.30103
-4.992779	beklemenin	-0.30103
-4.992779	beklemesinde	-0.30103
-4.390719	beklemeye	-0.5228788
-4.992779	beklemeyeceğiz	-0.30103
-4.992779	beklemeyi	-0.30103
-4.992779	beklemez	-0.30103
-4.992779	beklemiyordular	-0.30103
-4.691749	beklemiyordum	-0.60206
-4.992779	beklemiyorum	-0.30103
-4.816688	beklemişti	-0.4771212
-4.992779	beklemiştim	-0.30103
-4.992779	beklenilenden	-0.30103
-4.992779	beklenir	-0.30103
-4.214628	bekleniyor	-1.079181
-4.691749	beklenmedik	-0.60206
-4.816688	beklenmeyen	-0.4771212
-4.992779	beklenmiyor	-0.30103
-4.293809	bekler	-0.39794
-4.816688	beklerdi	-0.4771212
-4.594839	beklerim	-0.4771212
-4.992779	bekleriz	-0.30103
-4.816688	beklerken	-0.30103
-4.816688	beklerler	-0.30103
-4.816688	beklersin	-0.30103
-4.992779	beklersiniz	-0.30103
-4.992779	beklesinler	-0.30103
-4.992779	bekletme	-0.30103
-4.992779	bekletmeden	-0.30103
-4.992779	bekletti	-0.30103
-4.816688	beklettiğim	-0.4771213
-4.691749	bekleyebilir	-0.39794
-4.691749	bekleyecek	-0.30103
-4.992779	bekleyeceksiniz	-0.30103
-4.339566	bekleyeceğim	-0.9542425
-4.816688	bekleyeceğiz	-0.4771212
-4.992779	bekleyemedim	-0.30103
-4.816688	bekleyemem	-0.4771212
-4.992779	bekleyemeyecekti	-0.30103
-4.992779	bekleyemeyeceğim	-0.30103
-4.992779	bekleyemeyeceğini	-0.30103
-4.992779	bekleyemez	-0.30103
-4.992779	bekleyemiyorum	-0.30103
-4.214628	bekleyen	-0.30103
-4.992779	bekleyenlerin	-0.30103
-4.816688	bekleyerek	-0.30103
-4.992779	bekleyeyim	-0.30103
-4.117718	bekleyin	-0.6532125
-4.992779	bekleyip	-0.30103
-4.992779	bekleyiş	-0.30103
-4.992779	bekleşen	-0.30103
-4.992779	bekleşmeye	-0.30103
-4.992779	bekleştiler	-0.30103
-4.038536	bekliyor	-0.5835766
-4.339566	bekliyordu	-0.9542425
-4.816688	bekliyorduk	-0.4771212
-4.339566	bekliyordum	-0.9542425
-4.594839	bekliyordun	-0.4771212
-4.992779	bekliyordunuz	-0.30103
-4.448711	bekliyorlar	-0.39794
-4.594839	bekliyorlardı	-0.69897
-4.816688	bekliyormuş	-0.30103
-4.390719	bekliyorsun	-0.5228788
-4.816688	bekliyorsunuz	-0.4771212
-4.390719	bekliyorum	-0.90309
-4.594839	bekliyoruz	-0.69897
-4.992779	bekman	-0.30103
-4.992779	bektaşinin	-0.30103
-4.992779	bekâr	-0.30103
-4.992779	bekâra	-0.30103
-4.992779	bekârdı	-0.30103
-4.992779	bekârlardan	-0.30103
-4.992779	bekçi	-0.30103
-4.594839	bel	-0.30103
-4.691749	bela	-0.39794
-4.816688	belada	-0.30103
-4.992779	beladan	-0.30103
-4.992779	belagat	-0.30103
-4.992779	belanı	-0.30103
-4.816688	belası	-0.4771212
-4.594839	belasını	-0.3679768
-4.992779	belasısın	-0.30103
-4.515657	belediye	-0.3521825
-4.992779	belediyedir	-0.30103
-4.992779	belediyesince	-0.30103
-4.992779	belerivermiş	-0.30103
-4.816688	beleş	-0.30103
-4.816688	belgeli	-0.4771213
-4.992779	belgesi	-0.30103
-4.691749	belgrad	-0.30103
-4.992779	belgrada	-0.30103
-4.992779	belgradlılar	-0.30103
-4.992779	belgradın	-0.30103
-4.691749	beli	-0.30103
-4.992779	belim	-0.30103
-4.992779	belime	-0.30103
-4.992779	belinde	-0.30103
-4.816688	belinden	-0.30103
-4.691749	beline	-0.30103
-4.992779	belini	-0.30103
-4.594839	belirdi	-0.69897
-4.992779	beliren	-0.30103
-3.831411	belirgin	-0.5496719
-4.992779	belirginleşme	-0.30103
-4.992779	belirginleşmesi	-0.30103
-4.992779	belirginleşmeye	-0.30103
-4.992779	belirip	-0.30103
-4.992779	belirlemek	-0.30103
-4.992779	belirlendi	-0.30103
-4.992779	belirlenebilir	-0.30103
-4.992779	belirlenen	-0.30103
-4.992779	belirlenmiş	-0.30103
-4.992779	belirleyici	-0.30103
-4.992779	belirli	-0.30103
-4.992779	belirmişti	-0.30103
-4.594839	belirsiz	-0.30103
-4.594839	belirtildi	-0.69897
-4.992779	belirtilenler	-0.30103
-4.448711	belirtilerek	-0.39794
-4.992779	belirtiliyor	-0.30103
-4.594839	belirtiyor	-0.4771212
-4.816688	belirtti	-0.4771212
-4.992779	belirttiği	-0.30103
-3.244591	belki	-0.4501986
-4.992779	belledim	-0.30103
-3.561415	belli	-0.5062795
-4.691749	bellidir	-0.60206
-4.992779	bellisiz	-0.30103
-4.448711	belliydi	-0.845098
-4.992779	belvedere	-0.30103
-4.992779	belyayev	-0.30103
-4.992779	belâsını	-0.30103
-4.992779	belçika	-0.30103
-4.816688	bembeyaz	-0.30103
-2.393988	ben	-0.4782193
-3.831411	bence	-0.3357921
-4.992779	bencilsin	-0.30103
-3.691749	bende	-0.4191293
-4.992779	bendeki	-0.30103
-3.45496	benden	-0.4057654
-4.992779	bendendir	-0.30103
-4.992779	bendeniz	-0.30103
-4.992779	bendenize	-0.30103
-4.816688	bendim	-0.30103
-4.992779	benedikt	-0.30103
-2.650356	beni	-0.4021419
-2.822517	benim	-0.437004
-4.992779	benimdi	-0.30103
-4.594839	benimki	-0.30103
-4.992779	benimkilerin	-0.30103
-4.816688	benimkini	-0.30103
-3.436476	benimle	-0.3943057
-4.816688	benimlesin	-0.4771212
-4.816688	benizli	-0.30103
-4.992779	benle	-0.30103
-4.992779	benlik	-0.30103
-4.515657	bensiz	-0.30103
-4.992779	benzemektedir	-0.30103
-4.992779	benzemeye	-0.30103
-4.691749	benzemeyen	-0.30103
-4.992779	benzemeyenlere	-0.30103
-4.691749	benzemez	-0.60206
-4.691749	benzemiyor	-0.60206
-4.515657	benzemiyordu	-0.7781512
-4.992779	benzemiyorlardı	-0.30103
-4.089689	benzer	-0.39794
-4.992779	benzerdi	-0.30103
-4.816688	benzeri	-0.30103
-4.992779	benzetir	-0.30103
-4.992779	benzetiyordu	-0.30103
-4.992779	benzetti	-0.30103
-4.992779	benzettiğinizi	-0.30103
-4.594839	benzeye	-0.3679768
-4.992779	benzeyeceklerini	-0.30103
-3.97159	benzeyen	-0.4045706
-4.992779	benzeyerek	-0.30103
-4.339566	benzi	-0.3309932
-4.992779	benzimde	-0.30103
-4.691749	benzin	-0.30103
-4.992779	benzinimiz	-0.30103
-4.992779	benzinin	-0.30103
-4.339566	benziyor	-0.69897
-4.089689	benziyordu	-0.60206
-4.992779	benziyorlar	-0.30103
-4.992779	benziyorlardı	-0.30103
-4.992779	benziyorsunuz	-0.30103
-4.992779	benziyorum	-0.30103
-4.992779	benziyoruz	-0.30103
-4.992779	beraat	-0.30103
-3.401714	beraber	-0.3222193
-4.594839	beraberce	-0.30103
-4.816688	beraberdi	-0.4771212
-4.816688	beraberdiler	-0.4771212
-4.992779	beraberinde	-0.30103
-4.691749	beraberlik	-0.30103
-4.992779	berabermiş	-0.30103
-4.06336	berbat	-0.4436975
-4.992779	berbatsın	-0.30103
-4.992779	berbattı	-0.30103
-4.252416	berber	-0.3245111
-4.691749	berbere	-0.39794
-4.992779	berberin	-0.30103
-4.992779	berbermiş	-0.30103
-4.992779	bere	-0.30103
-4.992779	beredir	-0.30103
-4.594839	bereket	-0.3679768
-4.992779	bereketli	-0.30103
-4.992779	berekettir	-0.30103
-4.992779	beresini	-0.30103
-3.385324	beri	-0.318289
-4.515657	beria	-0.3521825
-4.816688	beriayı	-0.30103
-4.992779	beria’nın	-0.30103
-4.992779	beriki	-0.30103
-4.992779	berişa	-0.30103
-4.691749	berk	-0.30103
-4.816688	berlin	-0.30103
-4.691749	berlinde	-0.30103
-4.992779	berlinden	-0.30103
-4.816688	berline	-0.30103
-4.816688	berlinin	-0.30103
-4.992779	bermutat	-0.30103
-4.992779	berrak	-0.30103
-4.992779	besarabyalı	-0.30103
-4.992779	besbelli	-0.30103
-4.816688	besbelliydi	-0.4771212
-4.992779	besle	-0.30103
-4.992779	besledik	-0.30103
-4.992779	beslemeden	-0.30103
-4.594839	beslemek	-0.30103
-4.992779	beslemekten	-0.30103
-4.691749	beslemez	-0.60206
-4.816688	beslenir	-0.4771212
-4.992779	beslenirken	-0.30103
-4.515657	besler	-0.3521825
-4.992779	besmeleli	-0.30103
-4.515657	beter	-0.3521826
-4.992779	beterdi	-0.30103
-4.594839	beterdir	-0.69897
-4.992779	betli	-0.30103
-4.816688	beton	-0.30103
-4.992779	bevliye	-0.30103
-3.480896	bey	-0.4149733
-4.992779	beyan	-0.30103
-3.577806	beyaz	-0.3396594
-4.992779	beyaza	-0.30103
-4.691749	beyazdı	-0.39794
-4.992779	beyazdır	-0.30103
-4.992779	beyazlanmıştı	-0.30103
-4.992779	beyazlığı	-0.30103
-4.992779	beyazın	-0.30103
-4.992779	beyazıt	-0.30103
-4.816688	beyazıt’a	-0.30103
-4.515657	beybaba	-0.30103
-4.992779	beybabanın	-0.30103
-4.992779	beyde	-0.30103
-4.816688	beyden	-0.30103
-4.992779	beydendi	-0.30103
-4.992779	beydi	-0.30103
-4.390719	beyefendi	-0.3802112
-4.992779	beyefendisiyle	-0.30103
-4.992779	beygir	-0.30103
-4.992779	beyhude	-0.30103
-4.816688	beyi	-0.30103
-4.06336	beyim	-0.4771212
-3.831411	beyin	-0.4771213
-4.992779	beyinsiz	-0.30103
-4.691749	beyle	-0.30103
-3.913598	beyler	-0.6842468
-4.816688	beylerin	-0.30103
-4.594839	beylik	-0.30103
-4.992779	beylikten	-0.30103
-4.992779	beyliktir	-0.30103
-4.992779	beyliği	-0.30103
-4.691749	beyni	-0.30103
-4.992779	beynime	-0.30103
-4.992779	beynimi	-0.30103
-4.992779	beynin	-0.30103
-4.992779	beyobasını	-0.30103
-4.992779	beyoğlunda	-0.30103
-4.992779	beysin	-0.30103
-4.816688	beyşehir	-0.30103
-4.992779	beyşehirden	-0.30103
-4.038536	bez	-0.4313638
-4.992779	bezeden	-0.30103
-3.862445	bezi	-0.5563025
-4.992779	bezik	-0.30103
-4.992779	bezinden	-0.30103
-4.816688	bezini	-0.4771213
-4.594839	bezinin	-0.69897
-4.390719	bezler	-0.6532125
-4.448711	bezleri	-0.60206
-4.992779	beğendi	-0.30103
-4.594839	beğendim	-0.69897
-4.515657	beğendin	-0.7781513
-4.992779	beğendiğim	-0.30103
-4.992779	beğendiğine	-0.30103
-4.992779	beğendiğinize	-0.30103
-4.992779	beğeneceksin	-0.30103
-4.992779	beğeneceğini	-0.30103
-4.992779	beğenilmesine	-0.30103
-4.992779	beğenirsin	-0.30103
-4.992779	beğenmedin	-0.30103
-4.992779	beğenmediğin	-0.30103
-4.992779	beğenmediğini	-0.30103
-4.992779	beğenmeyen	-0.30103
-4.992779	beğenmeyenin	-0.30103
-4.992779	beğenmez	-0.30103
-4.816688	beğenmiş	-0.30103
-4.816688	beğensin	-0.30103
-3.048296	beş	-0.5188601
-4.816688	beşe	-0.30103
-4.992779	beşer	-0.30103
-4.992779	beşeriz	-0.30103
-4.691749	beşi	-0.39794
-4.992779	beşik	-0.30103
-4.816688	beşikte	-0.30103
-4.992779	beşikten	-0.30103
-4.992779	beşinci	-0.30103
-4.816688	beşindeki	-0.4771213
-4.816688	beşinden	-0.30103
-4.816688	beşini	-0.30103
-4.594839	beşlik	-0.30103
-4.992779	beşlisi	-0.30103
-4.992779	bg	-0.30103
-4.691749	bi	-0.30103
-4.992779	bianca	-0.30103
-4.992779	biber	-0.30103
-4.992779	bihaber	-0.30103
-4.515657	bil	-0.4259687
-3.530381	bilateral	-0.5158738
-4.691749	bildikleri	-0.39794
-4.992779	bildiklerini	-0.30103
-4.992779	bildiktir	-0.30103
-4.816688	bildim	-0.30103
-4.339566	bildin	-0.69897
-4.816688	bildirdi	-0.4771212
-4.992779	bildirelim	-0.30103
-4.594839	bildirildi	-0.69897
-4.816688	bildirilmedi	-0.4771212
-4.992779	bildirin	-0.30103
-4.992779	bildirirler	-0.30103
-4.992779	bildiriyorlardı	-0.30103
-4.992779	bildirmişler	-0.30103
-4.515657	bildiği	-0.30103
-4.448711	bildiğim	-0.39794
-4.816688	bildiğimiz	-0.30103
-4.594839	bildiğin	-0.30103
-4.816688	bildiğinden	-0.30103
-4.992779	bildiğine	-0.30103
-4.339566	bildiğini	-0.4771213
-4.992779	bildiğiniz	-0.30103
-4.992779	bildiğinizi	-0.30103
-2.984179	bile	-0.3651475
-4.992779	bilebilir	-0.30103
-4.816688	bilebilirdim	-0.30103
-4.992779	bilebilirim	-0.30103
-4.992779	bileceğim	-0.30103
-4.992779	bilekleri	-0.30103
-4.992779	bileklerime	-0.30103
-4.992779	bilemedi	-0.30103
-4.515657	bilemedim	-0.4259687
-4.816688	bilemem	-0.4771212
-4.992779	bilemeyeceğim	-0.30103
-4.992779	bilemeyerek	-0.30103
-4.816688	bilemeyiz	-0.4771212
-4.992779	bilemez	-0.30103
